19 300
<bol> 0.0009240530877291052 0.0010174380173249556 -0.001518575849287604 -0.001533048603298 -0.0005233230112804302 0.001515890925998734 -0.0014520630357324207 -0.0013626632091087564 -0.0016662959152633139 -0.0009322187644373803 -0.0007606903582906959 0.0009075431550021103 -0.0013406606357529455 -0.0007040702482821497 -0.0006225808316593454 -0.00036173857585464984 0.001636384114313189 -0.00030330750823714177 -0.0016482822167247248 0.0011417395286707106 0.000362340902389646 -0.0010684436803080366 -0.0012305710718241714 0.00036651256690170184 0.0008595930585998832 0.0014456946361247577 0.00031798346425065586 0.0008296366189950305 -0.001207639403360628 -0.0010540639518630184 0.0005410736973637599 -0.0006205231202387499 0.0008592179727769979 0.0008039252269861429 -0.001145674052165003 -0.0015301702445240763 0.0015964475186785083 -0.0011111156130040108 -0.000163861679913745 0.0007560719836098171 0.00011709776974134551 -0.0015576337051104014 -0.001563595156236157 -0.0007718291415766613 -0.0003423658941879871 7.58399147435994e-05 0.0010482813059653298 -0.0012170887100327842 8.916046056334805e-05 0.0009751706578519545 -0.00015979143519757955 0.0007560067442095341 -0.0003934967962407051 0.0010571575864385568 0.0016132805032832934 -0.001340840549719992 -0.0010437979641252778 0.0011682207625501686 -0.0013282818263724069 -0.0007098885202060538 0.0010077469335099457 0.0011106997784680155 -0.0013784764704738738 -0.0006532015403555885 0.0002503295855401108 0.0011776926618727054 0.0007316551928186314 0.0003759297070903669 0.0010447580828486062 3.4770810957785476e-05 0.0006972218180635962 -0.0011471091864515952 0.0006731434753947176 0.0012891795454296865 -0.00034399058236977124 0.0011148287424885973 -0.0009020826487563326 -0.0014212135059767184 0.0006948481033608246 0.0011420742375014095 -0.0009842973168033315 -0.0004980834013524065 -0.0013656703641515067 0.0014319852599133163 -0.0012827504538576661 0.0004485995562426003 -0.0012636803907737082 -0.00015470741151200621 0.0007363199354044859 0.00032275185185416704 0.0005067654591005335 -0.0015077781266742178 0.0014724637367876216 -3.084056396081244e-05 -0.00035667159735909006 0.00018690470798055268 -0.0010683907155779216 0.001084531219149758 -0.001255740255363114 0.0012372614629590172 -0.001533538258346475 0.0005840895487040066 -0.0006153938794657497 0.0015580918509113736 -0.0015011667059508303 0.001464529214230481 0.0007140683698894111 0.0007475301915874725 -0.0007559076659137085 -0.0009179334369672768 0.00129041004958148 9.140103848464245e-05 -0.00030212318098318884 -0.001183863385408703 0.00118272541547116 -0.001585070927821855 -0.0016324105157840157 -0.0016460907878637996 -0.00032091068098316476 -0.0008436183043369896 0.0006946480392866548 0.0011501930184240237 0.0008070543577039022 -7.806283036499714e-05 -2.003132999886173e-06 0.00027906398309637424 0.0005815767401880875 -0.0001764588303972231 -0.00031750146019482586 1.7090639027556515e-05 -0.0006035416311419677 5.795164690026338e-05 -0.0004856612542161533 -0.0009806054563710996 0.0010636753001327885 0.0006615364118112146 -0.00013886320242907258 0.0003788887321702507 0.0011510382314164744 -0.0013592326532050208 -0.0010535546548014686 -0.001207758022218018 -0.001451998262047465 0.0005917615610910874 -0.000756329432846328 -0.00046210532485749955 0.00044400060303738273 -0.00041991068676061963 2.8226667039082197e-05 0.0015799948060024552 0.0014538473026488225 0.0005894413375204907 0.0001741872899914437 0.001096606013025808 0.0016005478240628944 0.0008907054865513608 0.0006116575272772824 0.0009052949633281836 -0.0007137561491317377 -0.001492998675605378 0.00015913443450880018 0.0003436305593272881 0.0015644211168169447 0.0008651503382633606 -0.001293384082079647 -0.000979020946267263 0.0008510160158629702 -0.0012676657300841022 -3.255039970175887e-05 -0.001314576518085173 -0.0009457772350338234 0.0015582052700602435 -0.0004603346719995443 0.0013307831142440644 0.0016361587694125647 -0.00045546645455147265 0.0006818852010000043 0.0014521128825769763 0.0008954674834203171 -0.00023530469528648787 -0.0009211774430075186 -0.00039212621956819866 0.0006835303641767499 -0.0002357606736557973 -0.0003329279272124014 -0.00011995763196475649 -0.0010584070480469802 0.0007377316824793209 9.354123525658985e-05 1.6586178986235457e-05 0.000606768217785015 -0.0013645438277714286 0.0011184477963081952 -0.0016370903987003652 -0.001332349810485042 0.00096974475828152 -5.8363201811050066e-05 -0.0011031852745894276 -0.001219868689946456 -0.001091706595378265 0.0008513609808126696 0.0007889951631259057 -0.00013072589956853977 -0.0008967360235579421 0.0011985858865150181 -0.0011550803730312963 -0.0008601085421248541 0.0015063619687097857 -0.0016275984055001175 -0.0016427354793913853 0.0015003264908568575 -0.0009351399978694301 0.0004119093911268993 0.00010141865778240082 -0.0005715433817617331 -0.0008776608297833627 0.00034911826918694827 -0.001521521129621305 -0.0011106989673384496 0.0015688906500923622 -0.0002553676121003843 -0.00042831967445094906 -0.0005277753824276891 -0.001325556991099102 0.0002382035502390895 0.0014064893167160134 -0.0016180826707541173 0.000221227845484769 -0.0015477346353633607 -0.0007715702321414746 -0.0005532465745523167 0.001420664390779884 0.0012418323242969593 0.0007204235146012121 -0.0005840382590579992 -0.0009188881904698874 -0.001485317441215378 -0.000908555384635101 -0.00029475927650197227 -0.0006760124620554638 0.0016063229563531261 0.0008908531104147747 0.0011136484793923195 -0.001072839829621735 -0.00024208110110821073 -0.0016431950072977937 0.0012729368355626706 -0.0009427330534237219 0.0012044007685792786 0.0007192823708269041 0.0011468250849668337 -0.0003754124604976032 -0.001648727442823039 -0.0007834928763514739 0.0006794245971134659 0.001144054380520142 0.001629771181541636 -0.0008940989986723654 -0.0016450951920550187 0.0005345536756220392 -0.0010647980709139722 0.0013533193307578534 0.0013415064521623877 -0.000889551821163301 -0.001592150437159581 0.0014345433223551989 -0.0011380195286380625 0.0016264280803676518 -0.0015086706241014506 0.001212490220342331 -0.0003239750373947898 -0.0004604347001053159 0.0007137397487036089 4.806557942455934e-05 -0.001478232092084982 0.0007575052047756591 0.0006131453113088031 -0.0010636339920421464 -0.0011019398061396337 -0.0009232934304306129 -0.0006616261034781874 -0.0015003532165050642 -0.0011110227929871227 -8.587279926275798e-05 0.0010594069140538365 -0.0005598222813300058 -0.00018649864497275855 -0.0013167030653019782 0.0012514743567721435 0.0009107102664080094 0.00085688013607376 -0.00102579346413796 0.0010875385230606932 0.0006076157337107286 0.001171492737751358 -0.0010871864198404083 0.0009304417430395758 -0.0009464490372834673 -0.0002917279342841386 0.0008612636391020301
<eol> -0.0011651490953898521 -0.0005544709493099726 0.0003668516799497042 0.0001930361431275179 -0.0002759693116903107 -0.0009835981500490691 0.0011206065855707884 0.0008902305835735715 0.00011845202902574437 0.001156064887648858 0.00086664427813579 0.00023730774695746964 0.0006928759931386207 0.0006932720807311434 -0.0011052475467351489 0.0014925452402840557 -0.00029699208771916455 0.00022210460346576484 -0.00017489220188324678 0.00014106123865014353 0.0006205365520682027 0.00040971742974252605 8.046087579182964e-05 -5.039383892640049e-05 0.0012385390868168728 0.0005513435800638848 0.0004779856892372782 -0.001369477779181925 -0.0007167758999397307 -0.0011126569609526517 -8.42896750698978e-05 -0.001427601953799009 -0.001145364589241086 0.0007258888607083533 -0.0006187230101016499 -0.0014946947924042702 -0.0009690809075009039 -0.00020467797357845508 -8.300366765698968e-05 4.5833378299111275e-05 -0.0015947623657437521 0.0011163786473257968 0.0011628768653525858 0.0009449724561658466 -0.0011905323747300673 -0.0014830016792945796 -0.00033133962667176856 -0.0004767539545937745 -0.0010681722886669743 -0.0011696889878709522 -0.00044473318182352374 0.0006254505198312602 0.0007135041345256449 0.0016049895513403272 0.0008749319687542216 -0.0006014283167577463 0.0015747237782039209 0.0015038077468861781 -0.0010472890655238971 0.00026981152379283713 0.001100648322478453 0.0014912250570227902 -0.0015601404662639905 0.0003935365632290861 -0.00045490919220725486 -0.0001894629271789458 -0.00010591191865608491 0.0012187200193727117 0.0015717053925739556 -0.001186304726117845 -0.0005389691462094344 -7.439034553618456e-05 -0.001011584960936971 0.0016028560559679928 0.0009109742976297551 0.0012915800085073975 -0.0006159716799751934 -0.0007514304610209806 -0.0007857428917459598 -0.0006254265475798532 -0.0014859076214445792 0.0009988478525337287 0.0010731110148775283 0.0014475681842121128 -0.00019720751306807633 -0.0004217027803939691 -0.001561298430432173 0.0008555481957239467 0.0006095027607388002 0.0011227845383869693 0.0012344052504684698 0.001594186048685412 -0.00017924721890208182 -0.0015992466468169085 -0.00111961203521031 0.00021757992083898153 -0.0010098755936634209 -0.0016137175848057585 0.000144686101946025 0.0011799009661159357 0.00047379808569373433 -0.0003426724871638151 0.0016354067649267054 -0.00023275744800503554 -0.0006747331389774164 0.0001070274893220076 -1.93035730266455e-05 -0.0016119128323444718 0.00039580393647619246 0.0012996102309409871 -0.0009187211968476612 0.0013075237099879294 -0.0006540345367292678 -8.828184248296485e-05 -0.00038994031255828033 0.0011310408398198188 -8.815025449403999e-05 -0.000967611716196927 -0.00013510071013244311 -7.781047990045323e-05 0.0007338056186885776 0.0005229804136156034 0.001313661800989311 0.0002921844058328489 -0.0003846165703992232 -0.0001836350546380924 0.001352645550115784 0.0007564096562714505 -0.0009716857850390542 0.0009014661034191788 0.0008589451329961306 -0.0012492636928570695 -0.0013446102268181213 -0.0005483505199881312 -0.0014075681121403694 -9.385012303807015e-06 -3.879078507706688e-05 0.0014604171313577715 0.0005059288825438273 0.0003002681277507558 -0.000959658654943386 -0.0010167449496578315 -9.96650742323936e-05 0.0014263627306134734 -0.00041716767627631937 -0.0002808016398821596 0.0009239975108402214 -0.001437086788733174 0.000573426932870341 -0.0007801414335188324 -0.0005223514688529639 0.0002884563888678964 -0.0006499222263341259 -0.0012236927978378869 0.0013623264522354466 0.0015000542964966905 0.0005043633054979391 0.000416624190538388 0.00026974858800737824 0.0013702649961647223 -0.0010307494968031122 0.0009579922652004594 -0.0006585455147575451 0.001507485154760742 -0.001025473312544804 0.0006933613495245925 0.0011761721900893963 0.0015920220356179942 -0.0009668442876905914 0.00166436199315705 0.0012726595642033375 0.0014770615949278175 -5.813500184216715e-05 0.001303720928854649 0.00012809301941429615 6.426814128190489e-05 0.0011114669570730965 0.0011905621706347145 -0.000900269935857893 0.0011873255676629409 0.0011139301393678777 -0.0011243529866988985 -0.001147184076745513 -0.0012802338094630562 0.0005713937180602775 -0.0012742701234340905 0.0010649062505106496 0.0013744636849631164 -0.0014735470642180044 -0.00021539616809369873 0.0012077416972875493 -0.0014788620652802992 0.0011644064816148457 0.0006504329833825483 -0.00041309151082935807 -0.0013217349514734065 -0.001046759821297913 -0.0015310582371497665 0.0007138105344659107 0.0004906839259442579 -0.0012138250544031807 0.0009581943985094577 0.0014153602005783964 -0.00012630744822920926 0.0008013060607482641 -0.0005243787867014252 0.0015555967610343653 0.0006521124232251972 -0.0005008037848895269 0.0015987006749955542 0.0005817466404128061 0.0008685192760472052 0.0008755363963198196 -0.0015441876383841067 0.0006772116972502132 -0.0013925596854092103 -0.0002544008166850478 -0.0007420010878953846 0.000648862858421724 -0.000986232810214315 -0.0011387895211145032 -0.0006723729033233747 0.0001883022420586662 0.00026548041441380857 -0.0014516173484118698 -0.00010429425411379782 -0.0007930217098707795 -0.00015256605441947273 -0.0010350789124854247 -0.0008362326629557561 0.0013690110890869035 0.0004835014182420169 -0.0009802764952312683 -0.0001940062198261036 -0.00031649500436017474 0.0002631746900126595 -0.0011370601168618616 0.00029199430002026835 -0.00012979437135832752 -0.00012226108333436087 -0.0012009561587234283 0.00011077674989749164 0.000984079523318338 0.00074597846679463 -0.001393019822207606 -0.0005584455879122612 -0.0011369482149958606 -0.0004242367288615144 -0.0010472026211389457 0.0012721932573676834 -0.0011482502322192154 0.001335146434917078 0.0003659190036813229 -0.00012717378059784706 -0.0012962928249211634 0.001185605809464938 -0.0006295640565031484 0.001258657200833723 0.0002876293603989816 -0.0007170720850960946 0.0015585294314926228 -0.0016383524176994853 -0.0006231273101641513 0.0015141717146426115 0.001589339511868587 -0.00035909359285751357 0.0007075924440637974 0.00014694709372809985 -0.0002299790698368054 -0.00039906915280800567 -0.00046181681493866086 0.0014911715588281078 0.0013220668918654348 -0.0003055425906670157 -0.0006216945001255702 -0.00035689498236615204 -0.0013771875665745845 -0.00046444322914194493 9.386008972236188e-05 0.0007704126481859189 0.0005170008686809339 0.0005980074450069227 2.7628070449555266e-06 -0.0006709587964813977 0.001085788489569958 0.0016543121696265628 -0.00024561346909121866 0.0007555998510986187 -0.0014950105142973078 -0.0009569054207448417 -0.0005391778507760835 0.0012726522819360645 -0.00032598515002441665 -0.000573648278640318 -0.0012058314612622334 -0.0007535991248625673 0.0009120275327870083 -0.0003560516884452665 -0.00013635508846512079 0.0005465835750912224
去 -0.00021635995721868608 -0.0012309172213548823 -0.00043428075048027146 -0.000755849729496849 0.0004243081495755124 -0.00018819697230664236 0.0007308514242298452 0.0009534314692651754 0.0007511193298318924 -0.0006953842804691459 0.0006233584429071143 0.0012705730784893508 0.00041425997072583955 -0.0004617640095811183 0.0008207816087157228 -0.0008967798596658139 -0.00024878964394497 0.0013109336470535531 -0.00159164153720299 -0.0014535642637405304 -0.00017079325901911215 -0.0001283515836059525 0.00053808813538712 0.00017591397532352174 5.1549776847818675e-05 -0.0008184487279608903 0.0004049174246479992 0.00019948902572224152 -0.00048588166996322944 -0.0011666110686234295 0.0006744398889181443 0.0015585087891997393 -0.0001369011905765824 -0.0013209953158059289 0.0010337462414683467 2.6892949551489468e-06 -0.00039988975062021844 0.0010247384014787908 0.0001791916786055371 -0.0003349396772297978 -0.0013390023348417849 -0.00020913604618335294 -0.0013394702773120804 0.00015433786028932583 0.001643337064622931 0.0004931804075438946 0.0007440387360060038 -0.000716855955053151 0.0014268108514986445 -0.0014157179704223453 -0.00038860710814237387 -0.0013602026392441008 0.0013886304016858077 -0.0016635046114626985 0.0010203461235642251 0.0008157685332683013 0.0006903784954604535 0.0011598640093176372 -0.0007083800830308386 -0.0002485554651874662 0.0013080592192928997 -0.00024895676786437397 -0.00020442600492108463 0.000939847492349751 -0.0008468668616196759 0.0014952156641699014 -0.0009217326831669844 -0.000493130496510439 0.0014433359344135112 -0.0007096429426437112 -0.0003238032681105834 -0.0011566034326586847 0.0002909139465881598 -0.00035464058111943727 0.0009723372029725634 -0.0012168718441261277 -0.000858756628379746 -0.0012142475585236376 0.0009872894362901383 -0.000597543221668821 0.0002558775179462689 0.0015873749348518065 0.0015457134037468669 -0.0010802470292342174 0.000474152959140723 -0.0016459088093196466 -0.0013398719293246063 -0.0007504124392401195 -0.00017010721062166653 -9.332830199478484e-05 -0.0006746218986243591 0.0013160027420975465 -0.00013329340055354713 -0.00019086693075219318 -0.001499663979148527 -0.001056797774156065 -0.0014133042291669794 0.0016481923499619667 -0.0010323826058366355 -0.0008613527945872268 -0.001452726980718445 0.0003467895127489478 -0.0013304636610728632 0.00031861267771375156 0.001461280782638127 0.00016571302302753314 -0.000466065332797246 0.00019954815698242098 0.0003936438028010967 0.0007545801281689064 0.0006398635194692434 -0.0002236114041292796 -0.0012373140356174447 -0.0002878045830868246 0.0012081354661326068 0.0010430701849245974 -0.0011190856894066636 0.001186411441237636 -0.0002601460445716621 -0.0002653485870128562 -3.187174613047519e-05 -0.00016240610982376911 -0.00026912492007935074 -0.0008748083821176556 -7.2567256602690065e-06 -0.001183693941616626 -0.0005087526534819704 0.0016659281174413536 0.0015408392004592052 -0.0016003476844042167 0.0003519197247072801 0.0014001203494604058 0.0011171493744528015 0.0010349642054432449 0.000642744956673186 -0.0008582113768035945 0.001402810658213139 -0.0014474409929844535 -0.0009510592206766177 0.0013275068005734372 -0.0015411401092683703 -0.001196893499366283 0.0005086486994058975 0.0005847312150437565 -0.0016307937308235286 -0.001013701629979433 -0.0002530950977566895 -0.0015850551496525871 -0.001638790298464034 0.00102776300491014 -0.00026826095052941634 6.311228065679072e-05 -0.0008061268774605813 -0.001248373794634882 -0.0009487551447904316 -0.00033970279756545703 -0.0014349580423797712 -0.0005420120436962994 -0.0002666755840122741 0.0009775488734388427 -0.00039907202286296905 0.0008569710975811676 -0.0013127242409399862 0.0006353116591344166 0.0001774575104711509 0.0002742100561267496 0.0007050441846523235 -3.314516502193862e-07 -0.0009174021234020569 0.0007606330089383976 -0.0013357666575170544 -0.0005221325683420839 -0.0003013780095146682 0.000311211750193657 0.001329956921501578 -0.000910169079601971 -1.0978508795530266e-05 0.0016546491945548393 -0.0007185746007017802 0.0006295595126555538 0.0015853560485116467 -0.00041625735527698986 -0.000925331348548799 0.0010229132295979826 -0.00020860833079152258 0.0011234238914929558 0.001308411205718456 -8.976326056228073e-06 -0.0010766856616328687 0.0013924591011476768 0.0006776380820950474 -0.0013587186232091179 0.0015765050613518537 0.0007340107215676447 0.00035249921683370023 -0.0006247080466334982 0.0007518812496519946 -0.0003495772858398637 -0.0013687003427675507 0.0013518304609688953 0.0010925736555412401 -0.0014452579303346977 -0.0014672200189599907 -0.0009347118385431611 0.001074111442026751 -0.0002835238259514813 -0.0009796776758617654 -0.000550102539108001 0.0015335267819969356 0.0012136035211558409 -0.0013378547248390307 -0.0011734347745943968 -1.9292888184170357e-05 -0.000390130694613951 -0.0004343337472244098 -0.0016439777722608052 0.0012429670341865316 -0.0007425957465796246 0.001631366656072643 5.425571683936041e-05 -0.001310327426430647 0.00029940305629248717 -0.001072847367579924 -0.0015369422189824861 -0.001113277135467201 -0.00014175217382026635 -0.0006357087995803309 6.323492864872417e-05 -8.822395133804136e-05 0.0008055893275425922 0.0011022244058494406 -0.001077352336217535 -0.001581259439336816 -6.741836126581178e-05 2.5993543948574697e-05 -0.0005632028912318744 -0.0006791047943882164 -0.0008792271467800313 -3.1373500925427866e-05 -0.0007562378412687447 -0.0014921243823855705 -0.000713315337281594 0.0002525358080326811 -0.0011829164810040933 0.0009666147943865543 -0.00012989434609682725 -0.0003133145706321807 0.0008251625707332374 0.0016492694820827837 0.0007403161550931588 0.0008347246496364263 -0.0006932192659450381 0.00018990952635774595 0.0007580044620332013 -0.0006476442260113769 -0.0014470417413012236 -0.00112725592039396 -0.0013087001669836104 0.0005331398535964573 -0.0015228722293245916 -1.3696657046826898e-05 0.0001053344024315767 0.001642272905020416 -0.0015389992300236088 0.0009890533113126611 0.0009140968732546815 0.0012755659430723771 0.0011489483946602928 -0.0007876508424713567 0.0014429435036729338 -0.0007605980407826918 -0.0006184516162505972 -0.0003779323171115899 -0.00039135538463315857 0.0012726561402038056 0.00010328774021011041 0.001181146124483638 -0.001490109720382861 3.5034361667161225e-07 -0.0013910222953918085 -0.0009954141945526694 0.00033478335781558365 0.0003233089761507539 -0.001387249998958918 -0.0002565504615162465 -0.0012263657531139736 -0.0009169200775888554 -0.0007457848010868218 -0.0011487772401929032 8.423013215672243e-05 8.95453001493313e-05 0.0013411871622714788 0.0002453507012289005 0.0002487825167601646 0.0010770226114838032 -0.0005753141837763996 -0.0004969416359983379 -0.000746465889697161 0.000832082308765484 0.0008973969280879201
玩 -0.00011907209617571061 -0.0002965442162037202 -0.0004118986067328797 0.0011590054937049353 -0.001020731393713739 -0.0015394308221111787 -0.0012908939934526346 -0.0008249749189138064 0.0006059185880814893 0.001441622361103212 -8.581074555759574e-05 0.0013453301267429781 0.0005832883034915463 0.0002392846497053406 0.0001591559831242495 0.00044285486061072007 -0.000429287506841227 -0.0014995226453195123 0.00042492925147140473 -0.0005711967214844098 0.0005855358317515968 -0.00022618907234828406 0.0005836779309495172 -0.0014566517315849762 0.0016666027612927713 -0.0004533304665365098 -8.040080581875446e-05 -0.0008537217477471465 0.0004984564337180402 -0.000962975939259264 -0.0011971460816947723 0.001614651644292247 4.786896498641055e-05 -0.0001545243090875836 0.0007788965990084324 -0.0013213076544087714 -0.0004845610570269604 0.00024181862899194724 -0.0006542872756401206 0.0008169502738809633 0.001391683866324658 0.0005220445516842523 -0.0012028272674084993 -0.00048510011809927865 -0.0015751406493865246 0.0015457426284615661 -0.0014128175615650922 -0.0010574871015407287 -0.000897755010100575 -0.0010800154587118325 0.0002659763379850049 -0.0008327012977001879 -0.001254043294153354 0.0011652851895277009 -0.0005615165588001975 -0.0013877821994587834 -0.0013764541461490849 0.0006093499336029058 -0.0008866927648846968 -0.0007845367492112098 -0.0003779865512057418 -8.203616065047228e-05 0.00028712717113869613 -0.0016125869985667183 0.001504741464925678 -0.0003536613117932662 -0.00010589336001447083 -0.0001620125042066727 -0.0009804148485707037 0.00014291438528458606 0.0012405672878517964 6.604703681360579e-05 -0.001462458754166232 0.001369071638593255 -0.0012142732280282346 0.0004567672758291159 0.00042510434200684525 -0.0011457876294984238 -0.00038750191995978153 -0.0010664924171956806 -0.0009547846908553296 -0.0004992290795529747 -0.0010344931297855888 -0.001536611876844443 -0.0001539279799658553 0.00036987655691776694 0.0009186007006351358 -0.0008788693935755582 0.000296748093296604 -0.0011344542298950236 -0.0005250900289265842 0.0005180655778370218 0.0010259238733038407 -8.952040539862126e-05 -0.0003759852144976439 0.001190606845588433 0.0005100288918890424 -5.3650975963758434e-05 0.00029720316449548164 5.1585108700903205e-06 -0.00044770408215808117 8.339385319481495e-05 0.0009472164398524055 0.0009490538598748362 0.0011927627598929526 -0.0016138961403590112 -0.0009052350199643614 -0.0008890964273141925 0.0004918945252465703 0.0011353238079266216 0.0012725833431390197 -0.0003020852250160756 0.00044670578026217306 -0.0002612744491562096 -0.0013203095492444854 -0.0009745839599011495 0.001137856871018593 -0.0010870771152198017 9.314368939916578e-05 0.0001450771578180489 -0.0006246199664309624 -0.0011089319878573266 0.0016515491889184115 0.0013592035358343327 0.0006753934789510701 -0.0008206592895861715 0.0001428806330353738 -0.0012059970465204076 -0.0008546922608698793 -0.0006308309828898703 -0.0005631206417968587 -6.783185056796031e-05 -0.00013089654101379778 0.0006998612249337385 -0.000561733009300325 0.0004462005559270142 -0.001529929030881998 -0.0005397568113302993 0.0010416256668698792 -0.00011344744315335214 -0.0007271265624302165 -0.0009364093272542812 0.0010845931624045278 0.0011706649241445563 0.0009149696020029158 6.228013902071755e-05 0.0006794966958206317 -0.0004913245139949067 -0.001166367088156818 0.00026979124554570884 -0.00026463904004065883 -0.00014413210021195667 -0.0006868302912602 -0.0006976432347844503 0.00042326658425795646 -0.0006402928246083197 0.0010569261460415204 0.00012494181358041115 0.0016192649439444311 -0.001067281567031234 -0.0012558176114226328 -0.0006118615803331265 -0.0003697399322042842 0.0002695478617283343 -0.00038146569871860695 0.00089019215770909 -0.000725265000171658 -0.00134266301505595 -0.0007539516739205813 -0.0013957671012985973 4.622463439538342e-05 0.0003473373401884716 -0.0003980209772650103 0.0013851427334218315 0.0006956975531646463 0.0010945868723318043 -0.0003090791142687965 0.0006198262292886028 0.0003480045423788325 0.0014940553933269175 -0.0004950421928823805 0.0009193742211302922 0.0005576381770078956 0.0012713634511001726 -0.00014251149165694414 0.0011384705041530196 0.0013681759192870526 -0.0003310910398931162 -0.0011213429307737224 0.0005649644156065553 0.0004867549234734365 -0.0010126054560629376 0.0002219974775389184 -0.00015093459205601703 -0.0014409123734293473 -0.0009080044497061361 -0.0013789593892996868 -0.0007769592724548984 -0.0012482948299957454 0.0014854640966332855 0.0013580733141916464 -0.0012777448156632424 -0.00016924836468569534 0.0009679226274769376 0.0010717428780726815 -0.0003857900671062657 0.0005870138040228283 -0.0008221394491181769 0.0008338742695522931 -0.000579260039682908 0.001219902289230829 0.0013520928911554225 -0.001592967864985101 0.0009959734153239547 -2.7082561713645083e-05 0.0011826277660570755 0.0010412649615252076 -0.0008559857060568888 -0.0010169180334428168 -0.00036782641700793987 -0.0008640437270354761 0.0012781152667310847 -0.0005660840142691605 -0.0003830064263167273 0.0016609789471943247 0.00012964931622058627 -0.0009477333856547762 -0.0012167766259159856 0.00028064982345202293 0.0014368271294540028 -0.0012617704720449875 0.0015445577297131497 -0.0015221055114778695 0.0012770705515666662 0.0003114132301397319 -0.0013560823057966614 -0.0015582764687098163 0.0015766553289019158 -0.0007832087585696818 0.0011086123432798988 -0.0014685804554885704 -0.0012804014867001817 -0.00024551248844579155 0.0010632187611440429 -0.001255425591052021 0.0006403784643994 -0.0016468344453184655 -0.00013145557409138925 -0.00028515353534453683 -0.0009826143450813742 0.00023041615762137548 0.0002110196180474699 0.00038658142670264445 0.0011947398812992582 0.000856848342862641 0.0006264105855064234 0.00026490226791296484 0.0016181371766830772 -0.00033260468978227434 -0.00018948884225565666 0.0011090589352310152 0.0015624294827191608 0.0009892017567608368 -0.001657769059306046 -0.0010141228052630367 -1.4490879202160257e-05 0.0005492018603714427 0.0007639368259001994 0.0008778733930219627 -1.9629948431563288e-05 0.0011073403070195114 0.001185074966953765 -0.0013697611795328325 -0.0007050060623838726 -0.001573526724171467 -0.00037792757125104084 0.00016421335136589446 0.0003998384171539687 0.0007968346618814977 -0.00046086605107915023 0.0014326602303727602 0.0006856401761254501 0.00045139597963568333 -0.0003089288081490673 0.0016098496734756988 0.0006393783077347033 0.0006301968737980857 0.00035144225121672026 0.00013075526408320008 0.0011178339421849628 0.0014106130870531522 -0.001290924589535629 0.00028705560534704824 0.0005189462320150677 0.0001423388519949821 0.00039959576197015335 -0.001357445611318037 0.001345600696986924 -0.00043319984844044073 -0.0010725445310979563
我 0.0006374043785988783 -0.00023093343273362306 0.000646388932604883 0.0012508431783760687 0.0009922167127934642 8.931817868326247e-05 0.0007923313350552092 -0.0005413614997624117 -0.0006627402118233787 -0.0010114520293622571 -0.0015908282884773048 0.00022846882037756117 -0.0016598165281296296 -0.0012057984659211989 0.00018967195138223765 0.0014274419144270803 0.0002135547517950643 0.000596007459525517 0.0013942836100936582 -0.00042422786331471166 0.001259307168438324 -0.0001152998836908406 -0.0007784580319356829 -3.504626481216612e-05 0.00045805994310608756 -0.0007329671099565129 0.0005049077950503341 0.0013738717750666827 0.0001340446801988585 0.00011747233107892207 0.0012132839625191958 0.0011508101953686919 0.0005183764602571357 -0.00035000391127191284 -0.0015379969456511611 -0.0001767340897503672 0.0011541775044428312 0.00043525642382858537 -0.0013571936344309434 0.0004340984619768222 -0.000682084011077149 0.0013255987885219152 0.0015802864433890932 -0.0007112247325213902 0.00012150348040745478 -0.00014820677844380967 0.0003535697196055891 -0.00031121000201569726 0.0016584261887758968 2.1425125301410096e-05 0.0010636957476161748 0.0012338313735337856 0.0010295356321428186 -0.001106002879146037 0.00017276280266336603 0.0005583441617451309 -0.0007666864127642002 0.0016029219351272554 -0.0010702501295955112 -0.0006338450569064979 0.001601630000997204 -0.0010357680109295121 -0.0012609622075788476 0.0007650086071867995 -0.0008090502162046401 -0.0016190634578792734 0.0003351060515433781 0.00035634464266290616 -0.0012422707048831256 0.0012375471650104427 0.001009556495743107 0.00037778486186812357 0.0007084632639043713 0.0010869489444495467 -0.00013545318287123896 -0.0015641825875228874 0.0015837914121363315 0.001524565757857405 0.0008865060203825188 0.0005179254093790987 -0.0011511774824734448 0.0009316763161993986 -0.0005573088319018574 -8.87194696996544e-05 0.0010308032583106078 0.0011227029803993014 0.0014506709191802849 -0.0010841804830435276 0.0015740159853052883 -0.0007973394090115126 0.000586271910057209 0.00038885184401194964 -0.0011806643454757434 -0.000554396494630132 -6.747171021363265e-05 -0.0007073184289520639 0.0002811138610820189 -0.001437042388415382 -0.0010399706431291312 0.0008951294879500385 0.0009449795289052203 0.001565174487509607 0.00020258934830150052 0.0013064451702530355 -0.0009838827486498916 0.0003435998963365044 0.0013975519437409557 0.0012321718481267778 -0.0010610664748227493 0.0006761419286900241 -0.00033469152488643187 0.0010402426497026812 0.0016473732290114538 -0.0012651049358169252 0.0009660079832721274 0.0004132170303936404 -0.0006968909295868575 -0.0011841319677914407 -0.0002660033338406513 0.0008368639668001239 0.0008407115877793562 0.00048040305659151225 -0.0004559836728674817 0.0015774244578836167 0.001475507094790304 0.0004711451268926162 -0.0008755321420918042 0.0006630294378070543 -0.0015072470017679206 0.00044303667784191287 -0.0013892106822673315 -0.0009279682596506083 -0.0014700617471380634 0.001242367481914066 0.0013670382082457955 -0.00012107627777207713 0.0009011625340902329 -0.0009700187669868291 0.001362791380511577 0.0012901647061674714 0.0002478202511556528 0.0004902121868785815 0.0007931151389302002 -0.0006106478123630789 0.0014217682201055316 0.0011324464303589603 0.0010558700208022288 -0.0016128055643500467 -0.000794878834079804 -0.0012172291793237538 0.0009171514337111479 0.0007238738621236831 -0.0001999319279610953 0.0007863298486914709 0.0011083286142158852 0.000777665131610408 -0.0015897456491992513 0.0007796248164917256 -0.0013234663732034299 -0.00113379667426822 -0.00046316420739210236 -0.001633213568711299 0.0006462111037362897 -0.0009247244925643837 -0.0002696353740975828 -0.001358373288974325 -0.0006375073097614624 -0.0015583376408512175 -0.0009390544347751988 0.0009856700495697577 0.0007844475901739588 0.0012700385070681037 -0.00025131724248614296 0.000650456149280007 0.0010168812893574326 0.0010780145060790061 -0.0006207566990403642 0.0005336017395683501 -0.0009857834833041487 0.00039983511517005716 -0.00014557647708617898 -0.0015152483018202516 0.0011308002279333635 0.0009829969582805516 0.001467918550187178 0.001005930764198459 -0.00013815547948759852 0.001627519506837936 0.0015053748376307836 -0.0004340742719228667 0.001324282737495727 9.816185576541087e-05 0.000601553376744117 -0.001572695738633256 8.621744898938326e-05 0.0016592807053917946 0.0010424210859231369 -8.06694430279976e-05 -0.0014786659822282136 0.0001977472168378454 -0.001345868362271693 0.0012846400473541797 0.0016512248517348718 0.0013468807955440644 -0.000395939166508958 -0.0013143880376795243 0.0013191420982452272 0.0005335410860603358 -0.0010485647539947868 -0.00031936899875631517 0.0013415088535174513 -0.0012085001180723858 0.0014368480361899208 0.0006282306437189343 0.0001593041014427522 0.0005531583779560982 0.00015591250456794523 0.00030122195590639387 -0.0004416808884959011 -0.0009379083269145092 0.0014782396530276967 -0.0006607276185839282 -0.0005061582556104053 0.0006454368733732375 0.00034187156579654085 0.0007840364481049249 0.0015009430810103527 -0.0012526580674181423 -0.0009728442648166646 0.0016620982077266418 0.0006795322678707937 -0.0015633028582575626 -0.0004536995298588995 -0.0005114619007324467 0.0011034909305487112 0.0012999211588256205 -0.0016401702554641761 -0.0010309498774177027 -0.0013599510252657434 0.0010662785110064812 0.0006644691721050064 -0.0011964108260834074 0.00018922365754350882 -0.0003558497194421658 -0.00038621275187705593 7.287554158537645e-05 0.00012551659265820254 -0.0004923090251081314 0.0005186286304782054 0.0014627251180160182 -0.000849474974844242 0.0013885546839052978 -0.0006678095729661361 -0.0006823103526370685 -0.00048524860640883084 -0.0005024463533267291 -0.0010133244075011465 0.0005828287161056047 -0.0013409156838362667 -0.0012815221197356335 0.0016237847460224607 0.0008117078055399855 -0.001172780190493356 -0.0003208397693462236 -0.0013044649945865283 0.001026841335864343 0.001321958785673568 0.0003254634848416643 0.0007784922796925551 -7.61623452167855e-05 -0.00022491135317740358 0.0007912906257940123 0.0012845272933601178 -0.00036472121003337636 0.0008822436668532473 -0.0008355220310037222 -0.0014460276843521682 -7.786528131584462e-05 -6.345812753657919e-05 0.0011387499840558996 -0.00034720126076505543 0.000597119938886542 0.0005672176766861276 0.0009420579842129971 0.00023978330924229218 -0.00046428614903809746 0.00038828340787321 -0.0005423455312513806 -7.902679969513628e-05 0.0005419892895573767 0.0011407572355043934 -0.0009025745587817026 -0.0006624145561956859 -0.00038851152273370714 0.0016465467414156362 0.001156699308068282 0.0009747590020844744 -0.0005417496108449364 0.0013641334368367953 -0.0015911822192640173
想 -0.0013078316153400883 -0.0004908855154927104 0.00028310192731700905 -0.0009070727202840147 0.0009305644357569481 0.0014048892488798155 0.0007707469775176979 0.0013716374420338609 -0.0005371807862692274 -0.0011922768747427129 0.0007410104102294516 0.0008792098236267412 0.0007654934104226757 0.0015792146844001143 -0.0004734639533319711 0.0013175983947630798 -0.001538532368433256 0.0009446239934830323 -0.0011446670884996115 0.00134382722861686 0.0009765012052813638 -0.0005570394748744653 0.001572739350676105 0.0013962193262711477 0.0013422067431398366 0.0011709724743206187 -3.0416232991939837e-05 -0.0011881878652822344 0.0010937840442166295 -0.0004323957048931297 6.029845634766797e-06 -0.001649629179681416 -0.0008757892364477313 7.940033947588403e-05 -0.00010697197320197786 -0.0015997844993260733 0.0005871091218562483 -0.0006723814090472656 -0.0015062076105682811 0.0005914596468951844 -0.0014077083154312273 -0.0005076844627375217 0.00029701813439351565 0.001257565041986593 9.43562118266775e-06 0.00013084373690308318 0.0003660581283904275 -0.00017367938997228308 -0.0002296962406313312 0.001201289319812954 0.0003448436937573099 0.00027517610048592993 -0.00035813677851593786 0.0012347763875658504 -0.001116332795213212 -0.00023000922672895453 -0.001137459843137711 -0.001435572207263475 -0.00018656480234074683 0.0011598852053373281 -0.001379150270708721 -9.795186625706398e-05 0.0013618117889307017 5.261228141859675e-05 0.00031182040088964465 -0.0011629547438563052 0.0007911961017982319 -0.0007614012170216528 -2.6869240828975584e-06 0.0016456589677432618 -9.79946673599348e-05 0.001314842030984627 0.0016547304081742644 8.604858341725959e-05 0.0003331801650560905 0.0011577857155869405 0.00020001351972982176 -0.0009345182524774941 0.0011656558286544068 0.0009187301579473805 -0.0006251727774072012 0.001104180310005179 -0.0009467351519347506 0.0007541232969665972 -0.0011008346277261338 0.0015518413839484462 -0.0011654021430759804 -0.00020003765822231728 -0.0009327670974345438 -0.0013257378635594434 -0.0008609634090513534 0.0010103534469271573 -0.0009038739020003498 0.0007187541202826234 -0.0016221879891899036 -0.0006924815498849228 -0.0015727613947190662 0.0013358974100412318 0.0015787996813799413 -0.0004894731992534392 0.00019319293334064735 0.0001764418773163016 0.000773308270413204 0.000695344475146695 -0.000995991236266848 -0.0013656786129137301 -0.0007642334363454 0.0011189076266355307 -0.00046186608728672327 0.0002468090056274019 -0.0014595522138624438 0.0006634749745511367 0.001641799436355604 0.001143024350927012 6.598972818315067e-05 0.0006076278222087593 -0.001231672856728617 0.0014380065525111414 0.001379669367752662 0.0002600227211835275 0.0008069204135410406 0.0012288927110117392 0.0007059389253647023 -0.0013499673571711287 -8.254646233957776e-05 0.0009845406342962146 -0.00019872126420659054 0.00030420766853663943 -0.0002966441668722641 7.790528988816482e-05 -0.0007810808400220857 0.0010891698408635553 0.0009375448629811912 -0.0005458958038654 -0.0007751409029993852 0.0006358724040460186 -0.0007136555194959228 0.0007083561541866933 -0.0015522207713938164 -0.0011959213569663837 0.0003238836152741844 0.0005096963218789718 0.0005083856067021811 0.0012848842967487918 0.0015082697800038994 -9.271128017320512e-07 0.0011184594114554433 0.0012392957964586513 -0.00023244001299949172 2.575868929974289e-05 -0.00017206106298180493 0.0013477442825624605 0.0006097847979602844 -0.001655048159288586 -0.0014927845451710741 -0.001403311548990897 0.000411280590146818 -0.0016162270341410206 -0.00048344463291239705 -0.0008273380393103067 -0.0005985670492094713 -0.001648930855211371 -0.0015269912786674378 -0.0004726469100632739 -0.00018704742608756364 0.0013333162940623688 -0.00159146572483189 0.000465828250144842 0.000523061776863155 -0.0006628921019997825 0.0009695964482050731 -0.0013201178240475565 0.0007655343268749535 0.00022857453208882374 0.0003553372433570515 -0.00039299849169645767 2.5506834563245446e-06 -0.00011520171547565853 -0.001078748388683286 -0.0012053129396114681 -0.00019019183371616765 -0.0005214795320182425 -0.001037631307301469 0.0013932162388824768 0.0015791533498946122 0.0003365220444397984 4.635904871982644e-05 0.0006159167597018548 0.0008871029638765287 -0.00041635571449406394 -0.0007072534022696106 -0.0014174733116755094 0.0007762164409270162 -0.0011036938184910946 0.0007430993564977494 0.0012055564364484165 0.0006854548788700985 -0.0008553475707297537 -0.00019872009693239486 -0.0011982216014609864 0.0012154731274647186 -0.0011811749466293508 -9.902900094152761e-05 -0.0002791723557747903 -0.0009737052849516548 -0.0002897176484682915 -0.001448373734630964 -0.001211871404319585 -0.001381215101559325 0.0013190968071479649 -0.0016233981370817132 -0.0011915204765404208 -0.0012273050140996556 0.0005635887000812236 0.000667608872667152 -3.023831136059027e-05 0.000471588528379693 -0.0007834884726814199 0.0008872840229629062 -9.012273805775813e-06 0.0009082271689642874 0.0014854728928437365 -0.0005190654880921678 0.00030863148685887816 0.0006306863167031224 -2.7856627284444015e-05 -0.0011665925661946935 -0.0007175706865500606 0.0011778498905307085 -0.00019177793771487853 -0.0010299065534182833 -0.000755403793041758 -0.0009444826839375693 0.001648644450519839 -0.0013642874428637514 0.001274064684820443 -0.00028846395659789923 0.0013529168607868303 -0.0007469379040496397 -0.0005666584437802127 0.00024307613318330512 0.0009842698088542766 0.000848579635454677 0.000893543566752883 0.0016502730941101427 -0.0006226732003444078 -0.001431979011074225 -0.0014553097669460393 -0.0005210600850320229 -3.755746620439614e-05 0.000501164432439584 0.0009376357856613805 -0.0007050381145698602 0.0007509962788874636 -0.0008386050358953741 0.001481458886622722 -0.0015992202966571226 -0.001424593550304445 0.00026693002093951 0.0011233619716297992 -0.0008910286001195853 0.0005428858708527614 -0.0016062334130841477 0.0005500364348436603 -0.0001948731595891571 -0.00026683180923284353 -0.0007477294472408596 -0.001261990697772076 -0.00032053224595066093 0.0016126751924482722 -0.0010681376501069048 0.0003789624571193646 -0.001612875641576538 0.0009600270124265294 -0.0007267169088026538 -2.6771756052210758e-05 0.0005849814581843957 -0.0005350194081411151 0.0002857478985138754 -0.0011176453658988277 -0.00022220893177807993 0.00012652623440163966 0.00038592315441889915 -0.00042120083146016823 -0.0007355342453666428 0.0012745937673011801 0.0014543985110240347 0.0009073315945411707 -0.0008257326504132905 -0.00017646494769963885 0.00024737391887728487 0.0015476032798725746 0.0005911922158806789 -0.0008478433591936203 0.0006213344760637158 -0.0003751280861111189 -0.0008210984027964273 0.0006165679148051618 0.00045106008999489287 -0.00021018578753362097
要不要 0.0009211643849883835 -0.0006311720703212935 0.0011256175307229974 -0.0010276859127138235 -0.0010046488352030557 0.0015947350597259363 -0.000883555632516791 -0.0011496356140479702 -0.00047961909713119206 -0.0009319055394520143 0.001383529929455577 -0.0006130557880255948 0.0002512908510661432 -5.571537091185022e-05 -0.0014851595959079614 -0.0012974342173201986 0.0016108158518203233 0.0009494760665333293 0.0014979460431063072 0.0013994205732569991 -0.0010748140747157864 0.0015485826692313834 0.001268860423914656 0.0003819738732120755 0.0015653804494089435 -0.001031405669965042 -0.001494169777384847 -0.001537233578006095 0.0006965105255889111 0.001535147656670723 -0.0010135307419371757 0.0008115772297580328 -0.0008082454198619809 -0.0014866862033208182 0.000544964614783506 -0.00026459175209006644 -0.0014802266176461556 -0.0007748536858963166 -0.0003496180553518457 -8.214946256249448e-05 -6.766687673514467e-05 0.0014687092212493688 0.0007040111338172827 -8.228819410624644e-05 -0.0001195411092541477 0.0007534152897411208 -0.0006283243189898315 0.0005356125969718645 0.00031204395188082467 -0.0006871475663738189 -0.0014486036233400136 0.001382267374696746 -0.00012659465092763574 -0.0004394174228723533 -0.0009643094461067027 -0.0011529421687510011 -0.0006839905272006494 -0.0006134186847278433 0.0008058017454627037 -0.0009061528298554051 -0.0016547819731505878 -0.0014793339132116925 -0.0012235633262623247 -0.0011072623909889957 0.0007161002358854211 0.0004708538003291036 0.0014040205404523974 -0.0006530236604075092 0.0010578960916834408 -0.0011699808394026693 0.00047684017995734137 0.000818048484517423 0.001605549203699531 -0.0004218040994024067 0.000290706028990074 0.00023385186061501112 0.0016145275703244736 0.0007724582674135562 -1.2765255521383407e-05 -0.0011564944018266343 -0.0011288136111009255 -0.0009492522449260821 -0.0007587651500681532 -0.0002889817698160769 0.0007332807625170573 -0.0002984575993009035 0.001516030870687945 -0.0014043475923773163 0.0016375812428678141 0.001476471397606329 0.0006183910168405121 -0.00042316100773986915 -0.0010922118039871428 0.0001707601906388967 0.0007713931459249786 -0.001286326311125152 0.00012330998331627077 -0.0005010444074565496 0.001568268519031007 0.0009005835526569838 -0.001132120441481027 -9.040338357197856e-05 0.001141400143018107 -5.596556967608496e-06 -0.0010089771141270124 0.00020356096135915798 0.0005121145904198369 -0.001643679454136968 -0.0010771525559048738 -0.0008846661038178911 -0.0016342768037420612 0.0014250632363378205 0.00029637408283836883 -0.0005648848312319941 -0.0014178444037889002 -0.0012016020947871525 0.000747893852067557 0.0014784055127821088 -0.0005549506536276991 -0.0010349749116152621 0.001205891649698341 -0.0006091556371596051 0.00028508632310642816 0.0005676816260555842 0.00011836974594263893 -0.0016052564998927333 -0.0015615819417126374 -0.0014592807428727489 -0.0015382926447208307 0.0014513646503384755 0.0008527938657736166 0.0011555930588810486 0.0014228614466192107 0.0010963985507523638 -0.001071588757752512 -0.0008176125998488661 -0.0009296782168924327 0.0016022878318163489 0.0012130178213507032 8.408541387424243e-05 -0.0006837899917691556 0.0006123198631818483 -0.00025342694725291837 0.00017454836432010643 -0.0011332109994839996 -0.000929923926945941 -0.0012861360246351316 0.0015426012696001968 -0.0006350229828470036 -0.0008422301083661237 -0.001418624995670342 0.0012158124595428351 -0.0010091719085288384 -0.0003644665817154071 -0.000634869497929658 0.00035299662048288285 3.282992019568725e-05 0.00047486691268790567 -0.0004841577580943826 0.0010964928938959793 0.0012360024035854204 -0.0010693362825010366 -0.00017511372832952347 -2.1281037518244362e-05 0.0015395105423452822 0.001017262398548399 0.000722397349107269 -0.0005650079052645785 -0.0006712692654846365 0.00157506357018222 0.0006309231618039684 -0.0013126058967469483 0.000532635126088357 -0.0011299873020068018 0.000438612993270408 -0.0012318259223160948 -0.0011954503453340812 0.001358165162835415 0.00010167801483690542 0.0009345678185560328 -0.0003153329313750571 0.000611349560693052 0.0003910969055478595 -0.0007480781824075014 0.0010818236474006572 -0.0009703474784347895 0.0006209292410774206 -0.0005322465810146197 0.0009926867141118775 0.0015561811907495845 -0.001236932559241574 -0.0004535824869873241 0.0005393575820692029 0.0007873189582859418 8.887394573135866e-05 -0.0008684298563500758 0.0009865026381835422 -0.0014028988368807538 -0.0008794448895092755 0.0015209950993470642 -0.0015836805411652403 0.0012573434765897394 -0.0015581922032823347 0.001563327289789259 -0.0007164095309681306 -0.0002780197462594247 0.0013503873538805633 -0.0006135468687049131 -0.0012614864037357677 0.0013915591458265074 0.00041657330444720366 0.001190404933804995 -0.0009387291353343236 -0.00011112972286474949 -0.00165667009298646 -0.0006002851425357693 -0.001047556173563389 -0.00046654158070096876 0.00115054603796361 -0.0006205198080404528 0.0012702393763168375 -0.0010489767082186119 3.867530530501757e-05 -0.0016508209747384832 0.0001829019339954087 -0.0008947316290781361 0.00024738754415348807 -0.0011071716307513308 -0.00021316589090726186 0.0002296573528250653 0.0007349820330160144 -4.403316161781788e-05 0.0011421828624192036 0.0011505096553100298 0.001129835554746144 0.0003395757999155563 -0.00011324035040606773 0.000779930425459329 -0.00020927930689637503 0.0016465412516926854 -0.0013697400988297859 0.0005837349857817564 0.0010490360264326648 -0.00044540247117127714 0.0016653224179789454 0.00024584346570139806 0.0016575003922952713 0.0003301311268609039 0.00046871397022632603 -0.000677614336927689 -0.0006167404681002869 0.0014502171243121807 0.0006915303962006221 0.0009323627844709436 -0.000744983291277477 -5.617065985280257e-05 0.0007934649651210219 -0.0006561769247315113 0.0012095042067052312 -0.0015581079605534083 -0.0004361241393956696 -0.0015238378579903386 -0.0006944246131013313 0.0010257194078334983 0.0013268660597882764 -0.0015815540164158786 0.00108717728892031 -0.0005436094157944828 0.0012605508225078403 0.000663491339401812 -0.0006422526757863445 -0.0015339621117623306 -0.0015443731726099178 -0.000614111658024168 -0.0007263077723125486 -0.000620223553891937 0.0006984196749356597 0.000970130349604648 0.0012011735965436659 -0.0012323192015572765 0.0011727754919791922 -0.0006868488194615216 -0.001167096089446088 0.0004960073620402649 -0.0005041724639673297 0.00026557643362372737 0.0016284421705931537 -0.000868201132476768 -0.0005056139587384929 -0.0006444092968447983 -0.0006577606905057426 0.0008334594780861913 0.00024370363551805944 -0.0004960334593292475 0.0007850975621148565 7.2840942887782275e-06 0.0013705074463823469 0.001227872861069041 -0.0012758791108764065 -0.0003008793865684869
旅游 0.0004041034933832565 -0.0016031187002786972 0.0004679366820423401 -0.0007062028422087837 0.0012789439510313483 0.0003186063635336814 0.0014091839308172324 0.0013452908780350683 0.00029252013627369957 0.0015575167135699606 -0.0012755516416783942 0.00019112503195855077 0.0007639246283313377 -0.0001522795994483003 0.0008275552049035424 0.0005948373606610026 -0.0004422199445088437 0.0014571791613048133 -0.0007867839498833585 -0.001076568198494142 0.0006397224578484545 0.0011995952362695598 -0.00133819241914864 0.0014223185187827098 -0.0009241759251959339 -0.0005288302320169454 0.0002846744251775585 -0.0008107171812293226 -0.00042543707808517274 -0.0015005809216859548 0.0013738297822133176 0.0009797367206302297 -5.3777792856224885e-05 -0.0007725360960267315 -0.0005740483087763024 0.0004462404997468752 -0.0008316189054485417 -3.553908891306975e-05 -0.0008636960458564479 5.725527953536401e-05 0.0016184913433352007 0.0009774416117633385 -0.0006532833184275044 0.0003949897024489382 0.0011269743181598606 0.0003304352148866347 -0.0013540029032453312 -0.0011127691696175622 0.0012953161921581144 -0.0014149551164899543 -0.0006766565436470992 -0.0014635231723966304 0.0013790944461370205 0.0007469819156209662 0.0003686046607713204 0.00010240084854613697 0.0015306684004103152 -0.0007353653692308721 0.0011254006959726573 -0.0003114365911361518 0.0016455126868043935 0.00038521802526448495 -0.0010909295756534718 0.0005690986063050751 0.0007538443068016037 -8.771469462741063e-05 0.0006643836962196005 -0.0008761819771584782 -0.0008106095653596165 0.0012596380306075638 0.0010617084203643045 0.00011742735464861195 7.520192449760171e-05 0.0013028364552015424 0.00014846833362858918 -6.270804843038332e-05 -0.0009310967994666462 0.0010307455398681452 2.370160848189225e-05 0.0009331009265453217 0.0013554056446563113 -0.0009144958292371436 -0.0016302466270163814 0.0005704921631161172 -0.0015271899222700101 -0.0014695979273874667 -0.0007056535036731583 -0.0015727699918292627 -0.0008243689432683672 0.0012406439058915023 0.0008464271578799692 0.0008337298329255853 -0.0008698455919421619 0.0010486195748366303 0.0015155769835473439 0.00011302428857341193 0.00035772401038593015 -0.0012207181042000249 0.0001328475892019797 -0.0013541980485370251 0.0005522462683655364 -0.00042660320719515454 -0.0005419429462958404 0.0005555453874545815 -0.0009369904850661242 0.0013258032773391171 0.0011480406938245882 0.0006697996880321921 -0.0006764607197409124 -0.0015850108759963928 -0.0011207888214204628 -0.0006837848195050102 0.000512108017185527 -0.0011585538669660821 0.00017466872645373793 -0.0006191537584770828 -0.00032107134271668763 -0.0006083711057391755 -1.7553552851016878e-05 -0.00020569522808119132 0.0012918928693170446 0.0004997888894420914 -0.0005475801577454714 -0.0004394489443656111 -0.0008135947034706869 0.000983143608160486 0.0009560335275880025 -1.8585205868287277e-05 0.0012802262310938567 0.0007302214005311691 -0.00045295170946798804 0.0015283945558741546 9.130514923700916e-06 0.000765746085911873 0.0002677470978996581 0.0009179605705379728 0.0003313325882580984 -0.0010186357528267792 0.000992678929621003 -0.00012374486334209035 1.7515368461224288e-06 0.0013427427441791676 0.0009439385909586305 0.0013531185645017936 -0.0010340405608289494 -0.0012705593001302096 0.0014553250190464618 0.0008820189810392137 0.001636891295600587 0.0001896818795064646 0.0013183400816660815 0.0008713077401188501 -0.0006507778994987016 -0.0015324465744440286 0.0006497205211504148 9.765611167019359e-05 -0.0014240816323996986 0.0005595074101546325 -0.0011114287166896551 0.00011928535702391471 -0.0015608030290989274 0.0003002099626076808 -0.0014706300991532966 -8.326606411852388e-05 -8.801165931815363e-05 -0.0008823190801466186 -0.00034840921396500407 -0.0011626097939187565 -0.00025969829434433227 -0.0009367251923408336 -0.0008684210719034542 -0.00023600549955505684 0.00031403604093807174 -0.00046450756232266805 7.974042116293599e-06 -0.0009384608985883262 0.000733751655708348 0.0007169344568529618 -0.0014101561185505922 -0.0015358725442711609 -0.001381015423126801 0.0013026485670154218 0.0011625774667214006 0.0016437433005497839 -0.0009085113550934527 0.0006714289154484895 -0.0011483728689844319 -0.0011091368455443177 0.0014535368097250176 0.00016828075184019368 -0.0003029501051887887 0.0014908407262527836 -0.0005495266590931141 -0.0007023427824472453 0.0007351603071132511 -0.0001466348255423146 -0.0002713716434288945 0.0008575289401070315 -0.00032787132142850575 -5.6360366525368855e-05 0.0007696350705866401 -0.0003828045263153778 0.0003873673746596256 -0.0015841693652216922 -0.0009880323922259913 0.0015111565449472898 -0.001517054063947409 0.0006296646403204806 -0.0011224329581162938 0.001147934315611478 0.0006660287028139969 0.0005279758491135573 -0.0010507818161483676 0.0005271312263239798 -0.000428062657522074 -0.0006908175993255083 0.0006303371991605265 0.0008962208621140247 -0.0011233378244352912 0.0003046088263876269 0.00113980529995104 -0.001507898123677387 0.0016003456636761392 -3.0865545686011504e-05 0.000669525661899725 0.0006842618153780535 -0.00014593845572807526 -0.00022663823839931424 -0.0008738909955422018 0.0014391962966829757 -0.0006053282227846286 0.0007274923531862368 -0.0009949433485311413 0.0005840103353209281 -0.0006595153199001471 -0.0008147275188984385 -0.00019810757190096394 0.0006416520405838768 0.0009679898578839437 -0.0010311565643749095 -0.0013976227368892621 0.0004273004075556583 -0.0004850698226996781 0.000184499074851232 0.0008038670645929104 -0.00014200494798660015 -0.0011100788727768012 0.0004648762081905752 0.00020847443340921897 -0.0011244611777832976 0.0009662130030422054 0.0009950954373231244 0.0007751946202271095 0.00035913864278624383 0.0009369183380212737 0.0015086298356113282 0.0009450225825123498 0.0015212675306235377 0.0012510668355925428 0.0004056133406718695 0.000717492972760242 0.0016353165554727177 0.0002060296511714754 -0.0013994496353768244 0.0008671972132998933 0.00010763934881717971 -0.000456329863428376 -9.990650183081941e-05 -0.0006402159895819882 -0.0009499656633972418 -0.0014021825505270594 -0.0014499046940816436 -0.00078586438004329 -0.0015950054793090022 0.0013853618134937152 0.000755252647998456 0.0004414582877507158 -0.0010137229418154614 1.7356705819050712e-05 -0.001256273063156924 0.00012670218121787412 -0.0006141055684996822 0.00042915673092945746 0.0004913746485578984 0.0013372566421165123 -0.0015700185663981392 -0.0008235809269745365 -9.348275497628917e-05 -0.0010143437872129723 0.001000930893296552 -0.0006624559553466903 0.00029197403478470503 0.0011588284867825724 0.0005865164203391923 -0.0008389327405590992 0.0008965105763310155 -0.0008412209232552388 -0.0012897241852356976 0.0009660609560648404 0.0016478502627467102
数学之美 -0.0016632488042297117 -0.0005153574650148946 -0.00036264868477306716 -0.0008145967686042152 0.0003132876145812731 0.0003406563030745549 -3.100905083934781e-05 0.0011587062279502505 -0.0008201374250711442 -0.001063963721096626 -0.000175664314236663 -0.000851241599420393 0.0008646450754091814 -1.719801495225214e-05 0.0012588714512554008 0.0006371450994581813 -0.000869660512549617 -0.000995157610856563 -9.313760638805396e-06 0.000649829751548207 0.0007553549036591841 -0.0011424619117449805 -0.0004791138807077083 -0.0004886948340926687 0.0016539436650926296 0.00011879262680294723 0.0005114832013030773 -7.175148841774635e-05 -0.0015047954879292666 0.0011143612774810695 -0.0005825008437853954 0.0016364131610922584 -0.0014749388901509806 0.0011087001610246775 -0.00021274079863537436 0.000675337253353742 0.0008588868264098114 -0.0014363455064041436 0.0016241983454285285 -0.0004970576768839254 -0.0011271059561710753 -0.00010333328555290124 0.0016383056704175377 0.000528860613444659 -0.00020561510486113052 0.0004017884083241933 0.001618033495710066 0.0015009713550472195 -0.0002630092010798088 -4.05582328289235e-05 0.0009607465844384466 0.0006144124570878842 0.001618952073701012 -0.0010809202645179845 -0.0009653949557890473 -0.0006783059952806301 0.0012172329627191344 0.0004908456213374307 -0.0009058662344095111 0.0005606323015791836 0.00047652370208466684 0.0009298105183329835 0.0008597703105911877 -0.0016642109972879202 -0.0016494847061312688 -0.00020099802384602382 3.2689585411803036e-05 0.00012445223850220658 -0.0015241431149020592 -0.00039157486957827267 0.0011654842158017402 0.0016441747249764324 0.0003289754581691383 0.0011010742166054138 0.0003076520923235301 0.0014922224383663596 0.00030675057380084695 -0.0007015956128031502 6.934452611419735e-05 0.00010611292918657443 -0.0013421950227318047 0.00100596926738254 -0.00017529167310292092 0.0010398829765433867 0.0015699698050318377 0.0008873837622239132 0.000254409404652572 -0.0012087255846439653 -0.0008472914419668017 -0.0015593236371650625 0.0010035760724194796 -0.0016256132731587456 -0.0007395179839952985 -0.001177732336638547 -0.00014145301806527753 -0.000723181194871214 -0.0008374990192980538 -0.0013558948417829136 -0.00041849183010767997 -0.0013134667985343195 -0.0007617327094042584 -0.0013273003608482467 -0.0015347635281161135 -0.001498504185386448 -0.0014095984413324495 0.0014982230845133702 0.0007301611215072996 -0.0008330849835728148 -0.0011294916679915894 -0.0002432616046278359 -0.0009855932666180036 0.00011084770828309251 0.00013481963964655572 0.001198308116847613 -0.0010247994310997567 -0.0005904745247771237 -0.0012081179232865307 0.0010259021030323682 0.00047975109785145583 -0.0012383859125452618 -0.0011425676825406726 0.00164900732329605 -0.0012435746499193897 0.0007280022814499911 -0.001188005058267896 -8.083897821816644e-05 -0.0004752840492984469 0.000768716347287368 -0.00142910813693804 0.0005105115512424532 -8.739344869830499e-05 0.0015253857726383714 0.0009224182501565098 0.00031659203099703933 0.0005063821783777162 -0.0016246300462690187 0.0004850075990817783 0.00012041394967041774 0.001028457823725959 -0.0013444999334163974 0.0014118663810712788 0.00044133993245997204 -0.001078351718036498 -0.0012008062185698029 -0.0003761562614186877 0.0016465745607372522 -0.000552513635499905 -0.00034644938294259823 -0.0007067840144235451 0.001225719556125737 -0.0009272812514446646 9.166968987968256e-05 0.0012803560760404281 0.0003784901171671702 -0.0004579133734195711 0.0007691718471665719 0.00010360143214498816 1.7230350523304978e-05 0.0013741231684280045 0.0005462139495376679 -0.0009407935116450731 0.0005449504123566929 -0.0006986717266472564 -0.0014430619745191293 0.0005762906254537784 -0.00032075239534287833 0.0013526067975916324 0.0011338961105635196 0.0004660928477002277 -0.0014057275174008685 -0.001512648037786292 0.0015831548403685846 0.001615533393639636 -0.00031150742039590747 -0.00033910090287130024 -0.0009065583744162632 0.0004981012771694714 8.54066472883021e-05 0.0013273922830740542 0.0010173482885372008 0.0003240558872106659 0.00011147091469893135 0.0004410670087931629 4.945113895898508e-05 0.0012106696425289694 -4.466932293266956e-05 -0.0016466587825512144 0.0005656628240971834 0.0008517218556864029 -0.00016505031040999082 0.00015764109078981707 0.0004343602598311902 0.000859594565544721 0.0009691888200471084 -0.00015712484577044228 -0.000697973626040758 -0.00037305022647242083 -0.0006391448687830088 -0.0006153250308031285 0.0004373923343778888 -0.0015129570165515647 0.0008570400146170989 -0.00025316974023948215 -0.0001403271851487318 0.0008429786046365208 -0.000715420546763644 0.0007698972781641386 0.0013059978813009273 0.0005267388770698088 0.0006160672335524404 0.0009574322089810672 -7.105839400559587e-05 0.0015826924945125697 0.000351319838958458 -0.001655259261259178 0.0006144907368043852 -0.0008320754236643081 -0.0006725763621261582 -0.001004577661121824 0.0011445149384574256 -0.0015445121660895747 0.001021123400362972 -0.0009468155100564839 0.0016358169526052143 0.0008569871346490954 -0.000960031288536568 -0.0006065788490330689 0.0014237083767408 -0.0005691990820612946 -0.0014053785567486703 0.0015460252873529244 0.0014794881839167602 0.000207535603701669 -0.001097158405561293 -0.0006889719870694316 -0.0009275819378911744 0.001481225715139675 -0.0008647720969471506 0.00011972657109390461 -0.0014552442533726758 -1.2236460400302957e-05 -0.0015640155215995003 -0.0007972877802697858 -0.0007654614751191932 0.001479715632797272 0.0014571341427861444 0.0008939522645200802 0.0015201632960644524 -0.00041647607778870347 0.0012301852299775994 0.0014908129009667682 -0.0011189428056862644 -0.0006119034324609278 0.0003339360956857423 -0.0007376584169361934 -0.001560159235604252 0.0007949965440027828 0.0011734072682567146 0.00031917415363631654 -0.0013918595276030184 -0.0002782172673812731 0.0014413645029651184 -0.001407543200843439 5.1550936116131226e-05 -0.0016107213962140126 -0.0005067558274671501 -0.00040007695982252373 -0.000670035607195487 0.0012680471716976678 0.0011574874114572435 0.0011198256707880881 -0.000776167466837135 -0.0016551656519943041 0.0013069561040404886 0.0010432445976467995 -0.0006599156662650385 0.0016592664738315087 -0.0010337999456545746 0.00035425650786840977 6.951035646650314e-05 0.0005594955887939166 -0.0007783571358338678 0.00034669393725190756 0.00020482806888501913 1.8900721091663437e-05 -0.0007076823576366029 -0.0005170270211195033 0.0013816245303640616 -0.0003624613858163696 0.0011152665440647403 0.0005342309520661883 -0.001005447874341781 0.0013332601461117704 0.00047384042689088793 -0.0010211187623476573 0.0006548119132230245 0.001357174550408332 0.0014050322468423264 0.0005375607174757482 0.0005742239333505025
是 -0.001592368466271682 -0.0007317295244854395 0.00015066207041592144 -0.00025251345723090765 0.00010299524944342354 0.0011253086118782766 -0.001007384272329171 0.00014036921245878827 -8.075401462777156e-05 0.00010978085936472909 -0.0005453066354972328 0.0006664695858931804 -0.001046623687798174 0.0011780140224294303 0.0005629650572356958 -0.00022449381426255225 -0.00021852665288584259 -0.0010031247085952144 0.0003752185451340451 0.0005045979850843795 -0.0007951666372115354 0.0014076406195463354 -0.0003536257681981383 -0.0012850906104225775 -0.001524809551716524 -0.0015726951938249611 0.0007927969793461825 -2.982234156829045e-05 -0.0012166655861578029 -0.00026877507643266924 -0.00027744592645842747 -0.000533898299780635 -0.0016318693194592793 -0.001297988146282405 -0.0004558411760073638 0.0001545800666754858 -0.0001959688433503761 0.000445828941260035 -0.0013418774209801789 0.0009974674316966666 0.00044317499665231255 -0.0012680243083169698 0.0016344089218460539 -0.0005532225562832958 -0.00017322898478678585 0.0014198860228845484 -0.0015150598588218951 -0.0003658261482361239 0.0011080795384499497 -0.0008048284726805636 -0.00010870375576427177 0.0003417589973154246 -0.00031438223745598737 -0.0012707543044710554 0.0006976617173091886 0.0011186742252441558 -0.0004734210793867143 -0.0008270188846495921 -5.3499202659709324e-05 0.0003321973861241255 -0.00019283128661129028 -0.001296885642114213 0.0012610473374773845 -0.0005904267862320731 0.001648316427571128 -0.00024291535531836684 -0.000979480486510391 0.0012192251567877462 -0.0003236352811676694 0.0004125281051367856 0.00036366102362661633 -0.00013460500461086677 -0.0014944453790691039 0.0008142631211395312 -3.914447614591687e-05 0.00010935405940772896 0.0002043297595253009 0.0009932491065867417 0.0008088832742114354 0.0013864812481274367 0.00038352425792043744 -0.0009137953074056815 0.0013150376828473336 0.0004160769015016412 0.0015904349778272794 -0.000399780405143703 0.00036982223773602245 -0.0006935550831192856 0.0003409418909745365 0.0009769039609694365 0.001173788035175914 0.0014597427492612691 -0.0002790521440146933 -0.001131852397145311 -0.0004733771880457842 0.0003935113381690992 -0.0004766092919908854 0.0009087393633650441 -0.0001390732836053864 0.0012452836648371936 0.0001236706756407013 -0.0005172124268285469 0.00039928506076916876 -0.0007242357904068712 -0.0008935240039172507 -0.0012434951802053264 -0.0009106312419549377 0.00023592193092975905 0.001167638694943738 0.001655661558597449 0.0015563225321948513 0.0009439207497152046 0.000724600041583033 -0.0011584231246341836 0.0011645771943632813 -0.0002663448644761976 0.0004685273757299096 -0.001449117635464615 0.0007459523770602062 0.0010331746438138993 -0.000913222768827609 -0.0015715199731444081 0.0015968286998068765 0.0009855950296285558 -0.001321126375304967 -0.0015510300002617877 -0.0006624941194083232 -0.0004476159434723614 -0.00022016194675119659 -0.000744101887156245 0.0010550089444678287 -0.00020220141576777847 -0.0004908204649128599 -0.0006216063817808154 -0.0010857852392056016 -0.0004405023796453362 -0.0010774117500665736 0.0008376270744702952 -0.0001384448124951259 0.0007675644165584583 0.0007262460444782789 -0.0002567161568377949 -0.0002954174714140232 0.0005134009578721171 0.00033392346769692933 -0.0015200065924624213 0.00037593835886733204 0.0014627733115815465 -0.00016290270749521083 -0.0007384426883897074 6.09005703309852e-05 0.00036606012252206284 0.0003711488619925393 0.0013170491939901454 -0.0008377679668777868 -0.00029471608193195605 7.508741194841124e-05 -0.001657550274308144 -0.0013613671627248842 -0.0013027600339655106 0.001616328494286515 -0.0007974355857484858 -0.0005825251008893601 -5.276221639410472e-05 -0.0003311052983207167 0.0004967379963595476 0.0007680929582293231 0.0001134843179118397 0.00035740999700693886 -0.0016523933069271732 -0.0011969439013090066 0.0014522929983020083 -0.0002677771057795466 0.001628402569098044 -0.0015590261218678722 -9.836982754202927e-05 0.00014436514711759694 0.0014171120740512238 -0.0014061807495068198 -0.0011632958476384615 -0.0004576349728474398 -0.001041484334325822 -0.0012708514570186908 -0.0011049328026052788 -0.0004643441624054148 -0.0008734881389193375 -0.0003921607264169132 -0.001063272968936325 0.0015460269670059406 -0.0009173267504178102 0.00022308920467595405 -0.00040090322830552106 0.0005313478677546482 -0.0007073084773666797 0.00043204478269138417 -0.0016497970964380407 0.0010934225736451964 -0.001408743741506749 0.0012659969875282325 -0.0011938378429183077 -0.001415714435958931 0.0016344872445981874 0.0013781936735713222 -0.00033861807689093394 -0.0007334776848829629 0.0007693945592802776 -0.0014975214475781752 5.4645033765056034e-05 0.0008020001399030135 0.00048355516206254973 -0.0012899198104805469 0.0011631012111566572 -3.220230166182618e-05 -0.0010313932137530053 0.0008577132072781887 -0.0011748345601505744 0.001633623924080862 0.0006034395324124833 -0.0001272530348621182 0.0007089152103280407 0.0005661476263734888 -0.0008731701392633746 0.000969157653082796 -0.000817773836762236 0.001189162637619342 0.0012077870073325114 0.00011312195516504109 -0.001573645707084891 -0.00045209869059257705 -0.000795743955688169 -2.955739945986861e-06 -0.00024200225418949959 -0.001622541224128664 0.0009735752920889645 0.0002628113672095381 0.0016387985156289676 -0.0005580783359030737 0.0005375842813522365 0.0011107625088523272 0.00042602918335162617 -0.0014562960792995404 3.0279898283264147e-05 -0.0011526025071444189 -0.00044837877600294786 -0.0005214436799130453 0.0007379835052753589 0.0005991643355370759 0.0008997399913580175 -0.00047500697375696985 0.0010987560541596312 0.0008422835009591809 -0.0011538324763659515 -0.0014633109058310432 0.0008392698925315517 -0.0004569389602383625 0.0005264868402387816 -0.0006720371658043227 0.0005582309580420769 -0.0010767426954259884 0.0016260297315943753 0.0006590358989987535 0.0012961307113501033 0.00012605265550798465 0.0006238618878759572 -0.0004190325311120507 -0.0008562813255130592 -0.001456300911312222 -0.001457395144870206 -0.0013970748970208236 0.00039863439095690496 0.000960336680894872 -0.000591527490611149 -0.0003643046440008153 -0.0016538072669949765 -0.0015499066766576021 -0.0016468831339497326 -0.0006111499907544898 -0.00015588269173955256 0.0006376294053486539 0.0005375375439447005 -0.0012493296350511013 -0.0013040517522946394 0.0004206042117406099 0.000958294800137487 0.0012086321108793101 -0.0011557850017953222 0.0007997505172767313 -0.001247447675690812 5.4796905126544714e-05 0.0016137654715485572 -6.12892025922647e-05 -0.0011875697340230325 -0.0008732664055997855 8.354171611504344e-05 0.0008569391909010102 0.0016204815280751077 -0.0016163300528021576 0.0010236042343978028 0.0007539675159262882 -0.0008408511565407551
一本 0.0001559889122200106 -0.0004966031384051589 -0.001077323902261969 0.0007399801045759065 -0.0011986591171102513 -0.0002384903135868397 -8.719918737232969e-05 -0.0013661231974493899 -0.0004317688352173225 0.0001432853273530546 0.0012342547002442018 0.0010549520860131379 0.000986049831027475 -0.0012936852517208676 -0.0015419147892050105 -0.00022093460397391404 -0.0008017460546719922 0.0010235670214448816 -0.0014941021699335288 -4.1847154855722556e-06 -0.0013255160546258335 -0.0015775223467212357 0.0014020841816747434 0.0009456432949544177 -0.0007644991360875979 -0.00046240501543116653 0.00020556528484054015 -0.0002932861048172321 -0.0007653631037395892 -0.0002833602477507608 -0.0007521215115002891 0.0002019065403285358 -0.0006284551440408762 -0.0004926015478351126 -0.0016206267939841148 -0.00039249897903699494 0.0014962666317477125 0.001181947329260881 0.0006023573860017314 0.0001699469791227612 -0.0009832049684289385 0.0011403868989169927 0.0009163414778620403 0.0005364122654250364 0.00028356083772504306 -0.0009995588025144232 6.0942538602819707e-05 0.0005505122085731385 -0.0012168124022010206 0.0011779268444254175 -0.00018907005011731108 0.0012939346020296063 0.0001403920604679017 -0.00028049438285082857 -0.0010065700674369293 0.0014351602949155898 -2.4476548389923154e-06 -0.0013563437052502344 0.0006514227108001873 -0.0011030401209607694 0.0012447491583407952 0.0010212177190524747 0.0016459819959942505 -0.0004661494439946497 0.0003481147577404839 -0.0015256719620129252 -0.00019753905623695755 0.000666953868689365 0.0011497755881681934 -0.0009710479752556741 0.0013932638250879978 0.0013184428507569785 0.00011320308090538819 -0.00037877612763805653 0.00048682796301370644 -0.0016178242323193345 -0.0012326886992863925 0.0009157023327273019 -0.001622451082522317 -0.0015629262583533412 -0.0011492990165949647 0.0010203860376585476 0.0008424906849046383 -0.0009014836888762224 -0.00013516254579853428 0.0013504514819747556 -0.0007874729571407403 0.0010256688011217388 0.0008769469423159513 0.0016011082214153643 -0.0001214091219163659 0.0015553215055500063 -0.0009174986866774807 0.0010187537750983259 -0.0001090901004279518 -0.001656283867560625 -0.0003309725280537415 0.00018937311287689948 -0.0007118946646238706 -0.0006752549128668544 -0.00010796223335037919 0.0009935106520630715 -2.6578818517497327e-05 0.00012307571119119876 0.0007645931796418548 0.0002844998168717877 0.0005118632603910527 0.0004974778801415966 -0.0002461752544173546 -0.0010676824658680294 -0.0009281313055068653 -0.0015358878293550149 0.0009951274677767101 6.34837927033368e-05 -0.00018365357121579603 -0.000841235022107864 -0.0006047487920098861 0.001259697073209763 -0.0014871673935125834 -0.0015929504190897359 -0.00010199740384814207 -0.0014926401545741846 0.0011086079587295673 -0.0005993080603320774 -0.0014154191731822802 0.0007397383467128514 -0.0011292545280950136 -0.0011313020486873155 -0.0007304277452106496 6.93305253305869e-05 0.00040762816157002564 -0.0009898890804410985 0.0008160089368474002 -0.0013064291735470131 0.001170862971567714 -0.000485667509337201 -0.0015845813547557812 0.0012414126204887165 0.0014560659281233229 -0.0015155998602437444 0.00021558435986076532 -0.0008311851340933697 -0.001119293533339928 0.0002096743101543858 -0.0007722587157672212 0.00028496929114877587 0.0009366365336921835 0.00043281641072591556 0.0002941819137735499 2.220309252016974e-05 0.0016154809780721997 0.0015699426676312725 0.0015397418816875434 0.0006324885539073875 0.000858987212526177 0.0005867057234027681 -0.0016073928176854925 -0.000698256605582746 -0.00025695684978553965 -0.00024053389548264157 0.0007589492544652224 -0.0007837340020499105 0.00022164970561347157 0.0007010181706372262 0.0008469302602545774 -0.0009767020472074383 0.00013825021930796691 0.0012692719002675033 0.000728323503923517 0.0015489969301440828 -0.0015132569159791772 0.0008323846767104543 0.0014903092758541826 0.0015420764172400683 0.00011770032782585705 0.00020155499043227653 0.0005315136761112303 0.0009612233224179131 -0.0003695288550598285 -0.0010498146680676566 0.0007914997497120136 0.000690807107875961 -0.0015042148729022026 0.00038172946333859647 0.0009672991802273077 0.0007914413401198155 0.0015276855852382003 -0.0013717879724466598 0.001170837652355329 0.0011003874380270265 0.0013455089759149073 0.0005421271380303455 -0.0005272669097688088 0.00048679450568430625 -0.0011414995956907038 0.0005924454019670057 -0.0002668540516541784 0.0009596976547526931 0.0005694577413434914 -0.0008379648339265694 -6.313308858696538e-05 0.001266228586898791 0.001399446524936062 0.0010786802466119744 -0.0007383980820236648 -1.702166978648391e-05 0.0005242257272142267 0.0004066431477370911 0.001254553177863088 -0.0014419754474141212 0.0007704069717223296 0.0010634664091065814 -0.0009842811323296035 -0.0002356167480338986 0.0011519227784628913 -0.0005375676268534026 0.0008618527109624346 0.0006941365219613765 0.001176508873670433 -0.0002278994170458038 0.001539893496599615 -0.00036160971897703615 0.0007219650624768909 0.000180988564872877 0.001227036272910645 0.00040035064276209084 0.00034153287374761335 0.0014666315250336456 0.0010282284690538567 -0.0005840147734026893 -0.0007510879511598612 -3.260901816703178e-06 -0.0014268590381525182 -0.001157889630075637 -0.00031357949168142726 -0.0008126583156109773 0.0011243463287265664 -0.0006536064367933323 -0.0002242262388008386 0.0009976057061090212 -0.0013972731715131287 0.0012392096787782283 -0.00024339564947130685 -0.0010025678836066588 -1.3563090138774016e-05 0.0005563386198779511 0.0015998999819932954 0.0006450249793300876 0.0002947152314809533 0.001425837744585876 -0.00028010170841763363 0.0006577676008657407 -0.001358377013927678 -0.0003562217297781432 -0.0008287200573529236 0.001428204508726367 0.0012610882814114305 -0.00021299142292321893 -0.0008297092135715442 0.00048296189847436057 -0.0015786164225795945 0.0014171679459493488 0.0005424738674368386 0.0014918647848456896 0.001035936161769938 -0.00011719847984510543 0.0014985926069946533 0.0002800038755252028 -0.0012382696332418888 0.0007713639904763247 0.0002239932402867964 -0.00041582129517254827 0.0008801686287356619 0.000717318891294073 -0.0016189053664729864 -0.0015388298841826952 -9.810893027788684e-05 0.00026338178843746487 0.0002306652406246529 0.0013289245452242603 0.0015160020322155813 -6.33858082782287e-05 0.0002882015571248173 0.0009726389210321818 0.0015234392323435748 -0.0016515151594678535 -0.0014263789541699458 0.0013569886533251975 -0.0006280397421602518 -0.0004319400149444505 0.001115656038796963 0.0015520130014343243 0.0011685512549825994 0.0014854037984531638 0.0004668930595732078 0.0015624144255339055 -0.0010481499307600616 -0.0005188216500299857 -0.0007795238940220248 0.0013967315797575582
非常 0.0002974672079687895 -0.0001429640702699819 0.0015110319929162901 0.0013810297409642665 -0.0003307887014034199 -0.001059974603120318 -0.0007046209551549888 -0.00015512234097768795 0.0009295549244820559 -0.000307460306661967 0.00036909061513518284 -0.0015303185116944296 -0.0003699227147952239 -0.0016196211050289958 -0.0016338717761955224 0.0003351373916849253 0.001480767549440444 0.0010427116648810773 0.0009086267301378372 0.0008433336461231383 -0.0003779358592311475 0.0010483272977922992 0.0006846075461238207 -2.8590026271024228e-05 -0.0005883570498675171 -0.0015818628776563938 8.631620573786556e-05 -0.0006469977783534341 0.0008044548732634352 -0.0001486219627116929 -0.0007968859553880673 0.000696388832335342 -0.0013410444133498697 0.0006134843409306269 6.84272789349243e-05 -0.0015926087633919216 -0.0013257178132250252 0.00010231251564268772 2.796489586861813e-05 0.001262120433104136 0.0008673901248172012 0.0015449017349798977 0.0013201593194951088 0.0010665169205372083 0.0015011451912357342 -0.0006404448690068325 0.0007747144078984468 0.00026296250006847686 0.0009216276150981718 0.00098808592312377 -0.0016366857077612063 0.0006667083345954454 -2.0215687176122325e-05 0.0012552672803035673 -0.0013271123174705241 0.0003109293721700806 0.0013826183615133036 0.000978226860207374 -0.0016655408805091774 -0.001492625000021907 -0.0011782441171358413 0.0011660708079372628 0.00019457569203193997 0.0010177311446568703 0.0010153463651605223 0.0016542865312746567 -0.0009551684922446428 -0.0003782578379750387 0.0016375996522011035 -0.0008818748983825019 0.00047595800252690144 0.001287004241949227 -0.0003287344409358973 -0.0007689735071885323 -0.0011161836517933133 -0.0016171226312174918 0.00107219139758471 -0.0005974591987298329 -0.0012567174165719257 0.0010596866027144454 -0.00029714889339561287 -0.0007276653824922755 0.0002500191811432489 0.0014598722511492731 -0.0009020014945645147 -0.0009503277467784694 0.0007915862240727344 -0.0013397393995743267 0.0008423241819690259 -0.000783037393692295 0.0010653147571910895 -0.0008144041726910275 -0.0003570756336973395 -0.0003113511520290704 -0.001181414881608849 0.00044450288736379295 0.00022016050336735114 -0.0011153453462231435 -0.00021243777992486376 -0.0013623910554591344 -0.000927743470631681 -0.0015899824856784037 -0.001489077512616431 0.0009024788320310107 -0.0006849625185489412 0.00025140378306355246 -0.0001480976484021367 -0.0009419628744325055 -0.0011970375953116615 -0.0010005484743304204 -0.0005563231167039288 8.772716795685325e-05 0.0015229401068017428 0.0007896777269648617 4.696437816077166e-05 -0.00129782122247424 0.0014709310930714275 -0.0007999597361719653 0.0015130883707850458 0.0007227042119033103 -0.0005147681813744658 -0.0003846960051778056 0.001129579235250974 -0.0011594047862181433 -0.001414245958083151 -0.0010635589855250206 -0.0008407713906864462 -0.0012252444661479001 0.0012746379026864405 -0.0006720580663278315 -0.0003339962980646598 0.00030136684934856746 2.099886352370655e-05 -6.0386511363760886e-05 4.4564872952212736e-05 -0.0008400621338271063 -0.0006089500730054663 -0.0012455228666971372 0.0007829574157707097 0.0007607392463083672 -0.0011163046912027257 0.0005247443911924548 -0.0013609872558226024 0.00012782732624893627 0.0007001233890904645 0.0005813958232345916 0.0008032988682353761 -0.0009470972186874762 0.0011903198664992471 -4.022406504609151e-05 0.000990201660793921 -0.0011326252062417706 -0.0010858624535344493 0.001289626138605762 0.0014395781228127254 0.0005678107247841332 0.0003171666876937695 0.0007181553093716863 -0.0004968047140208957 0.0008408070652557285 -0.0006155451801370304 0.0012224535293090932 1.944187997551726e-06 -0.00028821364247416556 -0.0004609344424177529 -0.0015698414546200488 -0.0011018164275253875 -0.0016278471609436598 -0.0010508125170633834 -0.000722647660882826 0.00018564018785225615 -0.0006143922453191782 0.0001659229026856409 -0.0006641662930251731 0.000992175178497986 -0.0011830029025646127 0.00136970977047085 -0.0010555115457969015 0.0008253520368684879 -0.0009760414096473365 0.0007907011444145789 0.00036312679700397445 0.0007411626946613967 0.00013292960032565892 -0.0008345767523357733 -0.0006414496635533591 -0.0016516646104378007 0.0013558239772898794 -0.0005637040632904978 0.0007066952065664788 -0.0012996948207587937 -0.0003620763946132697 0.0005475522797648533 0.0012450724342976229 0.00033387846196704683 0.0010949820851350889 -0.0010559885567328817 -0.0005653718213855378 -0.0016370174272502802 -0.001365896283105284 -0.00035777555357028933 -0.001281699642971004 -0.0008750167363398054 0.0007596779057647155 -0.000902275401057604 -0.0007852943639444291 -0.0008096392113904353 -0.0011535097339041129 0.0012798354565786017 0.0010657077235820287 -0.0013523144524026543 0.0011626359294669149 -0.0008802033721354655 -0.0001829961136663833 -0.000973804302353926 0.0014022941350734209 -3.9605556512638006e-05 -0.0009225823270389885 -0.000177980917273163 0.0011397308898322112 -0.00048973590704948 0.0010502274122515744 0.0005493343103122952 -0.0010405127563968399 0.0008183135792708387 -0.001170505780071093 -0.00016732847942023426 -0.0006867680835528229 -0.0016033756756720023 -8.648619093942993e-05 -0.00045445400360069995 0.0005045666499003444 -0.000714006066693328 0.0015201817806982756 7.9674468027227e-05 0.00042267573225915247 6.912380268078114e-05 -0.0011745710584214304 0.001531549401176502 0.0011075582174991897 -0.0006517543558844854 0.001431247032047995 0.0009685709440441742 -0.00015412068665261733 0.00043807954737780006 0.0013830975413251676 0.0005116971311990582 0.00029296910623303774 0.0011729762593962732 -0.0005454487530153575 0.0016147825998583454 -0.00026611779972546425 -0.000370924586457742 1.892811939971175e-05 -0.0015529171790099848 0.0003551914545824137 -0.0010669513945961281 -0.000861457439140862 0.001181553084290858 0.0010196511982346204 0.0009701814523777475 -0.00019831411936537492 -0.0012892105378830706 0.0006137157444969767 -0.00029717010268510665 0.00011094261661202153 0.00023679771500972627 -0.0011062216256127542 0.0012437364270396426 0.0009324510077732971 0.00144666885924805 0.00042207627441771833 0.000813211229159581 -0.0002839670211439331 0.0009601193708264361 -0.0015513180377633915 0.001566416357573933 0.0008956558628989566 0.0011269417560270003 -0.00037906037535160317 0.0015275488142742167 -0.0008527639928943009 -0.0013744612390558487 0.0014747101795300574 -0.0013058263028772861 0.00017428277987334849 0.0015310191715143624 -0.0010417661194135062 0.0004165928718895086 0.0009871911443713438 0.0011034225217239602 5.095122427335349e-05 -0.0006111427799336929 -0.0012713523076879265 0.0011125713777459694 -0.0010986350587992284 7.584706207177173e-05 0.001363861522239214 -0.0006862750959714126 0.0015290394989515876
值得 -0.0007083866064169569 0.00039219193745459676 0.0011077589505616356 -0.001469936704801159 0.0015951967039391452 -0.0008357772185295298 -0.0008040316085445386 0.001245221337218764 0.00045823252246282483 -0.0003986821129619729 -0.0016333300140425732 0.0003444814035142408 0.00024033118818150842 -0.0013515822875010755 -0.0006173200854855619 0.00033806563738820994 -0.0007409137954855875 0.0003585649880012288 0.0013963389086390776 0.00030582637883139945 -0.0011549886473282845 0.00034218635148070475 -0.0004929907092554197 -0.000598893031583576 -0.0001898087980939267 -0.001633788429919857 0.0014960781327540563 -0.00020425995581227138 -0.0006405056227902513 0.001130041239274889 -0.0011928066889784186 0.0002257229528260922 0.0006972034799504996 0.0013942546205613867 0.0003499006502185495 0.0013346104449914688 -0.000549827147375218 -0.0006887388836957256 -0.0007195325899941682 0.0004207440397617854 0.0009380572984488331 0.0006551439709466261 0.0006379070259350837 -0.0003810228512749004 0.0008881849928905278 -5.521277630432801e-06 0.0007500077641988832 -0.001107057336311708 0.0014535151326255905 0.0007599909510044103 0.0014607697151863507 -0.00018345711984966824 -0.0010608834699970598 -0.0009415369575420296 -0.00041118406674468095 -0.00105984582536355 -0.0011868653825890414 0.0015758253187194103 0.001523249361261938 0.0015255046107648532 -0.0003433146745679654 -0.0016246341910929394 -0.0012649193868730407 0.0011382242312291601 -0.0013421380917386918 0.0014841249739089674 -0.00031559918554707343 -0.0006006968313273391 -0.0004202327178043415 0.0003391069383250278 -0.0013459037563230544 0.001067594135577321 -0.0005089750040137139 0.0008994916640883697 9.557320225972605e-05 0.0010177086129143243 0.0010717046763045076 0.0016205037507959442 0.000715015890922831 0.0005409796648230083 -0.000979592592967016 -0.0013745338885010313 0.0014113786472351622 -0.0003675544884067864 -0.0008519297826955648 1.5805493989587909e-06 0.0014729802344194448 -0.00018233441844898158 -0.00131811646173047 -0.00044199117111604183 -0.0005072408985087926 0.0009696045778014293 0.0006358124177446799 0.0008844604561704904 0.0007434026512018519 0.00032578618931466995 0.0008878161202260397 0.0013186408664851636 0.0009655867720574573 0.00111436786733229 0.000765830526158449 -0.001483365777293952 -0.000496747256648734 -0.0001147306304547488 0.001214958554501571 0.0010341155768850915 0.0014054260063370786 7.480146010167306e-05 0.0007134092912422824 -0.0011769848775680658 0.0015579277907416156 2.579646945191311e-05 6.983257755975505e-05 -0.0011423159757563306 0.00025625415671522107 -0.0014620194469322624 0.0008891070410410226 0.0007016173842616213 0.0006376106236010325 -0.0007335629271956555 0.00040146370924583786 0.0003291544581407702 -0.0016410246198118675 -0.0015464682296998428 0.0009255051231398342 -0.0010430717221344644 0.0012771601485898638 -0.0014293302386027482 -0.0006919912888699981 0.0002757853580845686 0.0004881652431689369 0.0004177107964228389 5.5379101208714504e-05 0.000640317490880822 5.868056844296596e-05 -0.0007821989211445701 0.0006258743042055414 0.0004417072653655341 -2.7430722179399863e-07 0.0004976711140324064 -0.0013685044934647135 2.714170525891102e-06 -0.0004834302676543718 -0.0016471510007917485 0.000394386053279869 0.0010000569411695857 -0.0016089664828606526 6.789624581021405e-05 -0.0014696573773301154 -0.0016506671038114065 -0.0014652507162158208 -0.0005014767151716123 -0.0001796144612898785 -0.00149748741237955 -0.0002367465532881214 -0.0007938763831221914 -0.0010068293164460678 -0.00036074169700749337 -0.0009086809124307064 -0.001316711061248991 -0.0006998016993517823 -0.0009794686967072017 0.001140528601169494 0.0006533408077950923 0.0007729273927100405 0.00013927858822069132 -0.0006497001981727935 -0.0006115452816066046 -0.0006278875569789943 -5.528831759965625e-05 0.0016000662192661714 0.0010519318245198635 -0.0004579885842129697 -0.0006092750313118109 0.0004428194282835382 0.001042900890804813 0.00030669736824788285 -0.0004991358324685365 0.0008892618241921789 0.0007550634920431884 0.0014645418490358455 -0.0011593239292858948 -0.00010523109662621877 0.0015831953879168218 -0.0012303613530149206 0.001573215851997857 0.0007497201392707173 -0.000284264152384579 0.0006407944565063952 -0.0011138122819067966 -0.001633394033933097 0.00038679858859978517 -0.0011382547934869814 -0.001297463486863159 0.000526883081650368 -8.327111967531524e-05 0.0009937910469662247 -0.0007811326381913582 0.00047408509966338937 -0.00011451003070455585 0.0015515670010584138 -0.00019091915603051263 0.0006534836134391713 -0.0013119781596651187 0.0011034734642218962 -0.00048061157010886174 0.0006690415968795185 -0.0013150885047421982 0.0006004887591730303 0.0008405043033013719 -0.001195860735895313 -0.0013779532474689148 0.0003451504593625962 -0.0014865864407815302 -0.0001664388076986904 0.0011025592879765932 -0.0006009474399277568 -0.0012878887391187443 0.0011012352420138752 -0.0004369369004864393 0.0004463971289547628 0.0013349790741110131 0.0011806556026278082 -0.0008725791422959588 -0.00038770250990541934 0.000488683148109872 -0.00040670002458276797 -0.0003166723620481739 -0.0010622432805375693 -0.0007405492899357196 -0.001377807746762676 -0.0014601241250572002 -0.0002276172644149497 -0.00010454931054645517 -0.0003750820610976532 -8.518998768317827e-05 -0.0009913894364926084 -0.0005545013612509085 -8.32963355499888e-05 -0.0015198992087110013 0.00047034632151336987 0.00041025996328312574 0.001619805379242574 0.0005917523272542823 -0.0008941857413947357 -0.0004086534533858688 0.0015392171359848515 -0.00011046714331861762 -0.001374025738926571 0.0005389078334378452 0.00046484426775852516 -0.00026610791417812954 0.0008051399913740451 0.0007564344755780909 0.0006288536995954435 -0.0005307756176880183 -0.00016835435000334394 -0.0011963864943190436 0.0016264311898115049 0.0014233845980748455 0.0010295149145488239 -0.0015184089346900887 -0.0011904465584322245 0.0004704583016828098 -0.0001701245774791961 -0.0012606421764827732 1.9687910847930408e-05 0.0003591093336446963 0.0012398356929184463 -0.0004094359745667513 0.00090176051865154 -0.0011801876680152927 4.213024350871861e-05 -0.0013923676259490602 -0.0009571705692916633 -0.0006455747242330003 -0.0011917662007782388 0.00021720133987363562 -0.0013228864181102195 0.00037083004034261065 -0.00041838744619173806 -0.0006922772752978349 0.0016407619339059726 0.001437680165290218 -0.0007150943120798249 0.001428862335475726 -0.0014857179679391686 -0.0015702089862846122 0.0007118716962936484 -0.0014476455659783577 -0.0011880338003401496 0.0006364519315186133 -0.00042182693838196 0.0005868695143026684 0.0008563872226490723 -0.0003660065619598248 0.00039190970250163967 -0.0009191689859163731 0.0013457008234344539 9.191436357450618e-05
推荐 0.001511304773335013 -0.001662357347295451 0.0012795684781130932 -0.0015215924339416907 -0.0005411429247215256 0.0007940733077000478 0.0009291310350043516 -0.0014957071820905403 -0.0008758988704521518 0.000922572134356368 0.0007852753242819047 -0.00031374151708093203 -0.0011128856903759809 -0.001648980604247052 0.0008809030138790333 -0.0015198027661458883 0.0010745189925945899 -0.0013400046859467086 0.001411485726216373 -0.0015478984144316334 -0.0015079244840619807 -0.001126892175292343 -0.0008699292949716186 -0.001005374860166089 -2.556093763893826e-05 -0.0008331522951095663 8.80785556689368e-06 0.0012820570180169118 -0.0008995013287026437 -0.0007760159549457601 0.0014203582838218356 0.00019712896242333363 -0.0004515745090226608 -0.0005443799751992025 0.0007849789840127375 -0.001324255761604107 0.000732745350508377 0.0002917308242598596 0.0007358020419829372 0.0009846307087931856 -0.0008640408661688454 0.0015567358103309211 0.0014354754849152222 0.0005601145762288704 0.001430371410954554 0.0006940237883319462 0.0013753952595962147 0.0005050404255547354 0.0003865055002528541 -0.0009573401285868057 -6.899838242599325e-05 0.0005047597059871805 -0.001547974621388248 0.0002808797098641981 -0.0006184075929163232 -0.0014763879150801096 -0.001169014115290471 -0.0007606562626132155 0.0014298171330528995 -0.0015120619531841567 0.00014423492156381287 0.0001203322900969303 -0.0004942017973623494 0.001104804381943457 0.00010743753815654325 5.8333152437416645e-05 0.0016422635541691291 0.0014395322427103443 0.0016473264330787983 -0.0009382332640572362 -0.00027978344554228576 -0.0009786360676657644 0.0012530069782573437 -0.0010468843593292112 -0.0006988760504780438 0.0016126894714835556 0.0012890793831485277 -0.0011880670290879572 1.0043628287828624e-05 1.6939394024297214e-05 -0.0014220263207148324 -5.439877402875119e-05 -0.00034500288712009685 -0.0015014720551200379 -0.0014217399463918557 0.0014564020646219604 0.0013613157660954313 -0.0002619481315109522 -0.0008126582175566995 -0.0009069602804150792 0.001137667597869823 0.0008378958567402603 0.0016117431554233683 0.0006894565659472372 -0.001633212271448089 0.00016429551707728223 0.0007314028049810776 -0.00027717428373811643 0.000378659551034276 -0.0006299806903525664 -0.0003037679756694763 0.0007844165503493824 0.00030545614486521754 0.0011708473391790213 0.001411453283750848 -0.0012304148139385717 -0.00011300195910117761 -0.0015284036908871123 -0.0013140485239915257 -0.0008690841948647515 -0.0014252856786836523 -0.0007368141562603893 -0.001428926714992556 0.0011411882332651852 0.001664066397210314 0.00033505601834502095 -0.0016619653027256567 -0.0013624350582785922 0.0014128416267746523 0.00021706360769167677 -9.699312303883212e-05 -0.001466366517020037 -0.0010248636801362281 0.00016619940363127205 0.0016351738179390565 -0.0008330707389577141 -0.0012439378400195809 0.0015834342776832589 0.0012984552904036109 0.00029349379196185724 -0.0016347041966735057 -0.0009846956839529388 0.0013182414459426244 -0.0007096539410667202 -0.0016165412345921027 0.0001387949403600259 -0.0002943978516354658 0.00015920185844575568 0.0010058476359833318 0.0004594196293739914 0.0015470217443843241 -0.0008447721857712173 -0.0009287006091482791 0.00024019044612107039 -0.0014215751796212946 0.0013324729799485528 0.000852513830479668 -0.0007626951180256705 0.0006540820926880761 -0.00010109002140511083 0.001288971272040466 -0.0016093991602450172 0.0011858030412792264 0.0004076898316329981 0.0007841872239748073 -0.0002392440550750139 -0.0007569613292462125 0.0006891802530886765 -0.00019249148572862029 -0.0013806293885058577 -0.0014550030055414428 -0.0016079855697935209 -0.0009968463528311632 0.0002885681701580272 -0.000542081600691857 -0.0010330619202714377 0.0007848974251445281 -0.0003152498065830724 0.0005251891339780004 -0.0014120269093953605 0.00043233800405473685 0.0005445001560320692 -0.0005630054198899073 0.0009978764820771499 0.0008721205985751472 0.0002104050612917886 -0.0011845239399241084 -0.001409399212025682 0.0014424286773498834 0.001378251415227754 -0.0008656629866065504 0.0012134168262500915 0.000376703623831221 0.00046988320022356504 -0.0001939204926561343 0.0007047494640451617 0.0004567594708242111 0.0010532213864539856 0.0012662391292140645 0.0009164296768747748 -0.0011683416730153867 -0.000856007475969062 0.0006815290131050913 -0.001227007581283636 -1.7571767041087388e-06 0.0014899149760276241 -0.0011615318325465167 -0.0007564244886520783 -0.0011618662824471482 -0.000502076382394292 0.0009728828390045824 -0.0012009615937640615 -0.0012963245324932337 -0.0007227702495032713 0.00011712732916362347 0.0012778040642780427 -0.001487768865388769 0.0014876282531177444 -0.00116688252207921 0.001275348825235538 -0.00017840324291698662 -0.0005645168812253307 0.0010578798599076204 0.0014048656151155908 0.0012756856218387462 0.0006535959160287682 0.0010032388517484188 0.0002030684640368313 0.0009116461692963193 0.0016020309929722471 1.362462014704635e-05 -0.0007130119428388327 -0.0010382683143784963 -0.0015248716350225147 0.0013823775570031176 -0.0008855604369989115 -0.0005685928934808459 -0.0014526557221888913 -0.000597803490343396 -0.0004165102387189749 0.00044137372616199637 0.00029016672496046125 0.000845091664564687 0.0012834885311630304 -0.0014441815836426257 -0.00045845258654644784 0.0013669325863555517 -0.0004851769386694923 0.0010309796759268976 0.0011793870747732068 -0.00032870495310285887 -0.0015618325455267839 0.0007637046646828577 5.899924153498386e-05 -0.001296083269207604 -0.0002612300129772424 0.0005357294724303771 -0.0010195119800343064 0.0008063112380670168 -0.0007718047814180209 -0.00021349622197609807 0.0009426642195001134 -0.0008047494223965976 0.0005678404824388025 -0.00017087418316619334 0.0007706131136800583 0.001316728014636397 -0.0015786329410162547 0.0012412463599696145 0.0006680690404777798 0.0004868325088757342 0.0015996079137335193 -0.0003035701624893635 0.000212591054569059 0.0011197099511482413 -0.0004978705934000053 0.000888322076781374 0.0006096266715970645 -0.0006523793402457235 0.0008911649271875677 -0.0010178366212945588 -0.0006212763558245622 0.00015910146797910616 0.0014681607852329076 0.0015524548205768714 0.0013109409222954512 0.0008603085878776936 0.001397441102795101 3.131243018191434e-05 0.00037299326190797356 0.0001643788043513706 0.0014799337341854506 0.00010995183363631035 -0.0004972560270121883 -0.001638978076425127 -0.0013210465829142206 -0.00023263674018924848 0.00028623410603368765 -0.0009773791663790646 -0.00044878789687663874 -0.0011944021253558858 -0.0011526693793929735 0.0010705336816646245 -0.0004172538686199518 0.0005934083952389822 -0.0014533617131226697 -0.00028507199975282845 0.0013485068039930269 0.001282041592117757 0.0015735562299445684
