19 300
<bol> 0.0015515032209951303 -0.000671370527686168 -0.0016584043548881276 0.0014213998073101777 -0.0005812840336368603 0.0004573459735780322 0.0008380850602255268 -0.0014253536344561116 0.0012443712389604397 0.0006535255261548115 0.00038102037427858315 -0.00030272378032513455 0.0014350939972796986 -0.0012081372888614892 -0.0015282986378708416 0.0015676462413733727 0.0015330917584889696 -0.00020021278836410868 -0.0005896913761988279 -0.00015786141331834084 -0.0004103576647270453 0.00012399684996371383 0.0012855225274839928 -0.00012415355724214569 -0.00015056158756897027 0.001631392479761609 0.001216748671564376 -0.00034688575463607575 0.0007661144267931778 0.0006379462685042736 0.0009929024268362885 -0.0011554744747961437 0.0006307216206097426 0.0007760782035015173 0.00029108292169401496 -0.0003315310861455998 0.001265318283691448 0.0009101645089530448 -0.0012889631650008493 0.0015485712777255339 -3.7750021342185834e-05 -0.0015911011832765833 -0.0008113573823825388 -0.0001365045142610862 -0.0014701160296003368 -0.0004249256736261553 -0.0012332454861275666 0.00040620905542612727 -0.0016062321298123312 -0.0003684232166851572 -0.0009403634502261732 -9.585167614085458e-05 -0.000294629028470971 0.0016150861787881494 0.00040389852427560126 0.0009737567512545831 -0.00102005493651115 0.0013283779694403864 -0.0016101128708256231 0.0009897393362704701 -0.0007215609100576509 -0.0004636463808921503 0.0007023491838804309 0.001226863249673779 -0.00012388569628996135 -0.0010111829759910497 -0.0001443609647881975 -8.241699211732482e-05 -0.0015383252277053267 -0.0010075426330488557 0.0006983431638733049 -0.0011562903716322052 -0.00040954354851522934 0.0005033186350758684 -0.00023291923773469692 -0.0009185972972276923 0.0006320177324608128 -0.00031180440316585454 -0.0002098475602363232 -0.0013033575284061246 0.0003828919813520697 -0.0011603183279791374 -0.0009463450649225233 -0.000425155272261007 0.0013583973339677707 0.00020200773763801724 -0.0009793705533413944 0.0008788587876531341 0.0007263158570454714 0.0013339121281586309 0.0012817014692598468 0.00018376378032083888 0.0016352687847396013 -0.00033989591716873543 0.001056330419377431 0.00042916481393463367 0.00047363234018584286 0.0010370571243176782 0.0005494785922893323 0.0010654797488380595 -0.0013796585886811689 -2.3988525990032665e-05 -0.0005105145850498216 -0.0006015995710498791 -0.0014893486420233225 0.0015277606803946364 -0.0011272844503849755 0.0013766601524419528 -0.0013375604612081136 0.0006702645073288526 0.0005637532474014814 -0.0013996081732572598 -0.00019346702609500215 0.001358675166014102 -0.0013072794110799706 0.0015033950638044396 -0.0006309508433210417 0.0012810675414347472 0.0005944547335436876 0.0012536562358355888 -0.0015120658566410083 -0.001330375275266426 0.0013645404288161905 0.00014159842276029747 -0.0004943010063640306 0.001504253683548419 -2.267434258301343e-05 -0.0015168145015255125 -0.0014402263623327985 -0.0007599178315385499 -0.00014006126223655097 -0.0002994383810529343 0.0006911690224389183 0.0008243055661847119 -0.0013162552054321788 0.0008489475256762396 0.00046039001276019186 0.0002952172033369512 -0.00024739544957209773 -0.001532992439520545 -0.0007281164592277112 -0.0012181095730760872 -0.001487065120827333 -0.0004347256234361679 0.0009170621059644313 -0.0006779614776152169 0.00010193187042350245 0.0016560930715058945 0.0014892072802731129 -0.0013664101512061246 -0.0009344564259375485 0.0002814450351531171 -0.0013619690491625815 0.0012283918966363723 -0.0015905109289877863 -0.0012331837813199392 -0.0014817172504575694 5.9952314313412873e-05 -0.0014903949288525677 -0.0006611263996982544 1.857575373217519e-05 -0.00010168379601544998 -4.085403861243157e-05 1.5982288594443618e-05 0.0012993504254899676 -0.001495823717959479 0.0005402428526445827 0.001108581999912679 0.001055895234097176 -0.0012319143395040848 -0.00024728312532695725 -0.0006491724394198326 -0.0006749520389245533 2.4452629060132105e-05 0.0013606365728679026 0.0005594693500587701 -0.0007350770673971339 -0.0006519601733142937 0.00017041892402305342 0.0006176864132208049 8.130036840558735e-05 0.0003074862148027461 -0.0007908831249843712 0.0011542327794268387 0.0009552847214766231 -0.0016211990922067327 -0.00010292458013025107 -0.001444928938933706 -0.0016632182837760907 -0.0009291408523638545 0.0012967325810227853 0.0008281833167149731 -0.0008512385102495303 3.004957260240872e-05 -0.00019823743315314224 -0.000767440432953358 0.0013002262240044652 -0.0014042643972173344 0.0002426924987030528 -0.00024557257804113877 -0.0016345408665224255 0.0006517382683320468 -0.00037083672092206503 0.001663236217120702 3.746000197246347e-05 -0.0015080083607168047 0.0008490414651197711 0.0006347988778824638 0.0010956477881817056 -0.0005821143528093719 0.0004482199225689832 0.0007285292145164416 0.0014049197950078782 0.0010088359890066086 0.0012468924687988009 -0.0010808046075346757 0.0014596568666012683 0.0008591514072632252 -8.852181168041086e-05 0.0010799288464411242 -0.0012681186836182906 0.0008019276144150144 -0.0011474419428565033 -0.0008443835565713632 -0.0006604804510536975 0.00044452593841845994 -0.0011928432054206374 -0.0007870743688777261 0.0003381526555129006 -0.0013433607751196968 -0.00043983130957284095 0.0008501298686193635 -0.0014325238073471752 -0.0011950875783562328 -0.00034955514313210907 0.0014836311370475077 -0.0006713363226280959 -0.0009926639291745482 -0.0008379918924749944 -0.0007557220351808905 0.000661499330074913 -0.001651693420555373 -0.0009409108752478336 -0.001456435130606526 -0.0007679344964245827 -0.0005682175228178221 0.00010012133793876698 -0.0009821255794211885 -0.00048375291574577077 -0.001511119644134986 -9.331346250758363e-05 -0.0002391505868016849 0.0012470728021612522 0.0004766014500948961 -0.0010703942376042355 0.001542457631006575 0.0012290037666589097 -0.0007772645961283512 -0.0005087117632020413 0.0004967562020398469 -0.0005739143866376911 -0.0008937022702532921 0.0016358227937725183 0.00010282347011575832 0.0015647051598546597 -5.5445895211043704e-05 0.0015261560958349134 0.0007857755781623636 -0.0005016434348961918 -0.0015608596896754287 0.0014878511964095387 -0.00018867379820552814 -0.001274297758834138 0.001403316260056778 0.00018836921260060875 -0.0013771530408550714 0.0011665805605670075 1.0288891620800604e-05 -0.0012307175780585467 -0.00040768926635486734 -0.0009855316749206875 -0.000931030477040216 -0.0014294481554301395 -0.0003113953625190009 -0.0013409935835498733 -0.0007219744035143746 0.00014167037538578514 0.0007216394939922024 0.0012705743904474326 -0.0010435647622627025 0.0009952719602180553 0.000718496860615831 -0.0016523451823870162 0.000851441163027471 0.00112277409126001 -0.0013878547692672174 0.001360600299208275 0.0013093146859176322 0.00021500314326379695 0.0008520381948245136
<eol> 0.00035091250569942693 0.0013151166370275998 0.0010237508981647012 0.000973672945190238 -0.0016247591540129813 0.00020098905117826973 -0.0004506359412281085 -0.00045389843768141476 0.0004347242406166422 -0.0016128240153557938 0.0003717474957550694 -0.0016463593734894317 0.0015914676793669091 0.0010329766415499262 -0.0003544515762141643 0.00044170592606850495 -0.0016389218887303022 -0.0004907752200672712 0.000937040870643683 -0.00036329341919274274 0.0015939479679777716 -0.001136202904405556 -0.0012564200463403225 -0.0007852599215320662 0.0009399809168240866 -0.0007153664853008007 -7.840930213901236e-05 -6.832054396262468e-06 -0.0011315453472650542 -0.001008857619181215 0.0004165916089632546 0.00150495431414481 -0.00030972850829330247 -0.0016444268742980034 0.00021682510543494525 0.0009379564518023379 -0.0009365200330678784 0.0011039161416652261 0.0013506626493850233 -0.00024834485439373567 0.0002391463138471374 0.0007526043152106329 0.000825631786847898 0.00016471490892162137 -0.0011693113463649703 -0.0005939580591730131 -0.0006848286965619536 0.001371967488335624 0.0012926936786906203 0.0015335623010009367 -0.0006000218446405994 -0.0008404964082609545 0.0013433164872985542 -0.000916599645319976 -0.00050405430115917 0.000932530396235784 0.0012185750335933355 0.0011578716523953073 -0.0014001296772393668 0.0015178520260415692 0.0010501868042906693 0.0012484038828861955 -9.852816080756088e-06 0.0003379133201998649 0.0003453440987496296 0.0013999317792726862 7.25222324819895e-05 -0.0002549504987690095 0.000311255789731084 0.00043646021509666645 -0.0004586550912865208 0.0013336941361124794 -0.0015679760471677044 -0.0012519347629221262 -0.0008516135850013451 -0.0005649769949661349 -0.00044095388915630843 -0.0007972327805414292 0.0007054497721593607 0.0007534886838316912 0.001428239596652934 -0.0002317021869994273 -0.0014168134099843991 0.0004161093447972258 0.0012630816899017376 0.0006991908948278418 -0.000707990744539703 0.0004935803986342306 0.0012046301583900423 0.001630303179336303 0.001160180949949576 0.0004726406796297339 -0.0009536666841518991 -0.0006113587417669949 -0.0007833022267837476 0.0014126644371260323 0.0011135736928788707 -6.726936954998136e-05 0.00029639826792261196 0.00017428383407836525 -0.0012155911643889489 -0.001457959713906631 0.00037023238182543153 -0.0011725016461060812 -0.0013366323212538928 0.0005416989782660149 -0.0007066440411088995 -0.0001559174731160895 0.00024992959889192886 0.0008083756297060225 0.001252251045272463 0.001394565464098093 -0.0011923749894164808 -0.0002089567288283499 -0.0005968844402487318 -0.0014828514080582418 0.000196994604311943 0.00021186534728307596 -0.001530198784699906 0.0004805452899763002 4.5298962858319564e-05 0.001376121764915185 0.0011041174654702283 -0.00030866353851174137 0.0011985759119211511 -0.000633600759906431 -0.0014803559473812202 -6.482368346795915e-09 -0.00031276061437714425 0.0002301539798079013 0.0014273613052440087 0.00024528265597785676 0.00012860839160007553 0.0011022497796267475 2.1949098793834834e-05 0.0014947802747896054 -0.0014969216026607278 2.0803120251652034e-05 -8.057775862507336e-05 0.0014465438710020671 -0.0011448380301515482 0.0013778446667293046 0.0005467343422294852 0.0008547421643496773 0.0011833130280134044 -0.0002460869920823235 -0.0005324953473113863 0.0013728570759214338 0.000669860088435353 -0.0015403217494945607 -0.0007908933556732031 -0.0012732178837231308 0.0007861628046278096 0.0014960997460122338 1.3024623824481644e-06 0.0009650061698881863 0.001227748722437263 0.0010494912692265842 0.0014735124373359352 0.000659222919283964 -0.0010494785762965332 0.000903506645141537 0.00027593026268834565 -0.0006298005207815156 0.0004134711997854856 -0.000938660867576839 0.0012450133324611666 -0.0013657564990568454 0.0012593020888222986 0.0009643130485260193 -0.0010593223313143708 -0.00023386689519462522 -0.0009167686081607408 -0.0009476319802726292 -0.0007151994933363752 -0.00016149654270700722 -0.0008588363001245467 0.0008484072681364419 -0.0002531641477621182 0.0014558942047957638 0.0008880880962704622 -0.00035906028434736024 0.0008590618014521003 -0.0014476544828773165 0.0011340172306164265 -0.0012135381747727261 -0.0010789610148340307 -0.0012614338125717635 0.0008954102156065873 -0.0009525633507185119 0.0009474891075864596 -0.0012013823707470058 0.0012843440036877974 0.0004846588314252096 -0.0013453314388443434 0.00024401723461780158 0.0004905098094640598 -0.0007054106838477082 -0.0007984179549502514 -0.0016403887056864151 -0.00064865187415862 -0.0006838263092350603 -0.0006893676769918087 -0.0003531399259002035 0.0014543737581843331 0.0008401863791571618 0.0005198583765317535 -0.0013886696776221996 0.0010765202227787465 -0.00015344592751460393 0.0013851249590072865 2.4513951919534687e-05 -0.000505380058416293 0.00015282469417228552 0.0003944646453647592 0.001121230215867577 0.0014540693668377205 -0.0007380542138357141 -0.0006133438789763965 -0.0011069132535440763 0.000932168593816408 0.00036884219440030144 0.0013017854928040649 -0.0010708822963325538 -0.0007690651019392294 0.0016349580169929706 0.000352407588131493 0.0006203410118100506 -0.001327898280788483 0.0016180011979146948 -0.0005057695084750583 0.000610284402165138 0.0007251125847866795 0.0006333142446958753 0.0006980631189272993 0.0016632519063347368 0.0005689672905884176 0.0007057647181653496 -0.0002911753953345666 -0.0010793711531758747 0.0015605105333098624 0.000942096375966588 0.0013896313177604231 -0.0007188225411253023 -0.0013693993680888002 0.0009555309246884041 -0.00014069949245859134 0.0011209174360433793 0.0012167031169922162 0.00043822510034709623 0.0012594355641359202 9.239360582742049e-05 -0.0009464600647215338 0.0009840915640823029 0.0015487531262925681 -0.0015078604540817138 -0.0013734393055084202 0.0013630119013311845 0.000691209132059486 0.0010246515819766781 -0.0006457331875892237 0.0015909017520188808 -0.0012996827764784106 -0.0003255729516421662 -0.00047752495665588906 -0.0004522045572804076 0.00029176344135385196 0.000558284770525104 0.0007955724951328963 -0.0013739243266814554 -0.00016260726937166833 -0.001223304261473636 0.00021572061476192095 0.0006733490340250275 0.00010486946580087995 -0.000663561845019458 -0.0013713214172666448 0.0009623546041265503 -0.0008691112392564903 -0.0011032856894203486 0.0016581718573968798 -0.0012203235329110013 0.0010474604697245243 0.0010182992433151437 0.0007295688780052962 -0.0015651621500745866 0.0007342641136372407 -0.00016128582818362788 -0.00010849263555044444 -0.0014736568463749457 0.0011137078203618555 0.0011104567444289492 -0.00018241282646458632 -0.0013278891810933053 0.0006909490790799796 0.0009504168452456012 -0.001175197544208628 0.0008172544757844003 7.058041055761803e-05 0.0009052672229114547
去 0.0002049741397935851 -0.001010354236850567 0.00027435805515482606 -6.309254173808999e-05 0.0004243038957653495 -0.00010290049558397575 -0.0006315777385421142 4.866371610834993e-05 -0.0008940901165803208 0.0014336971035912327 0.0009333564613542365 -0.00028242112070544324 -0.0008999645377089753 -0.0005628797612660814 0.0007015171977139426 0.00048535428727702353 -0.0002738680151387209 -0.001619064970599236 -0.0002590281856683319 0.0006247844117069833 -0.0011726333819333137 -0.001348471046242342 0.0009242688541105615 -0.0014048673922269267 0.0008942174544395163 0.00033625112692049243 -0.0008613699363519256 0.0007050539461158723 0.001028836645822265 0.0011012959506379878 0.0009479153121442904 0.0015368701593151636 -0.0007522353811075128 2.9334803151276134e-05 -0.0005201550411936055 -0.00033465256522211613 0.00048656890953763644 0.001336317821741005 -0.0009657479644925881 -0.0004027147321991769 -0.00032083656724029024 0.0010613347744387789 0.0014599531959937552 0.001069935131414642 0.0006841454029809977 0.0013082956584335483 -4.6523463316693125e-05 -0.0011941011613143455 0.0006967039554422791 -0.000771067537402593 -0.00046938280028942654 -0.0009562644957881646 0.00011591550774362868 -0.00045725876859104925 0.0010773643244960985 0.00015869247963669708 0.0005172357219957125 0.0011531932775975676 -0.0006728742672372504 0.0010668600389143914 0.0014417730559042141 -0.001240218989682821 -0.0005894218203848087 -0.00027068154919945923 -0.00042785272169726255 0.0012835659352381694 0.0015713100653709214 -0.00043670171025003994 0.0003250848668604492 -0.0010931880904570983 0.0005462462333351078 -0.0012305564086068216 0.00022921800803799323 -0.0007712293259867127 -0.0013699665113993808 0.0008329994831700683 0.00013220475198988887 -7.210889439647874e-05 -0.0015703402007597876 -0.0013303973190072515 0.0006477311172501418 -0.0009473278801528144 -0.0011490396594885305 -0.0015658031705225593 0.0014132332926804164 -0.0006961109308980045 0.0015640309062817518 0.0006741084410047249 0.000485847734304328 0.0005032821164119907 0.0005854188558530538 -0.0007767104500840806 0.0014339284267807092 0.0006651878400122114 0.0001722120103419426 -0.001343471855592125 0.0008422759479583346 -0.0010729812590472745 0.00029323282746687647 -0.00038151105144864354 -1.6459789884894643e-05 0.0006928389425854139 0.0010030268365002666 0.001564446693327031 -0.000404008150127798 -0.0011102137485062072 0.001258933576622499 -0.0003430338950499738 0.0011534286649796759 0.00032343128185651323 0.00011463404536611785 7.685950849665158e-05 -0.0003781514772660935 0.0012385275747335636 0.0004901611969144468 -0.001513206913973142 -0.001340226855914478 -0.000696333516316348 -0.0006086021461195157 -0.0015661645092319388 -0.0003686323831448369 -0.00023318067637668804 -0.0001777589872883302 0.0013217000131834067 0.0014180448514866354 0.0013402518682414793 -0.0010554547439333903 -0.00021961352757881447 0.0013166400517215593 -0.001573383659066123 0.0012953986660077265 -0.000756511599658931 -0.0008834467380419308 0.0013095035388903983 -0.0013439631543564375 -0.0013902262126428483 -0.0010482542413277366 0.00037672876573396604 -0.0012938241738869659 0.0013194427831195368 -0.0012562190679661148 0.0007484395033089035 -8.64506941059527e-05 0.0015226534076845978 0.0014051219576237312 0.00026463404075651847 -0.0008630200671736242 0.0011752344316079645 0.0006992388703824348 9.647001632953448e-05 0.0007226157819574345 -0.0009280025934031663 -0.0006366500536715703 0.0011145274970478039 -0.0010977677768755523 -0.00018340382748783255 -0.0003383256055580594 -6.494442437084588e-05 -0.0005362990612115324 0.0012202299208290553 0.0015045034511558997 -0.0016452444021892564 -0.0012396188723739461 0.0009001462020848729 0.0004951607268873308 -0.0015151707474606658 -0.0013006288321739062 0.0009999792612255442 0.0012879386077582335 0.001007352017250455 -0.0005559358139624095 0.00029044559842501355 0.0006222935920152708 0.0013751552127964975 -0.0005875657837215708 -0.0010928689164842924 0.00103991561803029 0.0007221369341017388 -0.0011105213994214347 0.0014964233781429104 -0.0007450827616774781 8.058479194108094e-05 -0.00018805616322142038 0.0006723900986518865 -0.0003855396002392376 0.0012313006690032606 0.0005711238810179954 -0.0013154274178725422 -0.000534035782560753 0.0015634544359262445 0.0014214145005991697 -0.00028233518406148766 0.0011649513912240063 0.0004993883441569128 -0.0010723498464957906 -0.0009213613674759186 7.602813713018953e-05 -0.0008765906485756898 0.0005929106573891649 0.0003716996777546545 0.00013878760030825745 0.0009917935672032023 0.0015614931812170559 0.0005641424090304711 0.000707826835547946 0.0001238282150273691 -0.0011046564754838347 -0.0007417339710758896 0.0005015916473543982 -0.0010826691003743912 0.0007280960637728795 -0.0010013203748450025 0.0005151796134521528 -0.0014703295455903455 0.0008496681020207726 0.0011708031539272698 0.0001558370927980755 -0.00017967058286465985 -0.0013468317166480835 0.0012783661165479084 0.0006207576175824894 0.0009458252939298558 0.0011868158569349333 0.0010384703966408138 0.0007888136507591102 0.0015055073770756724 -0.0014902320253370083 0.0006745982786918721 0.00040667539495711807 7.284780232539447e-05 -9.828006059565641e-05 -0.000978673140930942 -0.0006614105384427226 -0.0014181308549465173 0.0007561092883379869 -0.001566550776987205 0.0009138028117548699 -0.0008334685642029887 0.0010367234322578378 -0.00019624131389432 0.0008040122157115535 -0.0014116605881065536 0.0010665226903168459 0.00028336096920442887 0.0006506432651140054 0.0013182525927982927 0.0013802194653321188 0.00013689210880280612 0.00017213862528903413 -0.00010848805083105572 0.0003699331704790468 0.0012301406331709235 -0.00034619182707662613 0.0002030340699015172 -0.00151554746114215 -0.0014327017884043344 0.0009201161331613509 0.0015008840329440046 0.0008189147907455348 0.000691207456654602 -0.0015971974635296225 -0.0006497407096965965 0.0006564532343761461 -0.00046556930191721116 0.0005659147144586357 0.0006837550095916222 0.000798335897936424 0.0010850272459261969 0.0010018745921305213 0.0013324343966519144 0.00022583994373276113 -0.0012784759415070711 -0.0014259722744836313 0.0009331960748473799 -0.0007914204039714189 -0.00013818870875833273 -0.0012078006973157385 -0.0014100501954873333 0.0002157133186075385 -0.0012099684643637747 -0.0009985255771949584 -5.98659643960758e-05 -0.0013047145312059642 0.0012577324830893035 2.4155238961830465e-05 0.00010383041392573936 -0.0004412957876195207 0.000558694232740037 0.00045007121849027765 -0.0016482982433911504 0.0014262217579221327 0.0008638581455692741 0.001144189021258965 -0.0012946034491297235 -0.0014198367519410039 0.0002169913954395645 -0.0014338933973468545 0.001454547491780957 -0.001332648300193506 -0.00012275446018270491
玩 0.000941847521280086 0.0014095899369292448 -0.0009627108664871675 -0.0008891618861826186 -0.0007177315854684086 0.0011501384238681211 -0.0007324632673673347 0.0012773706098850753 0.0014147810022617428 9.987136642942153e-05 0.00044977621282373713 -0.001620504905474277 -0.0009246314186156886 0.001084531988966459 0.0008976662101958935 -0.0014030103850341433 0.0006987336988207247 -0.0008938665093803029 -0.0014101812186461818 0.0007773066228707789 -0.0008481896518534056 -0.0014126380396616799 0.0011443590453943126 -0.0011678261000878619 0.001587027931946769 -0.0014651143182525155 -0.0006714885194729052 0.0005412624020969006 1.9035980617193766e-05 0.00010943743135748577 -0.00037134245067822703 0.00157384972113568 -0.0009359895773991476 7.208194801312387e-05 -0.00024786097925163017 0.00023420586518489231 -0.0011051888757679013 -0.00046735283211972906 -0.0014593291630555707 -0.0007490948696372024 0.001310747953401203 -0.0005891068825520867 0.0004349783163562898 -0.001657385178636487 -0.0015074140153777894 -0.00038677230145958176 0.00014847238568822831 -0.0001598414250552116 0.001305455395876909 -0.0014287336699702743 -0.0014344791326278846 0.0010023518188575695 0.0010049011775598287 -0.0006957566940940231 -0.0006809840317255589 0.0006660390878475964 0.00018857977279293994 0.0014311929578632 -0.0005131470337292516 0.0013411982861076736 0.00015971374204445845 0.00012140308322222336 -0.0011022155945791953 0.0012204431090108614 -0.0007381634928470503 -0.0003299572724921132 -0.0016490229832860157 0.0005287605393240781 -4.3012085795922485e-05 0.0008564397296574005 -1.8143393473862185e-05 0.0015043416938367534 -0.0004186224507438688 -0.0009265986816911794 3.654514817817623e-05 -0.0007611587395535866 -0.00045054527778019127 -0.00013866307001659964 -0.00038712092970121886 -0.0012637453465319478 0.00045989265650294244 0.0013075705318034267 -0.001150927940815578 -0.0006841218724425731 0.0014676917753312546 -0.0015725358767764849 0.0006257278107491514 0.0009056865673557299 -0.0012726180238805415 0.0012284724113411393 0.0010063979940980335 -0.00020433048042801488 0.0005935100268828043 0.0016043964054521837 0.0014007658648618802 0.0006499872548172508 -0.0011686044018372759 0.00024855825015438355 -0.0014044295446964446 0.0004197769752675034 -0.0003905669677690901 -0.0014637599721582832 0.0015822712198564686 -0.0012117300487162431 0.000200091670485998 -0.0003800666269337143 0.0003641337723794971 -0.0007331821187041412 -0.0009973722393999249 -0.0014321303457472427 0.0016184729840957707 -0.0003609834775325644 0.001314371449278526 -0.0004050938420071113 -0.0007392186004804172 -0.0004250325420628892 0.0002349331395630643 -0.00032299223661069363 -0.00125570981029253 0.0010941556641443566 -0.0010812533593138717 -0.0014854941792023842 0.0008512802552831394 0.001502999205862499 0.0014540691977515138 -0.0001371165364262972 0.0014654866960018059 0.00046206500037456063 0.001418875842254467 0.00062696448334103 0.0009676109798097004 0.0001845697364352592 -0.0008611435218545273 0.0013074706024433218 0.0010934864707551537 0.0006835313604209348 -0.0005245869817720718 -0.0006582433531435344 -0.00160692338564431 0.0011916877807667864 -0.0013962688817043705 0.0009679516608520371 0.0007711175528254835 0.00011510485627611345 0.0001620920444121916 -0.0013827091877726503 0.00038800230479438946 -0.001547303502472033 0.00047643404035410555 0.0005126308881583849 -0.0011862108318142345 -0.001038580134633633 -0.0016520701981427488 -0.0015996662204689268 0.0007317586188701364 -0.0003901263143225916 0.0013758425717643472 -0.0010634602939795258 0.0015994918314400568 0.00028811300578492516 -0.00021910808732431575 0.0004925418253477402 1.3239378270968473e-05 0.0014047734998361133 0.0005203671970346004 7.321883642224535e-05 0.00017216165242684076 -0.0012784586026348508 -0.0007840174060623921 0.0012582471739583856 -0.0013183271140697374 0.0003077885267014797 -0.0010934434863129811 -0.0009341021506048938 5.307549971093287e-05 -0.0012178149534000343 -0.00015473792400726432 -0.0015678096196762947 -0.0013385732209551186 0.0004819142045738429 0.0015833891302389615 -0.0016018301658464126 0.001389568028748941 0.0008236152839787024 0.0014192186227925535 -0.001425785458229269 -0.0005241313717605262 -0.0012340640032124566 0.0012212230540899944 0.0011252246147688122 0.0008743382561653864 0.0016528289021114227 0.00043961793132371195 -0.0010714749166876505 0.001653466853343915 0.00032421323378706946 9.807712195053485e-05 -0.0006622634301024416 0.0011144990865411335 -0.0009536274583796741 0.0002446109070378665 0.0003509037802478184 -8.285355044494975e-05 0.0005797183650380226 -0.0006755736617227998 0.0007634415132517101 -0.0008751062428732428 -0.00010614353802983378 0.0006527774450810479 0.0016497573505111765 -0.0012593235358684465 -0.0003103621600295191 -4.763526339328357e-05 0.0015997135865828134 -0.0006774335777326425 0.0009813495807466607 -0.0011079656360735636 -0.0012292899873757083 -0.0008914486199431656 -0.0007647235198823335 0.0004935443142671674 0.0009881872372799862 -0.0003049594148548613 9.02054191906399e-05 0.0009329729039036325 -0.0011529400785102422 -0.0003543655932511224 0.0014808875107749594 0.00017772627034450396 -0.0010102768230974537 -0.0010534935715598042 0.00010745390940257632 -0.00030391444856747534 -0.0016028059381223854 -0.0007784381316885711 0.0011209795562072537 -0.0008299095266690412 -0.0008266837241018562 -0.0011058387781241184 -0.0002585423000103883 -0.0006177000503896476 -0.0002549235386312871 0.0001529474369583494 0.001115112928988455 -0.0012568365479306753 -0.00048085971004214974 0.0016249651548038487 0.0007876677074852513 -0.0007271144241053161 0.0013402773735881688 -0.0013459935031648767 -0.0013278329158656146 0.00035497497576050043 -0.00044099408673771255 0.0009269892296509152 0.00021659950361680293 0.0013849585836294214 0.0011993477533151047 9.074288986021505e-05 -0.00016785219481792052 -0.0015214313958301564 0.0008380545104285566 0.0004062948533180599 0.0016602719469085842 0.0014186492733250023 0.0013334808495455179 0.00018256089696477607 -0.00029028428884465146 -0.0008550759842716266 0.0009561881076058904 -0.0010705681347878081 0.0005673803584144106 -0.001020953445995903 0.0011156023758391537 0.0010425143882603432 0.0007406448493649135 -0.0007984038724272833 0.0011086481123542865 -0.0010861231810907097 -0.0014692383061051496 -0.0005184949425717372 -0.0015085401289891202 0.0012993427456285446 -0.0006248329294262883 -0.0005381349099985187 0.0009359142162328139 0.0004777653096747448 -7.137672426890909e-05 -0.000659293860850542 0.0005885693429884859 0.00047628648241081423 -0.0014790491289671528 -0.0009617508873560484 -0.0003219244293082499 0.0008702422220193486 0.0010295192829349196 -0.0008321679893082432 0.000267081644704367 -0.00017876696741428723 0.00035628315326941326
我 -0.00039870216455639295 -0.001539353081371162 0.0014427732865562777 0.0005709652304582747 -0.00010859525717558396 0.001418950238887008 -0.0014073271997376085 -0.0008335229806232755 0.0003938299467349715 -0.0009519009668511666 0.0008983488786358325 -0.0002383815917067567 -0.000822359700888448 -0.0014882035285231888 0.00011378138450724037 -0.001473122727639282 -0.0005493373627290857 -0.0011059274141337384 0.00033296706135716825 0.00058669370079809 -0.0012064111198973933 0.0015367017895718284 -0.001051862372946579 0.001425336476373085 -0.00046071321952979513 0.00042485275058939194 -0.00025894068957733863 0.0009786917124234033 0.0016457018631639206 -0.0008042030848103873 -0.001582219780655377 0.0009541099227318615 -0.000766860041654065 -0.0008878221435094025 0.0006451099568615286 -0.0003749778056752573 -0.0009678297266334975 -0.0013680500776762936 -0.0006753770684889823 2.9915201437678103e-05 -0.0010568889004919607 0.00033518043466959743 0.00020223921438485438 0.0005039284443387013 -0.0014243411045006022 0.0015870794842761367 0.0014962376765550588 -0.0008117597589154058 0.000576215609491962 0.0011579091123737051 -0.0003056099191584901 0.001634308333314877 0.0006124254745310386 0.0005919234704226427 0.0009843574306521274 -0.001234790784057369 0.0005301784614559584 0.001480567305131246 0.0012799093753299757 0.0009410747288983322 3.395903958798596e-05 0.0015975013049773863 0.001202279403983083 0.0003849559445073937 -0.00038367728627235437 0.0009944548631305378 0.0015971860241652403 0.00022440264563893583 0.0011498875894523162 -0.0003116902037923193 -0.0011422603034016245 -0.0016261643166370632 0.0015287089498537997 0.0009256255799752978 0.0015764318695064593 0.0001080561996854787 -0.0010131463885429879 -0.0010615536002772641 -6.971270073118422e-05 -0.001560003720292521 -0.0006351752421450293 0.0005020296596524082 0.00027041067225844206 -0.0009137069510821924 -0.0008097306755032389 0.00040199786067777825 -0.00016798929222222418 0.0008304723906646086 0.0008826041561362044 0.001466153494858862 0.00027626781176094445 0.00020346950733300022 -0.0008780833803251254 0.001398487964131179 0.0012077158356366376 8.03727844573695e-05 0.0004964589687954846 -0.0005520275430734034 -0.0011816697654580717 -0.0013758050439979612 -0.0002934883675322442 -0.0002052177620782106 0.0003180848451620258 0.00019347827535398806 -0.0015731496085125227 -0.0008342789503172063 -0.00036585974470596644 0.0009880650882177643 -0.00010249211885247152 0.0016195156050747368 -0.0012336265920771883 0.0008591074395856034 0.00030188089158022656 0.00023322642058752814 0.0003053769308229493 -0.0014958045763958003 0.0010525011779584862 0.0013451829075675499 2.053146000550771e-05 0.0003824384454934615 -0.0009304726311832898 0.0007511642858251575 0.0005480726200797609 -0.00013035127723568787 0.00031363049812563044 0.000907637945966032 -0.001547576323863941 0.0008015835476866504 0.0009302794187057387 -0.0011539097079641407 0.0010697232306806175 0.000714612226269701 0.0015707057702594757 0.0012840895758285526 0.00047780233656344816 0.000342429588916366 0.0008692693206725241 -0.0010103333685732134 0.001340801743243594 -0.0009487578475000891 -0.00016401260562768326 0.0003379957778897587 0.0015007264100149102 6.682852394830651e-05 -0.00024165290027280332 -1.7918068539555555e-05 0.0009896190079802171 -0.000732629530897887 -0.0006216853136582642 -0.0005394616295536293 -0.0008960384684867862 -0.00022899712865771717 0.0013679845524961853 -0.0003409437211933301 -0.0012227189906893466 0.0008419754299809868 0.0014160777951785955 -0.0002888070307314303 0.0011801610353571067 -0.0015305062945020192 -0.0010566385171220218 -0.0001716730464637491 4.796834923773987e-05 -0.0007513565594936171 0.0011741515543036453 0.0011098941032839022 -0.000804016394357359 0.0015617803320480009 0.0006605118047274424 -0.001173774886616164 0.0011897512960821054 -0.00013234152891263722 -0.0005164539259727252 0.0002604457936699145 0.00043261270727089807 -0.0014259013314671177 0.0014252794020920485 0.001074361356162259 -0.0007245194218311305 0.0015075843863773953 0.0007903042472789102 7.15204875900322e-05 -0.0013201105186751855 0.0005208301353631609 0.0011913871989527546 0.000898440209195899 -0.0015920760455902263 0.0013498102079611276 -0.0011903754236811455 0.0010050796299627461 -7.914453494297768e-05 -0.0006944886911566521 -0.0008267765839701947 0.000879923037972247 0.0009905970854444718 -0.00033770843123303294 -0.000876354151741912 0.0012307885287354736 -0.0016636864847142704 -0.0015168602081123037 -0.0002433652243673701 0.0006083356012038953 -0.0014785065835594149 0.0011616536765508931 0.00016403966638239538 0.0010718408945734278 -0.0016063444090531813 -0.001664499495081226 0.0006847537238639644 -0.0004154700037377942 -1.8572580037961358e-06 0.0008519200477234651 -0.0011437218111963513 0.0006822046689533912 -0.0005176058532165683 -0.0012977527571507801 0.0012112522747367196 0.0015564244515868006 -0.00019796305215716292 0.000690557459616125 0.001477813595912682 0.00040200344600722286 -0.0016500499399558146 0.0002142645459531497 0.00021857456117443876 0.0006094337157993995 0.0011244932712738684 0.0014872665427509166 -6.956852700045618e-05 -0.00077955739910988 0.0012480857003732075 0.001647781761494533 0.001147566137249698 0.00012867260127987661 0.0008028764905368441 0.0008225574665755981 -0.00025958726686460564 0.0004733030894354124 4.119680880198032e-05 0.0004960133318089954 -0.0007476399128832564 -0.00042154968605363644 -0.0008412142076005747 -0.0013504155743268103 0.0013152870914573567 0.0006212774032893005 -0.0013891408139065594 -0.0011171285480693774 -0.0006994561175608512 -0.00014788731100962428 -0.0009626953419129029 0.001553220376883909 0.0008485356235481115 7.089409381978154e-05 0.0005677496895488087 -0.00046503797770908813 -0.0009573284735661566 2.970799064015207e-05 -0.0009836968858147606 -0.0006264915848016165 0.0009305966195029237 -0.0014371401034962024 0.000926902588435674 -0.0003085422834917951 -0.0016580101375813724 0.0009209957262602427 -0.0016518766142551286 0.0014392745275185832 -0.000730949371280872 -0.0003898236627640447 0.0012077566119950537 0.00013352647652908564 -0.001357362520825382 -0.0007566157404728321 -0.0014088926559755707 -9.03049659224239e-05 -0.00021464225026222557 -0.0007177114276203915 0.0004618275136158525 -0.0011030834650688028 -0.00038964746612292207 4.3598728172992984e-05 -0.0004911550840021122 0.0006420400874613487 0.0014940690980237991 0.0005882954636167485 0.001222758395672992 -0.001123769771463739 0.0008172968249684348 0.0013329768431788213 -0.0005658667109191299 0.0008952082218661066 -0.0011148316938116003 0.0011450937891842544 -0.001556811062312453 0.0005103286190518599 -0.0014791774203305856 -0.0004468304363841875 -0.0011036241923518993 0.0015821510311572944
想 0.000865444680516567 -0.000769622577534654 0.0010168175868638899 -0.000451204440632971 0.0003227021722830949 -0.0012437830311328674 -0.0016294935625083 -0.00040288136168743 0.0007983575443476796 0.0009846531432649163 -0.0012063329498400652 -0.0010585052869737633 -0.0013057609551924984 -0.0016405683193316722 -0.0006294413726759664 0.0007876247246204498 -0.0014572830101867577 0.001651116319223514 0.0010158830906257439 0.0012020457092566023 0.0008518635635692957 0.0010574032552801555 -0.0015299037057008081 -0.0004019967297692227 0.0012683576120194678 0.0002430879952359032 -0.0013703906648894638 -0.0015286512236438734 -0.0008620868091568514 0.0005437596199091366 -0.0015019560223008593 -0.0001256452320793115 0.0013724964755008724 -0.0011789408474883905 -0.00031255501212524564 6.405219385940967e-05 0.0003865430601810752 0.00026547449553169096 -0.0012166230346218998 0.0012710719985441585 -0.00013193869404464173 -0.00160000372880982 0.0004341359389472883 -0.00023192863151266408 -1.6358699559639754e-05 0.0003859654385687669 0.0003795744872774312 0.001233155195433959 -0.0003510033319938029 -0.00012686179045446995 -0.0011553808492963536 -0.001142767762196312 -0.0009338509586521742 0.0003724678847588876 -0.0012583461396159135 0.0013526613052017827 0.001331457290548059 -0.0007254134283563661 0.0011087408306822834 0.0014273476284287609 0.00047174502657504585 -0.0001613312581365604 0.00031473743835019473 -0.00043248600276987064 -0.0016139487046582309 -0.001384906970563879 0.0010499405748330322 -0.0011603566166945173 0.001411854082013393 -0.001258743021778709 -0.00015176072171824652 -0.0005443973652745248 0.0003205615489887992 0.0015756639976017427 0.0008976514738980909 -0.0005416516100947644 0.0004085463976930108 0.0014507082790264855 0.0008712369800235701 -0.00034696349042372056 -0.00037236214404777343 0.0012258495402798172 -0.0009431540304226788 -0.0005388633538603639 -0.0009050180061697943 -0.0006840033740350012 0.0005253631497929521 0.0004656993685277431 0.0013664945097797245 -0.00111205902112212 -0.0013949444193308573 0.00037586484001204707 0.0005909415351594129 -0.001484240781464434 0.0012879008526310116 -0.0009367758182857786 0.0006676239738146057 0.0014367839185288095 0.00035821242089389234 -0.0003034983128882009 -0.00011452928026174613 -0.0012553345623036798 0.0010432900294705023 -0.00041525930389820994 0.0016023080429487628 0.0009370203733329038 0.00108914588328179 -0.0007780578200164822 0.0012999886916759808 -0.00031648889004687883 -0.001444390461682844 -0.001113381535645613 -0.00030601458376460026 -0.0009895963549974508 0.001440961498268095 -0.0005660550885065189 -0.00020219644736132507 0.0015787665096057906 -0.0005114860313923273 0.0012857057276450434 -6.624995885087986e-05 0.00016380612476375224 0.000690478214366211 0.0005210887567724766 -0.0009964294585025754 -0.0011878884983369815 0.0007678815776969285 0.0008521011280120758 0.0015712433228271608 -0.00011696354920320143 0.0004743209778681599 -0.0009144470476703487 0.0005294920861224007 -0.0015214185545445176 0.001331029182837058 0.0007875528063268542 -0.0009070980435792851 -6.747033539940263e-05 0.0013337814752696678 0.00012859448097877636 -0.00037951298734608497 3.852357403832484e-06 0.0007096569124093824 0.0004954441328737144 0.001458029077807284 0.00015076664776861654 -0.0014065022188281396 0.0008419406714753305 -0.0001440292797974726 0.0001222044733636713 -0.0008577553200441494 -0.0007509924771590198 0.00039640100981426355 -0.0007747840065934309 0.001101221990937648 -0.0014434569890652484 -0.0012014389215366796 -0.0010087169158356304 -0.0011748008553434002 0.00047493170482366015 0.0004602473917497544 0.0016178536191401318 0.0009901192397146672 -0.00037418147775960007 -0.000787796291225641 -0.0002734267566232491 -0.0007894426620969076 -0.0016293602641016464 -0.0004287050476906504 0.0007088319053510376 -0.0015281258314710701 0.00015631844489377426 0.0007142754871294008 0.0007888541656293749 -0.0016185678789531837 0.0014441059200880975 -0.0014353366669169188 -0.0005099679398252724 0.0015605613189762745 0.000458545873137226 0.0005239104378426807 0.0003141755239992129 0.001522965705730865 2.704196907188052e-07 0.00015534575000266074 2.232077698093108e-05 -0.0002936129786859177 0.0009596328885265524 0.0006517134651881352 0.0003817419863530848 -0.0005697642404096339 0.0014632224781773355 -0.0009563353115238768 -0.00028681739573035113 0.0014167152547342745 -0.0010794493724905823 -0.0005699345948872504 -0.00036674903130597537 -0.00021386532587980864 0.00040922435932329906 0.0012499365280697412 -0.000241285561357314 0.0008559166699832892 -0.0005594985957424374 -0.0014379352681297226 -0.0006052147386304066 0.0009039655922331287 0.0012427087501634439 4.3925876868209876e-05 0.000245020678246485 0.0013581490328612947 0.0012402889865731008 -0.00013734050958361577 -0.0005992214217745031 -0.0013988673799806713 0.0013634458334148265 -0.0013284595108643445 6.6426740905672e-05 0.00042868731282930616 0.0002617510527124967 -0.0009139232404780903 -0.00143234792328692 0.0014322037997733649 0.0014113798014822219 -0.0010984722611732667 -0.00017135537131794353 0.00035741131023518896 0.0016039502416509042 -0.001361306522488052 -0.0013066116153303176 -0.0004995150126937855 0.0010521710408599126 0.001611185388966804 -0.0015281555781578664 -0.0013245737428474443 -0.0009456426118300915 -0.0010888035404124734 -0.0002164201829753077 0.0006676533122815885 0.0015679649366723523 0.0015661708330321658 0.0010214746844841567 -0.0004662412888368133 -0.0014156521604021665 -0.00040099769593618346 0.001565577427309346 0.0012466587490155491 0.0007774650968370419 -0.0008741831728269772 0.0007663679577895357 -0.0014279112352880597 0.0003772350233947602 -0.0009155407762132056 0.0011013658851501485 -0.0003724015531084572 0.000646498169077641 0.0010445391257556543 -0.0013357495155260288 0.0011741415518755488 9.576136691327444e-05 -0.0011741901022184515 0.00045739786266653316 -0.0012836798458509232 -0.0015472025991418636 0.0010556195297038396 0.0010930050978495707 0.000789690802061454 -0.00034389241287083463 -0.0008478288134330583 0.0012216022213103878 -0.001274039065533514 0.001321973812576841 0.0012090488379499103 0.0008977024757226375 0.0003660026146818071 -0.0008829395764983474 0.0016514630099786084 -0.000717797159203268 -0.0006625141084010341 -0.00019649837289780262 0.0009758515710571551 0.00028685318771889235 0.0010595583874212489 -0.0014142371340824958 0.0015827849876361667 0.00128951839436998 -0.0007851924999962468 0.001549649925499458 -0.00044628953736200607 0.0009639451516334771 -0.0006003902313600193 0.0011211085916480823 0.0007322525762630595 -0.0006753069414975745 -0.0009412543562488545 0.0002918497482949096 0.000500070290414002 0.0009355719038431551 0.001033261186354727 0.0015911286659879625
要不要 0.0013198809474271019 -0.0013202010982093719 0.0002789883568712243 0.0007219305153718493 0.0008723422600814931 0.0009670387169922173 -0.0009095193348236468 -0.0009627828219221667 -0.0004277173137258624 -0.00018713519666640812 -0.0010350698122609228 0.0013239121577528457 0.0011590311604962194 0.0009642825821457988 -0.0005165061581465293 -0.0005103484875340152 -0.0001471722928834406 -0.0001204938698779631 0.0001786691141191815 -0.0014493079565451818 0.0006058547751820722 0.00024496240681292215 0.00044692565568230097 -0.0016300085247456294 0.0014528661805605588 0.0007903033977200837 -0.0012595091517794905 -0.00016723760021991068 -0.0008393255279241466 0.0015294820232026832 -8.990587974334604e-05 -0.000237336372328422 9.44883991699466e-05 0.0015173436382730663 0.0003149489449459592 8.414933981500339e-05 0.0011418316597229567 0.0007670736380627813 -3.646623870757343e-05 0.0013664429778492565 -0.00012168500368214084 -0.00040412793337776093 0.0008381263154853407 -0.0015274683949504343 0.0007946627410518003 -0.0005802199461368863 0.000259303730521002 0.001514565642409874 -0.0012110467711688266 0.00111276550130784 0.0013901999834513047 -0.0016420446493520895 0.0003980864946137087 -0.0012876474853099605 0.0014454914758426825 -0.0015923587384694363 0.0013560092022431014 -0.0006185705209676395 0.001376735613037656 -0.001226835043515721 -0.001578794275602062 -0.0011434892725128007 -0.0005082282918212466 -0.0008162419903074757 0.0013233242457517827 -0.001576830861222382 0.00011671194939930372 -0.000784785529448659 -0.00021434245684175362 0.0013575443257033124 0.0005950843362534062 0.0011278472626846383 -0.0006167430743500421 0.0011155150126311232 -1.1040254578486387e-05 0.0010148170190433636 0.0010710078684946418 0.0003165889437284966 -0.0006986878115968781 -0.0002813321651796185 0.0012481053166821057 -0.0012735429107949329 -0.0002769225986169046 0.0007428855632406898 0.0011661386011512659 -0.0003674443182554399 0.0007883701819795495 0.0008081782555426246 0.0011146489609533893 0.0007724197218113118 -0.001610876402779241 0.0009786032518382109 0.0008645344620538977 -8.186656074551688e-05 -5.190741023780549e-05 -0.00145964497626277 0.0007204715645941082 -0.0005385731039685547 -0.0015132187191756723 -0.00020460767391341882 8.088955801045547e-05 0.0011973354423620993 -0.00013702790949339007 -0.0014153524434135794 0.001285090536461995 -0.0002258768722644162 0.0012994438192735324 0.00114702572703126 0.0013020109260582886 0.0013301551736839103 -0.0013245481696110284 -0.001314482969985214 -0.0016515921931636718 0.0013024139800647293 -0.00040128824110634254 -0.0003712181099757294 -0.0007423917043797628 -0.0002501483716654782 0.0003156021886524661 -0.0002254422855150687 0.0014600218323330679 -9.610847750963881e-05 -0.00022683301035999047 -0.0009247416117257512 -0.00017501025241834512 0.0004142847664424874 0.0005681013845988677 -0.0004204497367669978 -0.0006428310005802058 -8.41149079119134e-06 0.000293534579072939 -0.0012700943146322513 0.0005616101386209021 -0.0010175862283322717 0.0014331719021551381 0.0008287463991937184 0.000361673630112118 0.0001874785536762188 0.001195315638251065 -0.0009192741429991029 -0.0014236406731128139 0.0011338149154885182 -0.0009598994384507614 -0.0015986926045325552 -0.00043826852335765703 0.0009620353356327893 -0.0009644803962122714 -0.0012358577760768683 -4.5503425871698266e-05 0.0013073372339281607 -0.0014249753719017886 0.0002288729863602942 -0.0005728750821525093 0.0007955702556663828 -0.001420569205113031 -0.0013894213067091143 0.0005195414699140712 -0.0008501547507583013 -0.0008448714959224229 -0.000293315537486217 0.0011940678315398474 -0.0004870692736424161 -0.0012118974491671134 0.0005873693347400792 0.0014885786068295484 -0.0012455373529575184 0.0005524318581301558 -5.114521513538025e-05 0.0012639571558035916 -0.0010827577152450708 -0.0015237283223345026 0.00015855004067130625 -0.0015980088343782808 0.00056969021742932 0.001584000295354971 -0.0014772562824887773 -0.0012922698480680498 -0.0001735330900481438 0.00032838591301205034 -0.0003367641466691581 0.0011251462784582838 -0.0006469405096259144 0.0009618214456862947 -0.0011431772682458875 -0.00010823730839631711 0.0010255305669983044 0.0012485550768888299 -0.001514950760473974 0.001205954145219021 0.0012531640909611468 -0.00042995831155233594 -0.0015160359558241666 -0.0003314841892141401 0.0013690389516473184 -0.00038047128100392657 0.0011546539946421272 0.00020322676122444744 -0.0002231906138905379 -0.0006302360621362949 -0.001214780595140862 -0.0016555987134623756 -6.204814791772054e-05 0.000736454392169816 -0.0010655889806919904 -0.0009908902777865714 0.0004886462832322119 -0.0002488806386275856 -0.0014562034925568342 0.0010618992136335118 -0.0010174147618722893 -0.0006655404211105367 0.00030129169696709723 0.0008709973790261877 -0.0007352029742769527 -0.00028019799834887616 -0.0013009708707141488 -0.0013611233137630376 0.0011976171922319125 0.001491198038646613 2.2275313144221548e-05 -0.0015695457304493606 0.001353475988026274 -0.0008453222638379422 -0.0015411415887698445 -0.001123178765219085 0.0009970562092399102 -0.0002318108321670385 0.0015407918150318828 0.000984455138510872 0.0003249644332633092 -0.001595651050277889 -0.0007350840214067879 0.00021028384559962883 0.001295701619672016 0.00016922388673649066 -0.0004526858559849429 -0.0016377042350102433 0.0008453402877545352 0.0011154255787811812 0.00042240017548016606 0.0013347592985723492 -0.0007330589138319218 -5.8730993241898025e-05 0.0011518795735713401 0.0013084755315970525 -0.0013284431160068134 0.0016297754566773617 0.00013575515212725246 0.0013765344655367836 -0.0007458092826544106 0.000859627241899178 -0.0011441693345999693 -0.0013720036356890044 -0.0008192160498650815 -0.0008286375787379209 0.0015695359472541724 6.822850203233272e-05 0.0002636242394289543 0.0014496443733877165 0.0012133595978003249 -0.000106524477520182 0.0003492614265974136 0.0007530452470497372 -0.0001221409233142803 0.0004153911176595909 0.00045886577250035923 0.00022991147698202174 -0.00037822807038804835 -0.001006856130292265 -0.0013903488207913741 -0.0010816157135585104 0.0014695091211912887 -0.0012957790689651825 0.00136940934850135 -0.0006760368174740093 0.0012456031669026307 0.0008687859118303499 -9.46146789211964e-05 0.0006198928684911939 6.656070524247409e-05 0.001077766116879916 -0.0011669006959334654 -0.00018795925398190131 -0.0015198092975689077 1.8906226010556243e-05 -0.0008955408089946713 -0.0016119710604551134 0.0010292845103323574 0.0011371799268150512 0.0012303480224061995 0.0006367311715451467 0.000249346904701216 -0.0002876930674333132 -0.0003083746230791581 0.00015662114985769452 0.0012160323464444841 -0.0014405546508711648 0.00030784870207964306 -5.8722251190880567e-05 0.0001094480186190302
旅游 0.000888754999275854 0.00031696124524429356 0.0011310719607315444 0.0008412829659454846 0.0007304257378894462 -0.0008552599870600626 0.0015041975414010092 0.001461509774588449 -0.0003456499612026024 0.00086105669706476 -0.00011223255716778811 -0.0008466257120843787 -0.0001209196116996816 0.0004745022929892935 0.0016503034862731466 -0.0005513399115878709 -0.001023582599472414 -0.0010220562798986033 0.0016369898117675064 0.0006775786701028135 -0.0010808509291847684 -0.00021710422862371303 -0.001084788386910669 0.00016300243502843657 0.001663066482129279 0.0009157088123416048 -0.0007941880621520685 -0.0009204862620438719 -0.0009260744903319236 -0.00013727597368930376 -0.00014177344124361645 -0.0005031282357242192 -0.0014296146794070769 -0.0006655462579492259 0.0009869382683246222 0.000335943315630442 0.001024919079925079 0.00023886837482255908 -0.0013330219100896922 0.0013850812626699594 -0.0014160168093953437 -0.00016588404038971987 -0.0005208404357880432 -1.0966982971251047e-06 0.001138974773130879 -0.0008991387309339101 -0.0009580064990744029 -0.0015296317948626298 0.0003791824012712101 -0.0002298542928677129 -0.00036722516462135154 -0.00044218284934346904 -0.0011261888504000576 -0.0009838408499222488 -0.0007122716405985348 -0.001487898777704933 -0.0010190940907009428 0.0001004696901505025 -0.00161734573396317 -0.0008770012767561827 -0.0016637821379561163 0.0007171515765506963 0.0004965008060775313 4.7984972314991426e-05 -0.00035646157938319173 -0.001268302468462373 0.0012217271315324207 0.0006944995405590617 0.0002729254138563888 -0.0009086383882457683 0.00023405556721772255 -0.0012243459055599534 0.0014105268194861329 0.000783626639109223 -0.0006431280317543151 0.0006712859391316733 0.001168546768204303 0.0014575632209580527 -0.001643135555926906 4.356525964062956e-05 0.00040674479124324633 -0.0009976267140228234 -9.378961193907117e-05 0.0007558561824106692 -0.000996101283651125 0.000186673683264367 -0.0012150644511614139 -0.0005510127579049169 0.0009839929542090017 0.0007211942466481886 -0.001296662166306218 -0.0012043833648545013 -0.001157318267861362 0.0011894015245457192 -0.0015964109900078562 0.0007750300364192826 0.0005441390794197331 0.0015868805047289114 0.0008963445960836986 -0.00024324649806418188 -0.0007266287713197352 0.001522799809384493 -0.0005548786742257499 0.0001977725719710222 -0.0004480395029876161 -0.00131968775249675 -0.0006273603075987812 0.0012573972189745776 2.2888584259126758e-05 0.0001487223909275613 -0.0006751559817890097 -0.0004442495939211742 -0.00018844800211539667 -1.9190104191273025e-05 -0.0007884090847177995 -0.001016134468596842 0.0016295269007356855 0.0015972396720474367 0.0011402676401596474 -0.0008869636029704561 -0.0014320567547886271 -0.0015832181828109308 0.00030324608417563593 0.0012290971256421486 -0.0015673336636530231 -0.00037746987095083404 -0.0003772220835822427 -0.0007148167268786743 0.0014583228794487408 -0.0012467579749523728 0.0016462697813496652 -0.0003879331078553926 -0.0015890536611545194 -0.0008813675384156892 -0.0008290582052850802 0.0010444598583468864 0.0006643421567166934 -0.001158167587110195 0.0008148549439507975 0.0012375203869589928 0.0013404520000521347 0.00039156763794977883 -0.0005926265539436538 -0.0013879314198922982 -0.000236585455097801 8.272270226339685e-05 -0.0003203285377751377 -0.0011956160528285586 -0.0005446989483496233 0.0009255695033270396 -0.0009192396693552918 0.0005307105039716644 0.00019595665602369062 0.001174225570067426 -0.0007810436496163085 6.816267613528569e-05 0.00039195533490468833 0.001619351807163074 -0.0010175779538559124 -0.0003419436740549677 -0.0002908759585589425 0.0012804961964838324 0.0009185868923664442 0.0014576337099920242 0.0010034517100040359 -0.0007868544751168015 0.0004802864314136114 0.0015855381007386406 -0.00010460293709479914 -0.0009214734518179623 0.00012666973151152853 -0.0010136893407225675 0.0008519928324850677 0.0010489678299729149 -0.0006509356412917908 -0.0003279697947513623 -0.0011833434248071765 -0.00044120822226321435 0.0013951040334173718 0.00019093995217013782 0.0006166990332431716 -0.0004691424575077834 -0.001458240749168252 -1.5234454267887804e-05 -0.0006333601793535239 0.0006332313691748406 0.0007665756222289189 0.0005491788959508143 -0.0009424614010423065 -0.0008050939879158946 -0.001232398040382778 0.0007683755945220578 -0.0005218229758373645 0.0015237697413054841 0.001214488224499314 0.0008818360925485214 0.0003499099849410806 -0.0005718265868232081 0.0009468437302435922 -0.0009904092794700196 0.0002506058518158617 8.446173066258755e-05 0.0003252582126693104 -0.0008117033725518951 -0.001633300750192104 -0.0015886417715446554 -0.0006997746739964912 -0.0004872589399199272 0.001367154300033245 0.001495940934510057 -0.0013563643378179367 6.329350343185022e-07 -0.001227002397762744 -0.0002175028550287034 0.0006918973221720205 0.0008531134768897216 0.0007255399068411404 -0.0004713599892052497 0.001268960432264552 -0.000674802463315 -0.0012344590075217563 -0.0011134474347234509 -0.001550881820322539 -0.0006991716125816481 -0.00016116031468529088 0.0005369090601614981 -0.0013578259751114037 0.0015895930581378756 0.0003838651202761659 -0.0012852166693103533 -6.49853692718209e-05 0.00023024462748353011 -0.000280738461006863 0.001586023424861452 0.0006456734909613743 -0.0015517612394075303 -0.00164214680994742 -0.0009264893579415224 -0.0009371949331224294 -0.0008867611205300971 -0.0005281295301531494 0.0012707953242974072 -0.0011718537736119178 -0.0005763776851699726 0.0005727418132143693 -0.0007541965419809714 0.0006519832403059793 -0.0003990929795872078 -0.0016392711909647968 0.0011474411755496847 0.001209268957736461 0.001570258488719226 -0.001375794513792372 0.0015515998650788144 0.00023881432701607265 -0.0011760080910718273 0.0002986850589294309 -0.0005828363716612901 0.0007057831414127384 -9.904915213799391e-06 -0.0016256818648395985 0.00048226082082692296 -6.541713924679865e-05 0.001020909213824427 -0.0009830776463997694 0.0003575037843013219 -0.0012861407382233267 -0.0004917026493410916 0.0013787498209903975 -0.0008345917220989263 0.0014288297489029275 0.00038878368508792917 0.0003192652900704546 0.001530516723064143 -0.0011404382353406173 0.001405396322891413 0.0011348741698542363 0.000246631020253329 0.0010906095592492086 -3.40565168795159e-05 -0.00014830696022524045 -0.0005589634220849498 -0.0002949513949594057 -0.0014583456478355307 0.0013880896341017118 -0.0015191354144994213 0.00033893137869330084 -0.00022420354757053115 -4.485375206889946e-05 -0.00038000549146966476 -0.000681958400483469 0.000977725813439017 0.0015142258907486386 2.8316223117717e-05 0.0001929844133940656 -0.0005152567159408646 0.0010564292051690209 -3.020007994083711e-05 -0.0007501973070408603 0.0009108605822135989
数学之美 0.0013890216074881443 0.0005497958443989575 -0.00029575009944372296 -0.0014866536677913798 0.00013640015791541112 -0.0006559687392710378 -0.00036349852644609713 -9.909897765084164e-05 0.0009428677392644354 -0.0010625426964122864 -0.00016869545899866805 0.0016440487559265344 -0.0007035122973540853 0.0007583760553795876 1.1591893990022354e-05 -0.0011258150751990291 0.001147294426249964 -0.0014336866358142227 0.001425262694645894 0.0003954436047735261 -0.0003640263365338431 -0.0015305868709491266 -0.00037376804804219643 0.0008923765254057557 -0.0007691961323398645 0.0013457509381877843 -0.0013917937280841079 0.00030612521126245867 -0.0010356679973511365 -0.0013231411115131085 0.0014488210141420466 -0.0006381610899537727 0.0011220992024381362 0.00032258947938712665 0.0014702458438470034 0.0011533694778221302 -3.8596502916516437e-05 0.001264168558886029 5.5315016638063304e-05 -4.837238241560876e-05 -0.0006216818817169616 0.0016002235265939252 0.0015971014191489832 -0.0004431727455936322 0.000250642678573921 0.001079200883180468 -0.000717077717464703 -0.0004042370148088664 0.0012145057795617208 0.0013736783631264112 -0.0011929682767909471 -0.0012968472522389967 -0.0003669580213578703 -0.001459475745566538 -0.0010511719347529643 4.087696777840854e-05 -0.0005674670575495154 0.00028590779858064525 0.00038613104333756304 0.0004599504637403019 -0.00032358665643330946 -0.0012483055462385387 0.0005564000709829663 0.00039116872305017513 -0.0006737890150171748 0.0008150437601265579 -0.0016391042515071011 0.00025279790357417086 -9.974328883940248e-05 -0.0011774759268265978 -0.0002766912855233569 0.0003567361617233228 -0.0010541448013618414 -0.0009605359418276034 0.0008455058265070392 -0.0012751265214393404 -0.0014567883078658835 -0.0003703626691606794 0.0009176934394903543 0.000718240683190129 -0.0006392926002299976 -0.0012263774368892516 -0.0009973211501814907 -0.0003001417135668761 0.00028744204415869445 0.0006344643163737606 0.0015629148364100444 -0.0010742664172877178 0.000310403603750611 0.0010248839106903633 0.0007402841168853717 0.0010426635336935723 0.0016405967349359966 -0.0008141916405768169 0.0015823861892152878 -0.0011674905289859741 -0.0004773977894948888 0.0003859582281228237 -0.0005399144068674645 0.0012733931243568625 -0.001013579521512597 4.3332104136536455e-05 -0.0013969181379143917 0.0015585585847354949 -0.0008858803166150723 -0.00032318825246269867 -0.000884577663222195 -0.0012583936476306178 -0.00040762869178202527 0.0013403519255053176 0.000715793719150573 0.0014236062238688237 0.00013679592239971728 -0.0012092598272351127 -0.0009586612622927433 -0.0007634396297242642 0.0004875963492505188 0.0007228576832743011 0.00010204160231673869 -0.00042943061403952416 -0.0002333963060091193 -0.00030383551744900863 0.0006990230256795564 0.0014153158871841164 0.0010426776441696472 -0.0016462209454159485 -0.0007260566656532611 -0.0013250921621513324 -0.0015158782850462418 0.00016493933620599806 -0.0009711932767276807 -0.0016440800170645258 -0.0014511791013970005 -0.0013230854990464664 0.0011783186161266872 -0.000826810923049969 0.0015053130715872137 0.0004755247349301991 9.433105581699719e-05 -0.0005663051860668492 -0.0008267147311818537 -0.0008465575526876005 -0.000689595297109815 -0.00039339619622746403 0.0013363775710339917 -0.0002457960297742201 0.0014603586464887752 0.00030959415861911367 -0.0006162936648037185 -0.00010691575997610261 -0.0009398775596472139 0.0011767637705467158 0.0007487328607459484 0.0005687016641629184 -0.0006871613846599344 5.757068749931924e-06 -0.0006113682068519829 0.001207578801653898 0.0016446800217684617 0.0001347076552537525 -0.00016507922229558455 0.0006311460236998164 0.0016577055043813277 -0.0012974012146879025 0.00044014016632933805 -0.001169681877370088 0.001252796510653656 0.0008700951199055168 0.00148245691839341 -0.0011228059331044847 -0.0009942663275537731 -0.0005042584249661567 0.0014013583808624417 0.0009353749300184659 -0.0015664285391702188 -0.0010355301236608387 -0.000822157748098846 0.0002754040991204003 -0.000288463094322662 -0.000855181058793271 -0.0007932619629991293 0.001403942325063652 0.00044913445742398586 0.0003422038665598742 -0.00010769563085006143 -0.0011397064294874039 0.0016100502620477039 0.0010835416733415495 -0.00036334132987323397 -0.0014836863477154147 -0.0014154637965469135 -0.0005177068330945792 -0.001388681816191373 0.0015614992482160437 0.0013764232672041651 0.0016378602053713368 0.0005628718081082785 7.604742058019612e-05 0.001458530060251317 -0.0005087791712023804 0.0008379593483271245 0.0006817967867521159 0.0013187948598692616 -0.001144960431353865 0.0007155290002498214 -0.000981104549455951 0.0016220906425582203 -0.0007498799341269061 0.00030106189745016424 -0.0004450392312943594 0.0008792643402102354 -0.0011633399997184604 -0.0012133138919316958 0.0009336770002259231 0.0005648857711451792 0.0010361553900364246 0.0006304020201072271 0.0007421494235867588 -0.0008533355442079057 -0.0008006169389864167 -0.0014643406224986997 -0.0009695040925003539 -0.001489266343311037 4.2701743049817005e-05 -0.000237847528326278 0.00058619908213712 -0.0006739271166848028 -0.00136679726860622 0.0010773677619471235 -0.0016338667205717215 -0.0004744399197233609 -0.001110090799484742 0.00020681376004067582 0.0016264878435028097 0.00016443349236917973 -0.00019382279512834312 0.0006056084608624788 0.0016375358392428509 0.0007719999503831421 0.0005100673126949299 0.0007551861645975682 -0.0012272969571853305 0.00023266193829101696 0.0005596344310845614 0.00047519316729376895 0.001494041063294865 0.00021507237936624931 0.0012305945997162374 0.0013942315303355271 -0.0012950076744264985 0.0006980398320649709 0.0012552227499672403 0.0007105199056574186 -0.0003405896621711054 0.0013686550102146602 -2.5830050168528564e-06 0.00026114784706574815 -0.0014984639411663176 0.0008484274680571734 2.9704760952731456e-05 0.0009320751350204184 -0.0004396189902927605 -0.001616311577268395 -0.00044150667604470555 0.0013063674227101975 0.0004710957843088987 0.0005897857886863145 -0.0013869851108507492 -0.0008691032794032714 0.0008791179283805206 -0.0004656705218499191 -0.000690313685914338 0.0012812423810117978 0.0013313764312843375 -1.3210070632561287e-05 -6.161889288438313e-05 0.001609443223655274 -0.00014251425509843413 0.0011410202878588366 -0.0007204030738499611 4.1605248516723624e-05 -0.0012732250834012692 -0.0013184753594816326 0.001439424729991001 0.0014032423152463844 0.000539692086484399 -0.0009342561644709798 0.0015090840994147106 0.0014859332586279086 -0.0007612936381481618 -0.0016319584900861216 0.001527147325570253 -0.00048054191292093396 0.0010644645194616998 0.0013971887901564383 0.0008332917486319286 0.00044928132423781666 -0.0010509001360173547 0.000591182162973505 0.0009358545173589366
是 0.001287563226282662 0.0013487214766628314 -0.0001578243364154473 0.0008014017411126746 -0.000908171616857842 0.0008419766169554956 0.0007260089780825391 -0.0012360433730342192 0.0011203319444703702 0.0014734080279849373 -0.0015470363881839595 -0.0007947898174210895 0.0014772502656699037 -0.0010327932414251357 -0.0004093759077260064 -0.000516050825466856 -0.001051182225684764 -0.001142589961647014 0.0010998085559313477 -1.3800211613472332e-05 -0.0012377426514775156 0.000818646503807439 0.0004407962728922394 0.0008502963184850217 -0.000789727544007917 -0.0008904930767066271 -0.0010860401567368198 0.001001351875808208 -0.0005971142944071568 0.001533985123061953 0.0009520723914155443 -0.0002601254093807722 0.0016664166482789457 0.0013771917111679067 -0.0014664454771263714 0.0005902574871090781 -0.0011169713703527082 -0.0008889920963606444 0.0010165254049589306 -0.0009596339443262124 -0.0011324801537860331 0.0008293483021410497 0.0010237310391057195 0.0012880200720718673 0.00011890673684013252 0.00014771764065005022 0.0005260511458628349 -0.0014160853240842348 0.0002843244325407633 -5.240701811287504e-05 -0.00035703855526711387 -0.0011990640614563772 -0.00039797527243258686 -0.001419828248233409 0.00042556810867690474 0.0008600034483826839 -0.0015197214739845787 0.000597275564890385 -0.00046868611965665563 0.0003709007082536504 -5.803341624430125e-05 -0.000726459763502157 -0.0007800737013839105 0.001003084151442419 0.0010773356277278326 -9.581936719653267e-05 -0.0010475886672601795 -0.0010361327857159302 0.0008932742786924533 -0.00023939330231344749 -0.0005429806167910527 -0.0013861922223908326 4.215038344261296e-05 0.0004176348030613477 -0.0006335804005945579 -0.0008520559501779564 0.00036153825588186074 0.0009739918978225375 0.0003403851692823787 -4.440745918713547e-05 0.00020064607929182253 0.0015785572919704044 -0.001428357293217497 0.00016084486818621557 0.0013886669515556784 0.0007503025316020535 -0.0002805676606154434 0.0005019245080118387 0.0015342127911366693 -0.0006893558140409835 -0.0009379671652581627 -0.0010826679702642644 0.0015472342568072684 -0.0011418535597147123 -4.0188781211515565e-06 0.0009844619849496046 -0.0012961712181402683 1.5227360041806792e-05 0.0010992598750579907 0.0008693277524996178 -0.00025430216337264574 -0.0012624964740372614 -0.00032735007755681434 -0.000648838513077702 0.0014554972896288865 -0.0013971528208501928 -0.0009801448691718149 -0.0006937292163636813 -0.001333276648153092 0.0005467608457886085 -0.0007062823554711691 -0.0005859483551889025 0.0010097909290346329 -0.0015476608650249134 -4.286201512460084e-05 -0.000427044824825905 -0.000970692563592801 -0.0008294244490002352 -4.0645027884961146e-05 -0.0008858380276176002 -1.0874625188612944e-05 0.0006807815094909822 -0.000116808942298505 0.0002594596489241308 -0.001615781429703351 0.0013606679778895366 -0.0010998643769745645 0.0005631985462498306 -0.00016819470451523715 0.001244427812097068 0.001629573943692711 0.001172571408169107 -0.0003182803830359231 -0.0011218970515137362 0.00045603838843293276 -0.0014979150221153795 0.0016636756279979762 -0.0006820967193213887 -0.0001546527308048901 -0.0010748963247009845 -0.0007486871329182963 0.0008884241194977115 -0.00023887727750634017 -0.001208827380165275 0.0012667482042746697 -0.0007136406546768923 -0.00029645621094389924 -0.0004989698549545754 0.001099638697160953 -0.00019116243767186095 -0.0010603343393125058 0.00010188915540752862 -5.8949465819277907e-05 3.0155045232522038e-05 0.00106578118625412 -0.0015331806881453906 0.000924472307663858 -0.0001444069166862332 0.0010148219105999084 -0.0004802325232499837 0.0011254505786475793 0.00033464991790087544 -0.0009622726099494141 0.0005983163501776801 0.00018946395740542562 0.0007721815538961306 0.00032019297791041623 -0.0004038299822670704 -0.00014197910300438034 -0.00037881335344988414 -0.001320881737310427 -2.86925468493593e-05 -0.0006505718478798059 0.0008590710211675437 0.00025590400578198486 -0.0008419571343482628 -0.0005932115739652328 -0.0011030485124706735 -0.0010453862921600751 0.0002712552325800801 0.0007167028540230103 0.00019737304351817917 7.491055057342177e-05 -0.0001748243317999136 0.0007466411582743715 0.00018519328176249674 0.0015537764311859264 0.0015473684419380605 0.0007098786261185295 -4.905525432903449e-05 0.0015521188484002462 0.0004739423071958353 0.0011934925735719388 0.0012360598151132131 0.0015044040611298525 0.00012612127861351971 0.0008150407462602997 0.0015817132028250727 -0.0009161905303540259 -0.0009610563547290263 -0.0010131441725956256 0.0007472489064356448 0.000618790060836193 -0.001301676478826384 -0.0003987055712326715 -3.3249469397959995e-05 -0.0007583203638160448 0.0005421731312162296 0.00022099997585075284 0.0016638848932446517 -0.000871006071972616 0.0010343861020741506 0.0001246318823006752 6.635637075650757e-05 0.0007274242579773815 8.567521527917786e-05 -0.0008241316866170646 -0.001342921495995281 0.0013752902051471874 0.0005397780814338504 -0.0014009823258179128 -0.001448779216028333 -0.0004647612053086782 -0.0013299493972191005 0.00037180495895889194 -0.0007109839539496786 0.0014538406724134516 0.0002692600973407388 -0.0010091649345263655 -4.9087924483075935e-05 0.001377407291793827 0.0007324065593825769 0.0007274863576369877 1.3356618661177989e-05 -0.0010769803016202938 0.0012451917669839504 0.0010494128827106238 -0.00010595626671703644 -0.001182191928227941 0.0015388904227388019 0.00104854291901008 -6.929352282788636e-05 0.001139859379068195 -0.0002219750850584993 0.00023398140899062275 0.000982212712337484 0.0012601643577441323 -0.0014666020356469993 0.00029133772328660825 0.0010637901365498155 0.0004667548728866027 0.00023413133949544223 0.0008311929395057248 0.0012160461003715066 -0.0011458263040956844 0.0013793562463741268 -0.00018091690160460279 0.0006442384785372529 0.0006689336268670679 0.0016289647177521749 0.001178294607510958 -0.0016659865653998707 0.0011032627778864582 -0.0009842412753138425 0.0013771521346120058 0.00014166352216600232 0.00043350287535742093 0.0014287992824279212 0.0015075951018998029 -0.00044854955629988747 -0.0014070535120136011 0.0006460791542608891 0.0011084672382159733 0.0005205439753489081 -0.0008676885798321806 -0.00031014634605206013 -0.00046649254017196677 -0.0011373122458992104 -0.000666804510290149 -0.00014587749022828704 0.00022293041975860866 -0.0009721578844400691 0.0011386837797415115 -0.0005509062089648831 -0.0006665442100402501 -0.0008988901381292195 -0.0014103704936283838 -0.000769059925193522 0.0009252612009763866 0.0003846094403425585 -0.00046023240401448764 -0.0013778110053530004 0.0011939347952187717 -5.870905305884093e-05 -0.0003079535968985441 0.0010043818852065623 0.00042627982706244403 0.000569875797977392 -0.0012707914951480856 0.0009462785749519923
一本 0.0015477951184164102 0.0016547757990433246 0.0015234538658896095 0.0013396525950563293 0.000292176212389834 0.0009839217168002418 0.0012236992638866772 -0.0013618633282266497 -0.0003364178697372019 0.001299325125951495 0.0011726743159218764 -0.0005675257028147278 -0.00039283400040161803 0.000256215428597281 -0.0004802132674691631 -0.001333613977478387 0.0016016488896212393 0.0010458108864756126 -0.0014515912042880952 0.0012526174831508417 0.0009138513658844216 -0.001576504864727279 -0.0007567108867929011 -0.0005143027729621717 0.0015521169805705359 -0.00019071086383900952 -0.00023944668679392133 0.001553191649629094 0.0010851284183460517 -0.00017537150124087507 0.0010908156591930426 -0.0007893976270517183 0.0010678527151893223 -0.0007131942311155166 -8.230913068835277e-05 0.0015567405519945501 0.000985498618351497 -0.0005736273566823275 -0.00015297148257118528 0.0010430112864773312 0.0008318834817103388 -0.0013609831555433161 -0.000849821137942025 0.0008958004056986099 -0.0011072746178682413 0.0010630118814180176 -0.0005527341576339562 0.00045730577214086955 -0.00039104985092360044 -0.00019481795109412857 -0.0014633980510581506 0.0005040070466892947 0.0012877882623217951 0.00026104262609561753 7.925380879948926e-05 -0.0006262215566605077 0.0006230735786051963 -0.00011825749123945401 -0.0012467935119300343 -0.0005140921166096599 -0.0012391665145512986 -0.0008775812454050512 0.0005606603063040913 0.001342717380043869 0.0010736330559027651 0.0008246272392049439 0.0016419707494987187 -0.0016487064537388334 0.0008140348528968932 0.0012016391404898747 0.0006685037361463622 -0.00015432230551929116 0.0006637908808693858 -0.001114171655647545 -0.0007287360312414126 -0.0005934920973351789 0.0009097165038250961 0.00029770287685109174 0.001576213502853701 -0.00045939391632248593 0.0006058241564489793 -0.0010303625855084119 0.00011049997418261289 0.00016752742771531284 0.00047638768593966964 -0.0006519940629566215 -0.0014386920614842067 -0.0006249221387207692 -0.0016539931710626667 0.0006518754704775136 0.0013605596737825269 0.0010551450822517173 -0.0005496507242048999 0.0009686178367088404 -0.0003207403391608657 0.0008777257320921726 -0.0004733041374361518 0.0007124049636617227 0.001014808395799817 -0.0008670553497042489 -0.0013766359019027495 -0.0011825883185094448 0.00032739232682349787 0.001622778303725392 -0.0009067081484214042 -0.0005975622112174645 -0.00033291827709183507 -0.000665939306732619 -0.00011997165382205929 0.0011108927355763995 0.0005363435632921967 5.553848242088668e-05 0.00016871835504075655 -0.0013153677379247344 0.00024499826303621105 0.0011605750709328818 -0.001446630644515071 -0.0016091921456398831 -0.00027979549763605877 0.0012673778097433113 0.0012191245367245839 0.0009422287784406229 -0.0006179700064939428 -0.00011938079341679136 -0.0011761392678776175 0.0009000295847266206 0.00020789118863713516 0.0011534905130348991 0.0002464742283964282 -0.0010499331486329864 -0.0013341596875138012 -0.0013437900522459223 -0.0004978126347540706 -0.0013117199366117827 0.00047083794499128536 0.0009736342910650958 -0.0009764836264807662 -0.0004323344094290945 0.00039317113935369183 -0.0009851676068001836 0.0005403025063776137 0.0007606334761267718 0.0005863934136682272 0.0008711631647193593 0.0009091508082243699 -0.000592757304707308 0.0012198367477604848 -4.1191038748818586e-05 0.0004648393657225594 -0.0013193057264700959 -0.0006064120262072586 -0.000986926700429775 0.0005377682213991074 -0.000928504192364272 0.0014288167761999308 0.0008092534211741397 0.0016581738686647167 0.0007476212744858474 -0.0009553495439915435 0.0011483135532770583 -0.0005044484080836473 0.0006831702748595985 -0.0013486184429205563 -4.191212435561155e-05 -0.0009465153100608809 0.0016590085924384616 0.0015493226965811035 0.001095097306701752 -0.0010056589270503989 0.00041943300806332457 6.704082766028722e-05 0.0013610674134895261 -0.0014338120181461558 -0.0010997587948909377 -0.001465163422851854 -3.007688781834344e-05 -0.0010762487974464879 0.0008489190824952369 -0.0009334524714739396 -0.0014380843869149277 -0.0005437619229942354 0.0012566578621970128 -0.0011604973177721867 0.0015882975542072387 0.0009151317993452085 0.0009693775130977518 0.0015770337622293196 0.0005373870514718772 -0.0013563834853332901 0.0009990766728430673 0.00020650371043840236 -0.0008780757619872715 0.0006938985131987996 0.0002730682665009278 0.0011251524225193788 -0.0006785436393259926 0.0008603184301421624 0.0014116407726170366 0.0009551638548777132 0.0015482907426156423 0.00047294294372587486 -4.8249149545311144e-05 -0.0014461357195696153 -0.0014455869612279276 -0.000923187191475432 0.0008502014650296819 -0.0009405131497951774 0.0006598893866448379 -0.001086068606849089 -0.0013795652126980895 0.0015648271075526456 -0.0007724815292945951 0.0008292814975061421 0.0011651311760855374 0.0002934681810932077 -0.0015009678719942895 -0.000509566681515665 0.00025427200141574273 0.0008207260320970391 -4.707662076041189e-05 0.0003400193417766641 0.0005521987531552841 0.0011258505499219733 7.613191232028801e-05 -0.001591723882346071 0.00038188325861848716 0.0008196401525145091 0.0016206228764465151 -0.000717089850851575 -5.49806862686078e-05 -0.0007860692270386722 0.0013805989710495464 -4.2935672942177535e-05 0.0015055935070168692 0.0005981136253771919 -0.0009833529296141461 0.0013586549600476303 0.0015894922675281009 -6.516804628862195e-05 0.00060646941234399 -0.0010717880639618683 -0.0007438515001376222 -0.0013865475150551948 -0.001177207928372802 0.0006805822305042563 -0.0011929844341300017 -0.0004243531487272667 -0.001298636377366956 0.0008270313479119579 -0.0008266215264347164 -0.0009635910766941981 0.0009591470809589404 -3.5075999570221935e-05 0.0016154926011844096 -0.0008268655850305022 0.00039390213535669537 0.0006120288801227111 0.0009905823512813237 -0.0002332942647076161 0.0004055365077767258 0.0011245809502333736 0.0014655316036993476 0.0006538437517273816 -0.0007528437848065082 0.00018519055022812937 -0.0006837140847562633 0.0001657640509640897 0.00043628712451759165 0.0006594098154887932 -0.0009432601797251517 -0.0006809518443639627 -0.0013520309993773987 -0.00021655590900345183 0.00029451615131099453 0.0014354540941286609 0.0008922635331403676 -0.0008301526106487002 0.0007124705235228102 -0.0006972333928240406 -0.0002986226384273276 0.0005462165014409288 -0.0008577143856572326 -0.001521637579193439 -0.00017226532746472797 -0.0006498061927003623 0.0003517071043051256 -0.0007209917761339934 0.0006226903152833335 0.000505444654010888 -0.0016225245421748334 -0.0002095469265359741 0.0007480271369571136 0.0009713127333377459 0.0012717108613218013 -0.0007300351977381303 -1.6887476876351195e-05 0.0010330378894786807 0.00160598988309114 0.0011275958727535993 -1.9715865235432004e-05
非常 -4.123879626186445e-05 -0.0005093661199575864 0.0014223996638368435 0.00014388496355109231 -0.00045217479676777666 0.0008691012515741047 0.0001323710436579719 0.00025795606668098435 0.00017030885737957276 -0.0016198983293470158 -0.0014214748133940381 0.0011862842799741302 0.001170639784388317 -0.001133270458667152 -0.0011704662679365711 -0.0014248822238539776 -0.0008223543473917809 -0.0011306166172327821 -0.0016119354295550028 -0.0011292936805371424 0.0012750927148448968 0.0013233740226041319 0.001528328588639817 0.0012734214770544793 -0.0006905686481050612 -0.0002967400968508675 -0.0015719365804936125 -0.0009412570877240222 0.0014434992662513619 0.0005418107082093882 -0.00014788662636575192 0.0009502009331262196 -0.00026550737429425564 0.0016414765413495453 0.0015143234298214039 -0.0010245273886602766 0.0004663003587939637 -0.001380498907632797 -0.0008186651309274015 0.00042479627744512895 0.001605562309378376 0.0003373645319884578 -0.00015119790351613284 -3.222065625618396e-05 -0.00020042500962569424 0.00010513729676947666 0.0012526906896966525 -0.001337840881157838 -0.0008788254530625455 -0.001636348711147957 0.0011048192546626746 -0.0005127381386089184 0.0012202260142351467 -0.0001414078691213801 -0.001534394848125342 -0.00025192193069826493 0.000497518085608363 -0.00040204752731241595 -0.001019718223074546 0.00026903551925666066 0.0012443462505855665 0.0003562132084145026 0.0001833494697263733 0.0006539940241206263 -0.0006464611012507259 0.001039624867919914 -0.0005082957603010481 1.6575652298902772e-05 -0.0006363652132147942 0.00034625286570932624 0.000608577849478364 -1.944904232590364e-05 -0.00010885349327232222 -0.0016257463601706459 0.001266177642857229 -0.0013332040379032933 -0.0006672353998263456 0.0003128397715928881 -0.0001058211679973039 0.0005786015107760415 0.0011255127337154443 0.0014355301011949211 0.00019868801607972396 -0.0003766024574834648 -0.00037982198266197997 -0.0005680035119380474 0.0015928409657524694 -5.9692643833372836e-05 -0.0015075293497675225 -0.0013267813359202282 0.00038350244682997295 -0.0008088892738792268 -0.00029957958062725647 -0.0003010814436090884 0.001626660494223276 -0.0014012979618516475 -0.00020890595709753733 0.0009002459272536685 -3.4590989492660774e-05 -0.0012619405019517632 -0.0006702375750492948 0.000398044354492015 -0.001014554866664553 -0.0008935586163428704 0.0014578537588333753 0.00010373377887325805 0.0015352688676067603 -0.00034587280734144294 -0.0003483361492543977 0.0009564449020620054 0.0016543789124848277 0.0014326302322001476 0.0005610723946927649 -0.001245623655623051 -0.0003982475137085298 -0.0008185913821353446 0.0006293093825268462 0.0003466790410831392 0.0011926396452323885 0.0007150902262753701 0.00043422712341156344 -0.0015188419722021263 -0.0005242464933777641 0.0012925757394050648 0.0008967578981049743 -0.0013696173943754581 -0.001133190226835364 0.00029015342164179816 0.0009127274558516999 -0.0013760527348385596 -0.0013755229108077718 -0.000682760573383092 -0.00045012742050860394 -0.00025746831254566324 0.0007677999881453206 0.0010085517902235581 -0.00013774461256241274 -0.00027558747506725473 -0.0015864014114954975 -0.001051077863313131 7.687205374063913e-05 0.000793110977501365 -2.538288257469578e-05 -0.0006388800448190834 0.0013471238825722488 0.0013926283400563936 0.0010643078338551317 0.0012744909536010524 -0.0001104616409904346 -0.001563395064122895 0.0005739484681306881 0.0015408604037775123 -0.00112374476139598 -0.0006586013824274436 -9.153594055630139e-05 -0.0008578498724082821 -0.0008327381397411142 0.0006505273577308571 0.0016636185811401618 -9.23127054681801e-05 0.00034491951980827006 -0.001181512556041077 -0.0005819078431284681 0.0009797387389369977 -4.613076808204594e-05 -0.000860833385110018 0.00019558693794658217 -0.0012552466549005856 0.000405754455999333 0.00020422139945259387 -0.00040928666458736693 -7.3859225476981e-05 -0.0003438809377464737 -0.0006500112632626763 0.0008752925578625784 -0.0011467998391093913 -0.0008790824708628432 -0.0007781535875606186 -0.0011064238448212395 0.0006376035424329194 0.0014935938015260097 0.0009949166500435854 -0.0005880840594108049 0.001159588651004121 0.0005016378140212286 -0.0005388009029512822 0.0014417465856519885 0.0016479102770796915 -0.0006234464094643361 0.0013919883173391238 0.0012998485826390864 0.00046983252844643846 0.00039720177793999765 -0.0012088428049116372 -0.001432698446354764 -0.00017403925651347362 -0.00011355262394098646 -0.0010218340568546181 0.0008662212083371327 -1.3088328940922253e-05 0.0004954135985548943 -0.001539310081981749 -0.00034945481955630587 -0.001517271949703473 -0.0006993543315599101 -0.0011810296668417022 0.0013722009072248823 -0.0003181156244992217 0.0015391788952411336 -0.0010301161212974994 -0.0007029184721621103 0.0013296644698946288 -0.0002367402339665832 0.00035085030510952184 0.0016101725100506135 0.0008674069320392126 -0.0014234460753024029 0.0011828062981671039 0.0003399089931796299 -0.0011898098670380212 0.0007109956263218216 -0.0009289149238158898 -0.0010290388049315068 -0.00019719320805446417 0.000489155552586584 0.0005081193043414465 -0.0005223783571534906 -0.0011659703315413108 0.001274698597167084 -0.0001330119526733305 -0.0003562685884532294 0.0008670573529178716 0.00039676203951917064 0.0008922752353759879 0.0010828958109556318 0.0011531959072010303 -0.00010634032599275398 -6.229217183186984e-05 0.0012020269814742531 -0.0010223651475840907 0.0006577828409652272 -0.0007217556337505013 0.00025130174456142505 0.00017807711005816344 0.00017642588414649142 -0.0011409339572197152 0.0008363483529424824 0.0010005664043373933 -0.0005707924732063978 0.00028584994862035167 -3.4675745541422505e-05 0.0012985142161659937 -0.0004570784087620181 -0.0003604208322235138 0.0005177116027178054 4.487119852852822e-05 -1.0352505301377978e-05 -0.0012524900447134497 -0.0013532852735411098 -0.0002479834947491097 0.0006258850744494569 -0.0015457823032628314 -0.0002366849377804386 0.001058353701470433 -0.001473535065285317 -0.0015913671493658602 0.0011566173760878345 0.00035183303690646705 -0.0008651990332743624 0.00037932227221132035 0.0007092225872312066 0.0014033983408465634 -2.9736744282446507e-05 0.0013462689791540676 -0.0006455602399784079 -0.0006401480508975196 -0.0005680450549769372 0.0004984446716465676 0.001388936492312818 -0.0004863483995174027 -0.00022380496168896194 -3.3024213838303124e-05 -0.001213952582959177 0.00016025152677395644 -0.0005634896306403106 -0.0009595693722153308 0.00016815106186081395 0.000994501676955428 -0.0009315303099112063 -0.0015312385846269038 -0.0002444877107956333 0.0011690933921962238 0.0010840130828266722 -0.00041005120117989466 -0.00040739153463944996 0.00040442834790771807 -0.00010061000088394561 0.000977304486252088 -0.0006371557763008537 -0.000716844780568974
值得 0.001425923768743948 0.0005241948811214 0.00041571072993741196 -0.0005044609343967924 0.0008844300541395407 0.0013674610681153813 -0.0014345434625754193 0.0008439242116367324 -0.00044561611444028415 3.03631208499336e-05 -0.0008074001580228999 -0.001183880494988219 0.0001586948773659904 -3.81336835870015e-05 -0.0013623821371660826 0.0006677286818009616 -0.0010050277566341376 0.0009786317063535885 0.0007334679656581256 -0.0009836386364848561 -0.0016291873732652803 -0.001427764378968189 -3.2568558186778866e-05 0.0002554086669865909 5.848275249673303e-05 0.00019265666024126312 -0.0009556862774303538 0.0007523065244340234 -0.0012020317604687885 0.0005205405460059489 -0.0012427760965180183 0.00020516102609509788 -0.0005267757941141403 -0.0008339596887385742 0.001382900792720346 0.00026878263170300226 -0.0007596669007253107 -0.001647187866736747 -0.0005037860350012828 -0.0011303809495274743 0.0016538348727104767 0.000733246517892562 0.0010442325510497798 -0.0013627459808443058 -0.0001520225656046995 -0.0014533687510175702 -0.0010504690386892615 0.00026263255171025024 0.0008462522361940034 -0.0005548522648914777 0.0008932325389651539 -0.001059270828817739 -0.0011959636040646561 0.0014202853601254692 0.0014851059797620224 -9.211909968435877e-05 -0.0003143089863423037 0.0006214887048763951 0.00141313032542712 -0.000891262737344677 -0.0005397332920311571 -0.001580582243224205 0.0005786204626416001 -0.0015021118565453964 -0.0004871948907965822 -0.0006121220912472357 -0.0007733828501904165 -0.0008207475576827217 0.0008655428761509202 0.0009819896696703237 -0.0006447839059587227 -2.6548372374219632e-05 0.0004125135982077012 -0.001484301516471117 0.0016365456330972364 -0.000579904139378558 -0.001041864360829945 -0.0009632365225921729 -3.5653447217510426e-05 0.000515148931504445 -0.00018058865681997514 -0.0003353964098731466 -0.000774504742414875 -0.0012229118267343014 -0.0005145834732878888 -0.0006722562865033627 -0.0015820068210805269 0.00013133503236748676 0.0012725178895388995 0.0006012439298005806 -0.0014381747945020392 0.0011541422236000184 0.0014597143004337052 0.0002850035712043668 -0.000811353391486754 0.0013583282941867366 0.0010713909756193143 0.0005541666707008388 0.0015497411702063049 -0.0005244610718244283 -0.0014795901913162292 0.0003413712380646495 0.0006047191223062014 0.00026014915550672755 0.0011989075492965509 0.0010996309618304576 -0.0010463579518952295 0.0016047052261883633 0.000812339619026569 -0.0008883532990674848 0.0007503305807139172 -0.0012503083829573437 -7.047387343903892e-05 0.0012000661378398804 -0.0008800443457377138 0.000666605703106632 -0.00014487622763059328 -2.9791416182388563e-05 0.0007961897471263105 0.0006407583269666796 0.0014664379364165477 -0.00019535186183224933 -0.0014019229839408829 -0.0009330807102411194 0.0004296140432349182 5.799575362502123e-07 -0.0005603588037485775 0.000725720244177634 -0.00012402106563675548 0.0008945344264690285 -0.0011071061210075972 0.0007905840387587666 0.0005820222478836241 0.00013468224967385457 0.000645346576731756 -0.0011092965383446328 -0.000260570336627952 -0.0005977000545900239 -0.0008235778680848733 -0.0008729648532958898 0.0009200191778271341 0.0008056098409209512 -0.0014108951262404978 0.001233605152757946 -0.0012712798254596314 -0.0004674255618419249 9.325384072816436e-05 -6.39827111137427e-05 0.00031299149781785284 -0.0009489663210938511 0.0010226118981632806 -0.0012288667467990207 0.0015904669998421574 0.0010482108093153803 0.0004811723457420257 -0.00036578606009190064 -0.0009743544157346178 3.840357363997188e-05 0.0004620529297790227 -0.0014933969637917002 2.2566452257681137e-07 -0.0007130870826480293 -0.0011736570787966682 -0.0012070411646888928 -0.0010577719786196297 0.00011746828173416495 0.00032601321447650995 -0.0006887944369089479 0.0005447220523497228 -0.0006825718795591732 0.0002691707334961054 -0.0013495889348587504 0.0008410266810816284 0.0013920998080843398 0.001555682735336451 -0.0005008699019018787 -0.0014846104236304176 0.0004070261033797759 -0.00042544051892541915 2.0092352443831152e-05 -0.0014430539904858376 0.00039226839574244606 -0.0006731718143588355 0.0006758417792809106 0.001222245187721009 -0.0012745149919438173 0.0004105590269435253 -0.0015544735606441659 0.0011295727902531113 -3.845544732453932e-05 0.000841997547646811 0.0009474632240795367 0.0014820617791317663 0.00017570760408430633 0.0002962862440087212 0.0008015252093402595 0.0004999103161838551 0.0016233929681589963 -0.000906971858491041 0.0009382000575171478 6.551943559209696e-06 0.00041887079834163613 0.000915198159332938 0.0005571998981995658 -7.959334782055245e-05 -0.0007824387961919314 0.0011743731265852532 -0.0003256308557564767 9.948515895437291e-05 0.0012190969768816414 -0.0005414796035365931 0.0012473678904566482 -0.001006983354197785 -0.00044056734596381467 0.00047927556228764394 0.0005289886103851673 0.0014955735629805051 -0.0001933556065868701 -0.0013100738468176441 1.8458531390474566e-05 0.0012776338245702136 -0.0005339759484267745 -0.00014151726467810628 -0.00038570973675814064 -0.0012816009313262487 0.00044814303520217274 -7.044547833967739e-05 -0.0016291596137053112 -0.0008024917965568863 0.0012138641895245007 0.0012518547366684727 0.0015328771377663038 0.001402013723030765 0.0008601006601998392 0.00048334500284361666 -0.0012957095528645878 -0.0002908808847771403 -0.00020183729382247762 -0.0012191483509590077 0.0012379817047779994 -0.00032525702123789026 -0.0012156311345807044 0.000712447740926206 0.000594455010699686 0.0011185732853719187 0.0006271750598678728 -0.00015370250395505428 0.00014297553991700658 0.0013868927791585307 0.0005797419643433503 -0.0015466137631016232 -0.0014281392703039207 -0.0016093721738850884 0.0013328559488902066 0.0005084895501176198 0.0010839004939059613 9.030842190184017e-05 0.0015341538281384182 -0.0003802992823813679 0.0010093058495956916 0.0005745831551295785 -0.0006688194973380211 -0.0010724300542843046 -0.0006262616769753508 0.00017006347517051492 0.0004572931935862067 -0.0013255257847090266 -0.0007609348880529829 0.00011894341881864329 -3.6853959272023924e-05 -0.0008526535798871672 0.0003047535744168695 0.0015385843316241107 0.0001861457858425798 -0.0010927953677066183 -0.000571236710300703 0.0011015677236771734 0.0002694303773170316 -0.0009225164726754529 -0.0011374775518803132 0.00022195295214758512 -0.000694266099324395 0.0012952811972921532 -0.00033714697183210885 -0.0016297804190648032 0.0007985989261737821 -0.0011768190566392612 0.0012729986546315035 0.00014029968539496187 -0.0004922813994759352 -0.001266880141129587 0.0010691333199009752 -0.0010597838584808536 -0.0010195262923022358 0.0015724032234660037 -0.0001621945406275867 -0.0005664819971704702 2.5374851161081766e-05 -0.0013554530859619584 0.00021473940486076837
推荐 0.0002835400592861538 6.297879104724543e-05 0.0009953744896806838 -0.00042896689403945675 -0.0013727858270675248 -0.0006600758425050058 -0.001645061022009076 -0.0006892159330124027 -0.0005762909202250363 0.0013123373226601915 -3.944649491240644e-06 -0.0006314494036896856 0.0005051633591723453 0.0008815519119800476 -0.0013709190178355158 0.0006470216395375063 0.0011809439426154194 0.0010585595305224419 0.0012716884898988795 -0.0007493706034640825 -0.0006090118970837856 -0.001555594668260223 0.0007634259144897902 -0.0011593438933153069 -2.5745438971572333e-05 -0.0006444973852115968 -0.0001992758482738716 -0.0012384552136014413 0.0004738018650660604 0.00046095456517988604 -0.0009920163386693652 -0.0005775910874733153 -0.00046976014404075383 0.0015229354399624421 -0.001618884849906737 0.00025653708733595497 0.00043687556607611744 -0.0008000567142673372 0.0003346841814371273 0.0008529261820600044 0.00042374958437499036 0.0007981401778328688 -0.0006300564196159056 0.0012517129436820029 -0.0016586960774467095 -0.0014208441190933533 -0.00021711181413203127 0.000731259431967726 -0.0015994615007175568 0.00022244286468018048 -0.0013971200354876096 -0.0006305993743024546 0.0012917807113777342 0.0016388756095340312 0.0011605760466975265 -0.00035421905595977036 0.00029314758732131 -0.00019937871418807654 0.0005687226837589104 0.0005945699530078068 -0.0012810844511045602 -0.00040722156360416094 -0.001656285472530843 -0.0007866412557513178 0.0008523434080863662 -0.001223587637142495 0.0013756031002444865 -7.40843324925669e-05 0.00033171088005653934 -0.0009658670428902468 0.001496148301196498 -6.506225146300128e-05 0.0007560334678075089 -0.001244878502742652 0.0003937348675018229 0.001032271224838087 -0.0003609986420556519 -0.0001972528036060151 0.001128604366965564 -0.0008648777337372988 0.001529766269133553 0.001622228418005858 -0.0004301420481403275 -0.00022042466073853232 0.000355313606385723 0.0008395381598202155 0.0014271477746393285 0.0012748054868271556 -5.572816649773633e-05 7.473863438139426e-05 -0.00046099877940018253 0.0004847458349071472 -0.0011373834049064069 -0.0004971685292228744 -0.0007585836346216443 -0.00044533399389872603 -3.120660071124635e-05 -0.0005621400062358821 0.0005003576191651149 -0.0009355690345709049 0.0015425181904541406 -0.0003172124641391427 -0.0005694120052078534 0.0012167873369456534 -0.0005533622698337437 0.001215590896629789 -0.0003568890187531742 -0.001384027642162377 0.00015183420981532326 0.0013447648421919033 0.0005829914138449038 0.0006917824170622648 -1.9572740056859755e-06 0.0009354572061381333 0.001431963424059059 0.0003615837979257425 0.0010554545386049926 0.0015742174427162607 0.001257637262418675 0.0007485199742716148 -0.0003987574811260393 -0.0004584170576911753 0.0010127039195145502 0.0009887727199563853 -0.0010818490482981803 -0.0010900123601263279 8.856907494628019e-05 0.0009079578869990907 -0.0006396891748719187 0.001038877881946675 -0.0013104553280995353 0.0002969187306892929 -0.00013821498788212983 -0.0009139401110549913 -0.0016530112635971862 -0.00011740281132097114 0.0006163017415656493 -0.0013971545726613247 0.0009472774497676287 0.0005800713570944276 -0.0006486225288912861 -0.0005315649796470946 -0.0004659300693513984 5.387226285847072e-05 -0.0011535809361944312 0.0004632806437987684 -0.0007313649974983995 0.0008493130590886429 0.000343841266136678 -0.001652742290469967 0.0010087843351703376 0.001040963396646937 0.0013751982358445108 0.0014365904706553016 -0.0009580034649324119 -0.0009733552781648198 0.0012705312361425926 0.000244957061188326 0.00034363999806434023 0.0004332122866528056 -0.0016087639231510925 0.0007896762338142451 -2.5780086668295937e-05 0.0009928481965851043 0.0015763661498330505 0.000977459267973804 -0.0006901624451699741 0.0007291155627208284 -8.098592844759632e-05 0.0007141029866595536 -0.0010229917061639934 0.0009408378959110342 -0.0005146979806580251 -0.0011469346957995426 0.0012489295734401172 0.0009612505925806454 -0.000573367836459908 -0.0015788356294876046 -0.0005282309172169258 0.00017725569515799396 0.0010778386392775912 0.00048788822633035383 -0.0002823155321751451 -0.0010103505821402428 -0.0013512188567014036 0.000956936980230334 0.0001407527435525517 -0.0012568395419319588 -0.0008419099220716086 -0.000668374880039695 -0.0010096340964135572 0.0009106994359344266 0.0003845361921318265 0.0008882750649665471 0.0002827175039325756 0.0004336602706095093 -0.0008798240895571022 -0.0010560803537392018 0.0013210365550894347 -0.0006654582507649669 0.0009144921980516941 0.0016511433451529911 0.0002992132963153099 -0.00022527995691783072 0.0008392374408477399 0.0006785225770673986 -0.0014509948187563311 0.0001842994799294737 9.916483741491809e-05 -0.0009230398416054715 0.001520378812401152 0.0005361262617352902 -0.0005343608026990531 0.0009039918391292232 -0.0005680953900674112 0.0013518123194567243 -0.00030363267448060464 -0.0006446378400604336 0.0016026345483729088 -0.001248378681416692 -0.0004446815676935416 -0.0005292645197713275 0.0007459102081292245 1.0158418981279079e-05 0.0011918402345611752 0.0001190222496054887 0.00014175368188599685 0.00024980421295047015 -0.0004223307143042348 9.372216404800448e-05 -0.0010118842757163846 -0.0013104355097653302 -0.0010745239307059882 0.00122037049942452 0.0008635505489713747 -0.0008660375807701014 0.0005218635127830788 4.441554095459278e-06 0.0005425078473363723 0.0015014054424808713 0.0016408510934812707 -0.0009030274634227809 -0.0009186884405504378 -0.001138597503689295 0.0015151324714260156 0.0009673396621285477 -0.0003787225175521502 6.407955151079697e-05 -0.0007745792203149469 0.0010593897714167725 -0.000175716114831899 -0.0011383600275730293 -0.0016096962740110772 0.0009746399142854433 0.001309181796870409 0.001098695569380615 -0.0006419123022957488 -0.0005647877823361197 0.0005548728298137583 -0.0010910961686389428 0.0010333424057463812 0.0012598223849270447 -0.0013496645686600275 0.0001613833762711455 0.0005199978505918252 -0.0005417015744099656 -0.00024165476445050444 -0.00016068411301361336 -9.969227163948871e-05 0.0004264561388423404 0.0015830390544957459 -0.0009578185003828458 0.0009187820106288721 0.0016408297769126684 -0.0014975627089791382 0.0015783000150338155 -0.0007479788513825564 -0.0009050733163841937 0.0003981910492974684 0.0010844551286818128 -0.001126776100706594 0.0011278816913346033 -0.0006620123197941722 0.0007960936226834121 -0.0005552351522176608 0.0016192374776891482 -0.0010628114713222036 -0.0012829941627741244 0.0001485888685867133 0.0009454721515134778 0.00043872252046404107 -0.001654471232986311 -0.0001317149539011068 0.0013125168519467641 -0.0007382081678695139 0.0008557461952506705 -0.0009958023231222473 -0.0011861439447095577 -0.00016452563845694262 0.00011046446317000211
